genomestart 88
trait 1 0.1 0.0 0.0214577367982 0.0 0.0 0.0386807906652 0.00280207779103 0.0333826461882 
trait 2 0.2 0.0 0.0 0.0 0.0 0.0 0.0 0.0 
trait 3 0.198422502809 0.228249762274 0.0 0.0 0.0 0.876141818133 0.0 0.423584128387 
node 1 2 1 3
node 2 2 1 1
node 3 1 1 1
node 4 3 1 1
node 5 1 1 1
node 6 2 1 1
node 7 3 1 1
node 8 3 1 1
node 9 3 1 1
node 10 2 1 1
node 11 2 1 1
node 12 3 1 1
node 13 2 1 1
node 14 2 1 1
node 15 1 1 1
node 16 1 1 1
node 17 2 1 1
node 18 2 1 1
node 19 1 1 1
node 20 2 0 2
node 21 1 0 2
node 22 2 0 2
node 23 1 0 2
node 24 3 0 2
node 25 1 0 2
node 26 2 0 2
node 27 2 0 2
node 28 2 0 2
node 77 1 0 0
node 112 1 0 0
node 122 1 0 0
node 151 1 0 0
node 176 1 0 0
node 202 1 0 0
node 216 1 0 0
node 241 1 0 0
node 246 1 0 0
node 264 1 0 0
node 320 1 0 0
node 346 1 0 0
node 364 1 0 0
node 380 1 0 0
node 407 1 0 0
node 421 1 0 0
node 465 1 0 0
node 484 1 0 0
node 520 1 0 0
node 527 1 0 0
node 538 1 0 0
node 567 1 0 0
node 605 1 0 0
gene 1 1 20 -0.80710973509 False 1.0 -0.80710973509 True
gene 1 1 21 -0.835399310085 False 2.0 -0.835399310085 True
gene 2 1 22 -3.1891224787 False 3.0 -3.1891224787 True
gene 3 1 23 -0.393662302834 False 4.0 -0.393662302834 True
gene 2 1 24 -4.06725409067 False 5.0 -4.06725409067 True
gene 3 1 25 -5.38009136057 False 6.0 -5.38009136057 True
gene 3 1 26 3.39475389477 False 7.0 3.39475389477 True
gene 3 1 27 -3.60178733642 False 8.0 -3.60178733642 True
gene 3 1 28 -0.326895638479 False 9.0 -0.326895638479 True
gene 1 2 20 -2.79141501858 False 10.0 -2.79141501858 True
gene 1 2 21 1.6975462369 False 11.0 1.6975462369 True
gene 1 2 22 -1.03010561706 False 12.0 -1.03010561706 True
gene 3 2 23 -3.92130538175 False 13.0 -3.92130538175 True
gene 2 2 24 0.535030964446 False 14.0 0.535030964446 True
gene 2 2 25 1.53181850892 False 15.0 1.53181850892 True
gene 3 2 26 1.49802042078 False 16.0 1.49802042078 True
gene 1 2 27 -0.81359227731 False 17.0 -0.81359227731 True
gene 1 2 28 2.40573127832 False 18.0 2.40573127832 True
gene 2 3 20 1.19383910859 False 19.0 1.19383910859 True
gene 2 3 21 2.15221156597 False 20.0 2.15221156597 True
gene 1 3 22 2.38684801165 False 21.0 2.38684801165 True
gene 1 3 23 -0.907103938139 False 22.0 -0.907103938139 True
gene 1 3 24 1.7285154985 False 23.0 1.7285154985 True
gene 1 3 25 0.786674541233 False 24.0 0.786674541233 True
gene 3 3 26 0.325349824162 False 25.0 0.325349824162 True
gene 3 3 27 -7.25675444964 False 26.0 -7.25675444964 True
gene 1 3 28 2.73453709414 False 27.0 2.73453709414 True
gene 2 4 20 -2.22869374299 False 28.0 -2.22869374299 True
gene 1 4 21 -3.48231878967 False 29.0 -3.48231878967 True
gene 3 4 22 1.80240654805 False 30.0 1.80240654805 True
gene 1 4 23 3.125295345 False 31.0 3.125295345 True
gene 3 4 24 1.07290723417 False 32.0 1.07290723417 True
gene 3 4 25 0.152908988135 False 33.0 0.152908988135 True
gene 2 4 26 4.7673851042 False 34.0 4.7673851042 True
gene 3 4 27 0.612313947581 False 35.0 0.612313947581 True
gene 2 4 28 3.30218379026 False 36.0 3.30218379026 True
gene 2 5 20 0.27489515427 False 37.0 0.27489515427 True
gene 1 5 21 0.0871888518873 False 38.0 0.0871888518873 True
gene 1 5 22 -1.70370585647 False 39.0 -1.70370585647 True
gene 2 5 23 0.838271978804 False 40.0 0.838271978804 True
gene 3 5 24 -1.05433673255 False 41.0 -1.05433673255 True
gene 1 5 25 1.95094438374 False 42.0 1.95094438374 True
gene 2 5 26 0.728289161762 False 43.0 0.728289161762 True
gene 1 5 27 0.19133768146 False 44.0 0.19133768146 True
gene 2 5 28 0.00300606497841 False 45.0 0.00300606497841 True
gene 3 6 20 -1.49277187103 False 46.0 -1.49277187103 True
gene 3 6 21 -0.76173448346 False 47.0 -0.76173448346 True
gene 1 6 22 -2.50180591035 False 48.0 -2.50180591035 True
gene 2 6 23 -0.300949685371 False 49.0 -0.300949685371 True
gene 1 6 24 -1.06068949755 False 50.0 -1.06068949755 True
gene 1 6 25 0.429415602647 False 51.0 0.429415602647 True
gene 1 6 26 -1.30614861703 False 52.0 -1.30614861703 True
gene 3 6 27 -0.975739729972 False 53.0 -0.975739729972 True
gene 1 6 28 0.456558180786 False 54.0 0.456558180786 True
gene 3 7 20 2.72351778157 False 55.0 2.72351778157 False
gene 2 7 21 -3.33259466984 False 56.0 -3.33259466984 True
gene 1 7 22 2.0766739633 False 57.0 2.0766739633 True
gene 1 7 23 3.38467028456 False 58.0 3.38467028456 True
gene 2 7 24 -2.26194588165 False 59.0 -2.26194588165 True
gene 2 7 25 -0.478876296526 False 60.0 -0.478876296526 True
gene 3 7 26 -1.38620140446 False 61.0 -1.38620140446 True
gene 1 7 27 1.22578450462 False 62.0 1.22578450462 True
gene 2 7 28 0.336601519827 False 63.0 0.336601519827 True
gene 3 8 20 0.242204656334 False 64.0 0.242204656334 True
gene 2 8 21 -0.74308710523 False 65.0 -0.74308710523 True
gene 3 8 22 -0.738742293694 False 66.0 -0.738742293694 True
gene 3 8 23 3.84038291751 False 67.0 3.84038291751 True
gene 1 8 24 2.5620122764 False 68.0 2.5620122764 True
gene 3 8 25 -1.12690049483 False 69.0 -1.12690049483 True
gene 3 8 26 1.73898626017 False 70.0 1.73898626017 True
gene 2 8 27 1.28317127654 False 71.0 1.28317127654 True
gene 1 8 28 0.0705676130539 False 72.0 0.0705676130539 True
gene 3 9 20 -3.11682961823 False 73.0 -3.11682961823 True
gene 2 9 21 1.09812348412 False 74.0 1.09812348412 True
gene 3 9 22 -2.04314468313 False 75.0 -2.04314468313 True
gene 2 9 23 3.80329278765 False 76.0 3.80329278765 True
gene 1 9 24 1.27597457496 False 77.0 1.27597457496 True
gene 2 9 25 2.38004635457 False 78.0 2.38004635457 True
gene 1 9 26 3.15771764368 False 79.0 3.15771764368 True
gene 3 9 27 3.90120929782 False 80.0 3.90120929782 True
gene 2 9 28 0.147517468101 False 81.0 0.147517468101 True
gene 2 10 20 2.79669273403 False 82.0 2.79669273403 True
gene 1 10 21 1.70043628451 False 83.0 1.70043628451 True
gene 1 10 22 -2.36083526834 False 84.0 -2.36083526834 True
gene 1 10 23 -4.26553177498 False 85.0 -4.26553177498 True
gene 2 10 24 0.0372961714533 False 86.0 0.0372961714533 True
gene 1 10 25 1.14011318076 False 87.0 1.14011318076 True
gene 3 10 26 -0.0718474237424 False 88.0 -0.0718474237424 True
gene 1 10 27 -1.59548285097 False 89.0 -1.59548285097 True
gene 1 10 28 -1.22931940676 False 90.0 -1.22931940676 True
gene 2 11 20 -3.03827928098 False 91.0 -3.03827928098 True
gene 1 11 21 3.16402775684 False 92.0 3.16402775684 True
gene 2 11 22 3.18054194116 False 93.0 3.18054194116 True
gene 3 11 23 1.21493881984 False 94.0 1.21493881984 True
gene 1 11 24 -1.02927969469 False 95.0 -1.02927969469 True
gene 2 11 25 2.66047219285 False 96.0 2.66047219285 True
gene 3 11 26 1.10442950241 False 97.0 1.10442950241 True
gene 1 11 27 -0.4691928342 False 98.0 -0.4691928342 True
gene 3 11 28 0.738819724186 False 99.0 0.738819724186 True
gene 2 12 20 -0.331226522239 False 100.0 -0.331226522239 True
gene 2 12 21 1.28231380356 False 101.0 1.28231380356 True
gene 2 12 22 -0.0255991846702 False 102.0 -0.0255991846702 True
gene 1 12 23 -1.83874986483 False 103.0 -1.83874986483 True
gene 3 12 24 2.60006673589 False 104.0 2.60006673589 True
gene 2 12 25 -0.634391812268 False 105.0 -0.634391812268 True
gene 3 12 26 3.055452638 False 106.0 3.055452638 True
gene 3 12 27 -0.343061180587 False 107.0 -0.343061180587 True
gene 2 12 28 -0.710479130713 False 108.0 -0.710479130713 True
gene 2 13 20 -0.110456259387 False 109.0 -0.110456259387 True
gene 3 13 21 -1.45812754405 False 110.0 -1.45812754405 True
gene 1 13 22 -0.34047460109 False 111.0 -0.34047460109 True
gene 3 13 23 -1.00150808376 False 112.0 -1.00150808376 True
gene 1 13 24 -1.34528618584 False 113.0 -1.34528618584 True
gene 2 13 25 2.89713251245 False 114.0 2.89713251245 True
gene 3 13 26 -3.31752315239 False 115.0 -3.31752315239 True
gene 3 13 27 1.86445732789 False 116.0 1.86445732789 True
gene 1 13 28 1.54301913809 False 117.0 1.54301913809 True
gene 2 14 20 -4.8661180759 False 118.0 -4.8661180759 True
gene 2 14 21 1.20870821791 False 119.0 1.20870821791 True
gene 1 14 22 2.81253176588 False 120.0 2.81253176588 True
gene 1 14 23 -4.46586065422 False 121.0 -4.46586065422 True
gene 3 14 24 0.394876019505 False 122.0 0.394876019505 True
gene 3 14 25 -3.87892062674 False 123.0 -3.87892062674 True
gene 1 14 26 -1.31329648215 False 124.0 -1.31329648215 True
gene 2 14 27 1.62609258173 False 125.0 1.62609258173 True
gene 1 14 28 1.94824253185 False 126.0 1.94824253185 True
gene 2 15 20 1.28057533292 False 127.0 1.28057533292 True
gene 1 15 21 0.35183094248 False 128.0 0.35183094248 True
gene 1 15 22 1.23365932554 False 129.0 1.23365932554 True
gene 1 15 23 0.240623635389 False 130.0 0.240623635389 True
gene 2 15 24 0.317914972677 False 131.0 0.317914972677 True
gene 3 15 25 -0.117805829725 False 132.0 -0.117805829725 True
gene 2 15 26 -2.38007352242 False 133.0 -2.38007352242 True
gene 2 15 27 -0.566935713623 False 134.0 -0.566935713623 True
gene 3 15 28 0.71083391278 False 135.0 0.71083391278 True
gene 3 16 20 0.337345445643 False 136.0 0.337345445643 True
gene 3 16 21 -0.763552571197 False 137.0 -0.763552571197 True
gene 2 16 22 0.839705730869 False 138.0 0.839705730869 True
gene 3 16 23 0.299758440096 False 139.0 0.299758440096 True
gene 3 16 24 -3.68046540901 False 140.0 -3.68046540901 True
gene 1 16 25 2.30093950571 False 141.0 2.30093950571 True
gene 2 16 26 0.415214157354 False 142.0 0.415214157354 True
gene 2 16 27 -1.58621462253 False 143.0 -1.58621462253 True
gene 1 16 28 1.46179324324 False 144.0 1.46179324324 True
gene 3 17 20 0.809209432486 False 145.0 0.809209432486 True
gene 1 17 21 -0.174109288779 False 146.0 -0.174109288779 True
gene 2 17 22 2.38746055047 False 147.0 2.38746055047 True
gene 3 17 23 2.08887312459 False 148.0 2.08887312459 True
gene 3 17 24 -1.13614749065 False 149.0 -1.13614749065 True
gene 1 17 25 2.89208222007 False 150.0 2.89208222007 True
gene 3 17 26 -2.05846263546 False 151.0 -2.05846263546 True
gene 3 17 27 -3.68950934328 False 152.0 -3.68950934328 True
gene 2 17 28 1.4327623908 False 153.0 1.4327623908 True
gene 3 18 20 0.0649058167511 False 154.0 0.0649058167511 True
gene 3 18 21 0.145483754208 False 155.0 0.145483754208 True
gene 3 18 22 0.641540877358 False 156.0 0.641540877358 True
gene 2 18 23 3.40036353482 False 157.0 3.40036353482 True
gene 1 18 24 -0.42193549449 False 158.0 -0.42193549449 True
gene 3 18 25 -1.24482539459 False 159.0 -1.24482539459 True
gene 3 18 26 0.932357826565 False 160.0 0.932357826565 True
gene 1 18 27 0.212862520631 False 161.0 0.212862520631 True
gene 2 18 28 -1.12873382281 False 162.0 -1.12873382281 True
gene 2 19 20 -2.52238233525 False 163.0 -2.52238233525 True
gene 3 19 21 -1.03278324935 False 164.0 -1.03278324935 True
gene 1 19 22 1.37304308858 False 165.0 1.37304308858 True
gene 2 19 23 -0.399152771195 False 166.0 -0.399152771195 True
gene 2 19 24 0.468625581212 False 167.0 0.468625581212 True
gene 2 19 25 -0.209615880403 False 168.0 -0.209615880403 True
gene 2 19 26 -3.71102643513 False 169.0 -3.71102643513 True
gene 1 19 27 0.536096761386 False 170.0 0.536096761386 True
gene 3 19 28 -0.579323019907 False 171.0 -0.579323019907 False
gene 2 23 21 -0.0125413234982 False 199.0 -0.0125413234982 True
gene 3 20 25 -0.485735054305 False 312.0 -0.485735054305 True
gene 2 10 77 1.57996157146 False 351.0 1.57996157146 True
gene 2 77 20 -1.39905800502 False 352.0 -1.39905800502 True
gene 3 11 112 0.978098095045 False 473.0 0.915598095045 True
gene 3 112 28 0.268291206262 False 474.0 0.346178566079 True
gene 1 3 122 0.681824269585 False 505.0 0.564636769585 True
gene 1 122 28 1.31348403365 False 506.0 1.25725473535 True
gene 1 15 77 -1.58905320407 False 533.0 -1.58905320407 True
gene 3 8 112 -0.739162210836 False 553.0 -0.739162210836 True
gene 1 2 151 -1.62083621617 False 601.0 -1.71458621617 True
gene 1 151 22 -0.840271453652 False 602.0 -0.811281995817 True
gene 1 8 176 0.224410829098 False 692.0 0.130660829098 True
gene 1 176 28 2.04279803272 False 693.0 2.0040236858 True
gene 1 112 27 -0.555363853625 False 711.0 -0.555363853625 True
gene 1 22 112 2.37523239142 False 743.0 2.37523239142 True
gene 1 17 202 -0.636902648876 False 786.0 -0.730652648876 True
gene 1 202 21 1.18677452422 False 787.0 1.16296543094 True
gene 2 20 176 2.09230483006 False 809.0 2.09230483006 True
gene 3 17 216 0.530629035377 False 839.0 0.468129035377 True
gene 3 216 26 -1.56701154356 False 840.0 -1.49481208541 True
gene 3 112 23 -0.0829997626822 False 899.0 -0.0829997626822 True
gene 1 7 241 0.213650019405 False 929.0 0.151150019405 True
gene 1 241 27 1.46748605995 False 930.0 1.19196713542 True
gene 3 4 246 1.37891725339 False 947.0 1.31641725339 True
gene 3 246 22 -0.599238560755 False 948.0 -0.782336045977 True
gene 3 12 122 1.17434985162 False 1001.0 1.17434985162 True
gene 1 15 264 -0.77119880067 False 1037.0 -0.83369880067 True
gene 1 264 21 1.01113477198 False 1038.0 0.989930024492 True
gene 1 77 176 -0.905459294809 False 1064.0 -0.905459294809 True
gene 2 12 320 1.36303208279 False 1231.0 1.24584458279 True
gene 2 320 25 -1.02115612444 False 1232.0 -0.919512483485 False
gene 3 14 216 -0.486699849604 False 1260.0 -0.486699849604 True
gene 3 4 320 -0.513816255366 False 1280.0 -0.513816255366 True
gene 2 246 25 2.68957187534 False 1296.0 2.68957187534 True
gene 3 16 346 1.54501521448 False 1336.0 1.45126521448 True
gene 3 346 20 -1.37508672726 False 1337.0 -1.25263276078 True
gene 1 16 151 0.634627924655 False 1361.0 0.634627924655 True
gene 2 15 364 0.159356780813 False 1399.0 0.0812317808126 True
gene 2 364 26 -0.149913746645 False 1400.0 -0.00276457573957 True
gene 2 13 202 -0.610971862547 False 1426.0 -0.610971862547 True
gene 3 10 380 2.15813825305 False 1467.0 2.08001325305 True
gene 3 380 26 -1.50115960452 False 1468.0 -1.46438805059 True
gene 2 16 407 0.931178121712 False 1565.0 0.837428121712 True
gene 2 407 27 -2.83725934817 False 1566.0 -2.71386627468 True
gene 3 6 421 -1.29996171291 False 1617.0 -1.36246171291 True
gene 3 421 20 -0.782971966358 False 1618.0 -0.700995677308 True
gene 2 320 112 1.10784452705 False 1708.0 1.10784452705 True
gene 3 15 465 0.510443518618 False 1756.0 0.322943518618 True
gene 3 465 25 -0.292209138708 False 1757.0 -0.263804232929 True
gene 1 6 484 -0.0538767328931 False 1823.0 -0.178876732893 True
gene 1 484 24 1.01638890904 False 1824.0 1.12696628587 True
gene 2 21 24 -0.747632106598 False 1851.0 -0.747632106598 True
gene 3 18 520 0.0470912018607 False 1938.0 -0.140408798139 True
gene 3 520 21 2.56503815785 False 1939.0 2.44123417415 True
gene 2 4 527 0.585299978433 False 1970.0 0.460299978433 True
gene 2 527 20 -2.51810400164 False 1971.0 -1.81030613661 True
gene 3 7 538 1.11636083233 False 2005.0 0.74136083233 True
gene 3 538 20 0.861322760175 False 2006.0 0.333479865115 True
gene 2 320 567 0.532731601475 False 2096.0 0.282731601475 True
gene 2 567 25 -1.4806611671 False 2097.0 -1.09772762043 True
gene 3 112 176 0.280815636334 False 2126.0 0.280815636334 True
gene 1 12 380 0.528052135463 False 2194.0 0.528052135463 True
gene 3 465 77 0.662830934216 False 2230.0 0.662830934216 True
gene 3 19 605 1.0 False 2258.0 0.0 True
gene 3 605 28 -0.579323019907 False 2259.0 0.0 True
gene 1 1 527 0.140169695935 False 2283.0 0.140169695935 True
genomeend 88
