genomestart 139
trait 1 0.08515625 0.0 0.0 0.0 0.0 0.0 0.0 0.0 
trait 2 0.2 0.0 0.0 0.0 0.0 0.0 0.0 0.0 
trait 3 0.630320308617 0.517845973553 0.0 0.0 0.0460132866022 0.704762010657 0.226594946411 0.0 
node 1 1 1 3
node 2 1 1 1
node 3 2 1 1
node 4 1 1 1
node 5 1 1 1
node 6 3 1 1
node 7 2 1 1
node 8 2 1 1
node 9 3 1 1
node 10 2 1 1
node 11 3 1 1
node 12 1 1 1
node 13 2 1 1
node 14 2 1 1
node 15 3 1 1
node 16 2 1 1
node 17 1 1 1
node 18 1 1 1
node 19 3 1 1
node 20 2 0 2
node 21 3 0 2
node 22 3 0 2
node 23 1 0 2
node 24 2 0 2
node 25 3 0 2
node 26 1 0 2
node 27 3 0 2
node 28 3 0 2
node 92 1 0 0
node 221 1 0 0
node 227 1 0 0
node 254 1 0 0
node 289 1 0 0
node 301 1 0 0
gene 2 1 20 3.77544060043 False 1.0 3.77544060043 True
gene 2 1 21 0.677037902744 False 2.0 0.677037902744 True
gene 1 1 22 -5.42171744802 False 3.0 -5.42171744802 True
gene 3 1 23 0.593090698887 False 4.0 0.593090698887 True
gene 2 1 24 1.3792038927 False 5.0 1.3792038927 True
gene 3 1 25 1.37780134699 False 6.0 1.37780134699 True
gene 1 1 26 -1.5336614013 False 7.0 -1.5336614013 True
gene 1 1 27 -0.453506737444 False 8.0 -0.453506737444 True
gene 2 1 28 -4.26412819723 False 9.0 -4.26412819723 True
gene 2 2 20 2.08350458148 False 10.0 2.08350458148 True
gene 3 2 21 -0.740528061739 False 11.0 -0.740528061739 True
gene 3 2 22 6.72005106949 False 12.0 6.72005106949 True
gene 3 2 23 -1.2619838206 False 13.0 -1.2619838206 True
gene 1 2 24 1.6928806857 False 14.0 1.6928806857 True
gene 2 2 25 -3.27481025371 False 15.0 -3.27481025371 True
gene 1 2 26 -0.305782464926 False 16.0 -0.305782464926 True
gene 3 2 27 -2.27935627132 False 17.0 -2.27935627132 True
gene 3 2 28 3.24404254294 False 18.0 3.24404254294 True
gene 3 3 20 -1.71601753791 False 19.0 -1.71601753791 True
gene 3 3 21 0.929536065401 False 20.0 0.929536065401 True
gene 3 3 22 0.803736806352 False 21.0 0.803736806352 True
gene 3 3 23 -0.296045983173 False 22.0 -0.296045983173 True
gene 2 3 24 3.44584823988 False 23.0 3.44584823988 True
gene 3 3 25 2.38654725588 False 24.0 2.38654725588 True
gene 2 3 26 -0.404158517019 False 25.0 -0.404158517019 True
gene 2 3 27 2.23417243283 False 26.0 2.23417243283 True
gene 1 3 28 -1.68952023838 False 27.0 -1.68952023838 True
gene 3 4 20 -5.99183106207 False 28.0 -5.99183106207 True
gene 1 4 21 1.26109373766 False 29.0 1.26109373766 True
gene 1 4 22 1.50613165697 False 30.0 1.50613165697 True
gene 2 4 23 5.53643070865 False 31.0 5.53643070865 True
gene 3 4 24 2.44895600064 False 32.0 2.44895600064 True
gene 2 4 25 0.201223574885 False 33.0 0.201223574885 True
gene 3 4 26 1.2143910045 False 34.0 1.2143910045 True
gene 1 4 27 0.11961851647 False 35.0 0.11961851647 True
gene 2 4 28 2.02481798263 False 36.0 2.02481798263 True
gene 1 5 20 0.24750710436 False 37.0 0.24750710436 True
gene 2 5 21 0.122864007737 False 38.0 0.122864007737 True
gene 3 5 22 -1.4238679173 False 39.0 -1.4238679173 True
gene 2 5 23 -1.13549440188 False 40.0 -1.13549440188 True
gene 2 5 24 6.81570464434 False 41.0 6.81570464434 True
gene 2 5 25 -2.84645677311 False 42.0 -2.84645677311 True
gene 2 5 26 4.96911479158 False 43.0 4.96911479158 True
gene 2 5 27 4.0702070574 False 44.0 4.0702070574 True
gene 3 5 28 -0.636175926872 False 45.0 -0.636175926872 True
gene 3 6 20 2.9007528505 False 46.0 2.9007528505 True
gene 1 6 21 -6.69582479514 False 47.0 -6.69582479514 True
gene 2 6 22 5.63123391836 False 48.0 5.63123391836 True
gene 3 6 23 2.0189695882 False 49.0 2.0189695882 True
gene 3 6 24 -0.533621269331 False 50.0 -0.533621269331 False
gene 2 6 25 -3.23009288196 False 51.0 -3.23009288196 True
gene 1 6 26 0.827788955491 False 52.0 0.827788955491 True
gene 1 6 27 0.0768503306968 False 53.0 0.0768503306968 True
gene 2 6 28 -2.45345601402 False 54.0 -2.45345601402 True
gene 2 7 20 -0.868986303375 False 55.0 -0.868986303375 True
gene 1 7 21 0.777073214342 False 56.0 0.777073214342 True
gene 3 7 22 0.0799834333572 False 57.0 0.0799834333572 True
gene 3 7 23 7.36160556784 False 58.0 7.36160556784 True
gene 3 7 24 -1.04083493294 False 59.0 -1.04083493294 True
gene 3 7 25 -5.03727842514 False 60.0 -5.03727842514 True
gene 2 7 26 -0.817912040256 False 61.0 -0.817912040256 True
gene 1 7 27 6.07822250985 False 62.0 6.07822250985 True
gene 1 7 28 -0.194456196578 False 63.0 -0.194456196578 True
gene 3 8 20 1.31619218796 False 64.0 1.31619218796 True
gene 2 8 21 0.265517665746 False 65.0 0.265517665746 True
gene 3 8 22 0.993016695218 False 66.0 0.993016695218 True
gene 2 8 23 2.1948098409 False 67.0 2.1948098409 True
gene 1 8 24 1.96971028485 False 68.0 1.96971028485 True
gene 3 8 25 3.49251050509 False 69.0 3.49251050509 True
gene 2 8 26 -0.385609712756 False 70.0 -0.385609712756 True
gene 3 8 27 6.48795175595 False 71.0 6.48795175595 True
gene 1 8 28 -0.932404685597 False 72.0 -0.932404685597 True
gene 3 9 20 -1.6022966883 False 73.0 -1.6022966883 True
gene 3 9 21 0.226244971326 False 74.0 0.226244971326 True
gene 2 9 22 5.93368006023 False 75.0 5.93368006023 True
gene 1 9 23 -2.58776514142 False 76.0 -2.58776514142 True
gene 1 9 24 1.0871091746 False 77.0 1.0871091746 True
gene 2 9 25 -2.69975567224 False 78.0 -2.69975567224 True
gene 2 9 26 0.322135597683 False 79.0 0.322135597683 True
gene 2 9 27 3.13191316145 False 80.0 3.13191316145 True
gene 2 9 28 -0.649383297867 False 81.0 -0.649383297867 True
gene 1 10 20 1.21900233645 False 82.0 1.21900233645 True
gene 3 10 21 -1.57695746702 False 83.0 -1.57695746702 True
gene 3 10 22 -0.702273378194 False 84.0 -0.702273378194 True
gene 1 10 23 -0.855083848815 False 85.0 -0.855083848815 True
gene 2 10 24 0.0665668103766 False 86.0 0.0665668103766 True
gene 2 10 25 3.39419507649 False 87.0 3.39419507649 True
gene 3 10 26 -3.9486005818 False 88.0 -3.9486005818 True
gene 3 10 27 2.41917000826 False 89.0 2.41917000826 True
gene 1 10 28 -2.83749327686 False 90.0 -2.83749327686 True
gene 2 11 20 1.38818398587 False 91.0 1.38818398587 True
gene 3 11 21 -2.99726061463 False 92.0 -2.99726061463 True
gene 1 11 22 -0.550073260924 False 93.0 -0.550073260924 True
gene 2 11 23 -1.36947715102 False 94.0 -1.36947715102 True
gene 3 11 24 -0.934693972166 False 95.0 -0.934693972166 True
gene 2 11 25 -4.89626411071 False 96.0 -4.89626411071 False
gene 3 11 26 3.73873248529 False 97.0 3.73873248529 True
gene 1 11 27 0.843457302925 False 98.0 0.843457302925 True
gene 2 11 28 4.47640699011 False 99.0 4.47640699011 True
gene 2 12 20 4.89126034519 False 100.0 4.89126034519 True
gene 2 12 21 -0.54291773694 False 101.0 -0.54291773694 True
gene 3 12 22 -1.12068185712 False 102.0 -1.12068185712 True
gene 3 12 23 2.06101693467 False 103.0 2.06101693467 True
gene 3 12 24 1.76116953976 False 104.0 1.76116953976 True
gene 3 12 25 3.49819378741 False 105.0 3.49819378741 True
gene 3 12 26 -0.488689379298 False 106.0 -0.488689379298 True
gene 2 12 27 0.552365949587 False 107.0 0.552365949587 True
gene 2 12 28 -0.911652620218 False 108.0 -0.911652620218 True
gene 1 13 20 -2.40393864605 False 109.0 -2.40393864605 True
gene 2 13 21 -0.493956630078 False 110.0 -0.493956630078 True
gene 1 13 22 1.68534790302 False 111.0 1.68534790302 True
gene 2 13 23 3.02136599048 False 112.0 3.02136599048 True
gene 1 13 24 3.86500025565 False 113.0 3.86500025565 True
gene 1 13 25 -0.596310387362 False 114.0 -0.596310387362 True
gene 2 13 26 -0.967708676791 False 115.0 -0.967708676791 True
gene 2 13 27 -6.17224921456 False 116.0 -6.17224921456 True
gene 3 13 28 0.63763971254 False 117.0 0.63763971254 True
gene 2 14 20 -0.66380475775 False 118.0 -0.66380475775 True
gene 1 14 21 0.715014740201 False 119.0 0.715014740201 True
gene 3 14 22 -8.0 False 120.0 -8.0 True
gene 1 14 23 0.562550978028 False 121.0 0.562550978028 True
gene 1 14 24 5.20986981607 False 122.0 5.20986981607 True
gene 1 14 25 -1.41938886369 False 123.0 -1.41938886369 True
gene 2 14 26 1.13328153664 False 124.0 1.13328153664 True
gene 3 14 27 -1.30763047525 False 125.0 -1.30763047525 True
gene 1 14 28 0.575638420562 False 126.0 0.575638420562 True
gene 1 15 20 0.400542328115 False 127.0 0.400542328115 True
gene 2 15 21 -0.569988942701 False 128.0 -0.569988942701 True
gene 2 15 22 1.84210601545 False 129.0 1.84210601545 False
gene 3 15 23 0.577979673364 False 130.0 0.577979673364 True
gene 2 15 24 -5.94058386118 False 131.0 -5.94058386118 True
gene 1 15 25 0.39104219539 False 132.0 0.39104219539 True
gene 3 15 26 2.1619149868 False 133.0 2.1619149868 True
gene 3 15 27 -4.12792802802 False 134.0 -4.12792802802 True
gene 1 15 28 0.0481614943503 False 135.0 0.0481614943503 True
gene 2 16 20 0.632791948862 False 136.0 0.632791948862 True
gene 2 16 21 -0.861959000332 False 137.0 -0.861959000332 True
gene 3 16 22 0.919111805626 False 138.0 0.919111805626 True
gene 1 16 23 3.61498785025 False 139.0 3.61498785025 True
gene 3 16 24 -0.66657519457 False 140.0 -0.66657519457 True
gene 1 16 25 6.27119058114 False 141.0 6.27119058114 True
gene 3 16 26 -2.53639627984 False 142.0 -2.53639627984 True
gene 1 16 27 2.73081370968 False 143.0 2.73081370968 False
gene 2 16 28 3.73112806435 False 144.0 3.73112806435 True
gene 1 17 20 -0.49367552022 False 145.0 -0.49367552022 True
gene 3 17 21 -2.97255281548 False 146.0 -2.97255281548 True
gene 1 17 22 4.29811287676 False 147.0 4.29811287676 True
gene 3 17 23 3.93530415846 False 148.0 3.93530415846 True
gene 1 17 24 -1.90910863617 False 149.0 -1.90910863617 True
gene 1 17 25 -1.75109277447 False 150.0 -1.75109277447 True
gene 3 17 26 -3.96892132236 False 151.0 -3.96892132236 True
gene 3 17 27 -1.74843909764 False 152.0 -1.74843909764 True
gene 1 17 28 -0.942057820764 False 153.0 -0.942057820764 True
gene 2 18 20 -0.897697357858 False 154.0 -0.897697357858 True
gene 2 18 21 1.86977196569 False 155.0 1.86977196569 True
gene 3 18 22 1.14752304993 False 156.0 1.14752304993 True
gene 1 18 23 5.17478845636 False 157.0 5.17478845636 True
gene 2 18 24 0.351015095247 False 158.0 0.351015095247 True
gene 1 18 25 3.38262553315 False 159.0 3.38262553315 True
gene 2 18 26 0.620409036332 False 160.0 0.620409036332 True
gene 3 18 27 1.22637274109 False 161.0 1.22637274109 True
gene 1 18 28 1.44936661812 False 162.0 1.44936661812 True
gene 2 19 20 3.10999811318 False 163.0 3.10999811318 True
gene 2 19 21 4.01314774817 False 164.0 4.01314774817 True
gene 2 19 22 4.09487995503 False 165.0 4.09487995503 True
gene 1 19 23 -1.98296331589 False 166.0 -1.98296331589 True
gene 1 19 24 -3.65131290496 False 167.0 -3.65131290496 True
gene 2 19 25 -1.78001103421 False 168.0 -1.78001103421 True
gene 2 19 26 -1.30414900982 False 169.0 -1.30414900982 True
gene 3 19 27 -3.00867494477 False 170.0 -3.00867494477 True
gene 1 19 28 -1.96827860871 False 171.0 -1.96827860871 True
gene 3 24 27 1.21948872735 False 173.0 1.21948872735 True
gene 1 24 21 -1.53415968639 False 234.0 -1.53415968639 True
gene 2 20 27 -1.87192532191 False 242.0 -1.87192532191 True
gene 1 11 92 0.961608850269 False 394.0 0.961608850269 True
gene 1 92 22 1.0504232025 False 395.0 1.0504232025 True
gene 1 23 92 0.0892428502105 False 455.0 0.0892428502105 True
gene 3 1 92 0.883260619717 False 490.0 0.883260619717 True
gene 2 23 28 0.638774804617 False 513.0 0.638774804617 True
gene 1 23 21 0.122438383211 False 599.0 0.122438383211 True
gene 1 24 22 2.86671695765 False 744.0 2.86671695765 True
gene 3 22 27 0.870695453448 False 772.0 0.870695453448 True
gene 2 5 92 0.686567848673 False 817.0 0.686567848673 True
gene 3 6 221 1.0 False 852.0 0.0 True
gene 3 221 24 -0.533621269331 False 853.0 0.0 True
gene 2 15 227 1.0 False 881.0 0.0 True
gene 2 227 22 1.84210601545 False 882.0 0.0 True
gene 3 16 227 -0.485236793126 False 913.0 -0.485236793126 True
gene 1 24 20 -0.621727515458 False 957.0 -0.621727515458 True
gene 2 11 254 1.0 False 973.0 0.0 True
gene 2 254 25 -4.89626411071 False 974.0 0.0 True
gene 1 9 254 0.893208177581 False 1002.0 0.893208177581 True
gene 3 12 289 1.0 False 1086.0 0.0 True
gene 3 289 26 -0.488689379298 False 1087.0 0.0 True
gene 1 16 301 1.0 False 1132.0 0.0 True
gene 1 301 27 2.73081370968 False 1133.0 0.0 True
gene 1 3 92 -0.0889038205377 False 1163.0 -0.0889038205377 True
genomeend 139
