genomestart 1
trait 1 0.1 0 0 0 0 0 0 0
trait 2 0.2 0 0 0 0 0 0 0
trait 3 0.3 0 0 0 0 0 0 0
node 1 0 1 3
node 2 0 1 1
node 3 0 1 1
node 4 0 1 1
node 5 0 1 1
node 6 0 1 1
node 7 0 1 1
node 8 0 1 1
node 9 0 1 1
node 10 0 1 1
node 11 0 1 1
node 12 0 1 1
node 13 0 1 1
node 14 0 1 1
node 15 0 1 1
node 16 0 1 1
node 17 0 1 1
node 18 0 1 1
node 19 0 1 1
node 20 0 1 1
node 21 0 1 1
node 22 0 1 1
node 23 0 1 1
node 24 0 1 1
node 25 0 1 1
node 26 0 1 1
node 27 0 1 1
node 28 0 1 1
node 29 0 1 1
node 30 0 1 1
node 31 0 1 1
node 32 0 1 1
node 33 0 1 1
node 34 0 1 1
node 35 0 1 1
node 36 0 1 1
node 37 0 1 1
node 38 0 1 1
node 39 0 1 1
node 40 0 1 1
node 41 0 1 1
node 42 0 1 1
node 43 0 1 1
node 44 0 1 1
node 45 0 1 1
node 46 0 1 1
node 47 0 1 1
node 48 0 1 1
node 49 0 1 1
node 50 0 1 1
node 51 0 1 1
node 52 0 1 1
node 53 0 1 1
node 54 0 1 1
node 55 0 1 1
node 56 0 1 1
node 57 0 1 1
node 58 0 1 1
node 59 0 1 1
node 60 0 1 1
node 61 0 1 1
node 62 0 1 1
node 63 0 1 1
node 64 0 1 1
node 65 0 1 1
node 66 0 1 1
node 67 0 1 1
node 68 0 1 1
node 69 0 1 1
node 70 0 1 1
node 71 0 1 1
node 72 0 1 1
node 73 0 1 1
node 74 0 1 1
node 75 0 1 1
node 76 0 1 1
node 77 0 1 1
node 78 0 1 1
node 79 0 1 1
node 80 0 1 1
node 81 0 1 1
node 82 0 1 1
node 83 0 1 1
node 84 0 1 1
node 85 0 1 1
node 86 0 1 1
node 87 0 1 1
node 88 0 1 1
node 89 0 1 1
node 90 0 1 1
node 91 0 1 1
node 92 0 1 1
node 93 0 1 1
node 94 0 1 1
node 95 0 1 1
node 96 0 1 1
node 97 0 1 1
node 98 0 1 1
node 99 0 1 1
node 100 0 1 1
node 101 0 1 1
node 102 0 1 1
node 103 0 1 1
node 104 0 1 1
node 105 0 1 1
node 106 0 1 1
node 107 0 1 1
node 108 0 1 1
node 109 0 1 1
node 110 0 1 1
node 111 0 1 1
node 112 0 1 1
node 113 0 1 1
node 114 0 1 1
node 115 0 1 1
node 116 0 1 1
node 117 0 1 1
node 118 0 1 1
node 119 0 1 1
node 120 0 1 1
node 121 0 1 1
node 122 0 1 1
node 123 0 1 1
node 124 0 1 1
node 125 0 1 1
node 126 0 1 1
node 127 0 1 1
node 128 0 1 1
node 129 0 1 1
node 130 0 1 1
node 131 0 1 1
node 132 0 1 1
node 133 0 1 1
node 134 0 1 1
node 135 0 1 1
node 136 0 1 1
node 137 0 1 1
node 138 0 1 1
node 139 0 1 1
node 140 0 1 1
node 141 0 1 1
node 142 0 1 1
node 143 0 1 1
node 144 0 1 1
node 145 0 1 1
node 146 0 1 1
node 147 0 1 1
node 148 0 1 1
node 149 0 1 1
node 150 0 1 1
node 151 0 1 1
node 152 0 1 1
node 153 0 1 1
node 154 0 1 1
node 155 0 1 1
node 156 0 1 1
node 157 0 1 1
node 158 0 1 1
node 159 0 1 1
node 160 0 1 1
node 161 0 1 1
node 162 0 1 1
node 163 0 1 1
node 164 0 1 1
node 165 0 1 1
node 166 0 1 1
node 167 0 1 1
node 168 0 1 1
node 169 0 1 1
node 170 0 1 1
node 171 0 1 1
node 172 0 1 1
node 173 0 0 2
node 174 0 0 2
node 175 0 0 2
node 176 0 0 2
node 177 0 0 2
node 178 0 0 2
node 179 0 0 2
node 180 0 0 2
node 181 0 0 2
node 182 0 0 2
node 183 0 0 2
node 184 0 0 2
node 185 0 0 2
node 186 0 0 2
node 187 0 0 2
node 188 0 0 2
node 189 0 0 2
node 190 0 0 2
gene 1 1 173 0.0 0 1 0 1
gene 2 1 174 0.0 0 2 0 1
gene 3 1 175 0.0 0 3 0 1
gene 1 1 176 0.0 0 4 0 1
gene 2 1 177 0.0 0 5 0 1
gene 3 1 178 0.0 0 6 0 1
gene 1 1 179 0.0 0 7 0 1
gene 2 1 180 0.0 0 8 0 1
gene 3 1 181 0.0 0 9 0 1
gene 1 1 182 0.0 0 10 0 1
gene 2 1 183 0.0 0 11 0 1
gene 3 1 184 0.0 0 12 0 1
gene 1 1 185 0.0 0 13 0 1
gene 2 1 186 0.0 0 14 0 1
gene 3 1 187 0.0 0 15 0 1
gene 1 1 188 0.0 0 16 0 1
gene 2 1 189 0.0 0 17 0 1
gene 3 1 190 0.0 0 18 0 1
gene 1 2 173 0.0 0 19 0 1
gene 2 2 174 0.0 0 20 0 1
gene 3 2 175 0.0 0 21 0 1
gene 1 2 176 0.0 0 22 0 1
gene 2 2 177 0.0 0 23 0 1
gene 3 2 178 0.0 0 24 0 1
gene 1 2 179 0.0 0 25 0 1
gene 2 2 180 0.0 0 26 0 1
gene 3 2 181 0.0 0 27 0 1
gene 1 2 182 0.0 0 28 0 1
gene 2 2 183 0.0 0 29 0 1
gene 3 2 184 0.0 0 30 0 1
gene 1 2 185 0.0 0 31 0 1
gene 2 2 186 0.0 0 32 0 1
gene 3 2 187 0.0 0 33 0 1
gene 1 2 188 0.0 0 34 0 1
gene 2 2 189 0.0 0 35 0 1
gene 3 2 190 0.0 0 36 0 1
gene 1 3 173 0.0 0 37 0 1
gene 2 3 174 0.0 0 38 0 1
gene 3 3 175 0.0 0 39 0 1
gene 1 3 176 0.0 0 40 0 1
gene 2 3 177 0.0 0 41 0 1
gene 3 3 178 0.0 0 42 0 1
gene 1 3 179 0.0 0 43 0 1
gene 2 3 180 0.0 0 44 0 1
gene 3 3 181 0.0 0 45 0 1
gene 1 3 182 0.0 0 46 0 1
gene 2 3 183 0.0 0 47 0 1
gene 3 3 184 0.0 0 48 0 1
gene 1 3 185 0.0 0 49 0 1
gene 2 3 186 0.0 0 50 0 1
gene 3 3 187 0.0 0 51 0 1
gene 1 3 188 0.0 0 52 0 1
gene 2 3 189 0.0 0 53 0 1
gene 3 3 190 0.0 0 54 0 1
gene 1 4 173 0.0 0 55 0 1
gene 2 4 174 0.0 0 56 0 1
gene 3 4 175 0.0 0 57 0 1
gene 1 4 176 0.0 0 58 0 1
gene 2 4 177 0.0 0 59 0 1
gene 3 4 178 0.0 0 60 0 1
gene 1 4 179 0.0 0 61 0 1
gene 2 4 180 0.0 0 62 0 1
gene 3 4 181 0.0 0 63 0 1
gene 1 4 182 0.0 0 64 0 1
gene 2 4 183 0.0 0 65 0 1
gene 3 4 184 0.0 0 66 0 1
gene 1 4 185 0.0 0 67 0 1
gene 2 4 186 0.0 0 68 0 1
gene 3 4 187 0.0 0 69 0 1
gene 1 4 188 0.0 0 70 0 1
gene 2 4 189 0.0 0 71 0 1
gene 3 4 190 0.0 0 72 0 1
gene 1 5 173 0.0 0 73 0 1
gene 2 5 174 0.0 0 74 0 1
gene 3 5 175 0.0 0 75 0 1
gene 1 5 176 0.0 0 76 0 1
gene 2 5 177 0.0 0 77 0 1
gene 3 5 178 0.0 0 78 0 1
gene 1 5 179 0.0 0 79 0 1
gene 2 5 180 0.0 0 80 0 1
gene 3 5 181 0.0 0 81 0 1
gene 1 5 182 0.0 0 82 0 1
gene 2 5 183 0.0 0 83 0 1
gene 3 5 184 0.0 0 84 0 1
gene 1 5 185 0.0 0 85 0 1
gene 2 5 186 0.0 0 86 0 1
gene 3 5 187 0.0 0 87 0 1
gene 1 5 188 0.0 0 88 0 1
gene 2 5 189 0.0 0 89 0 1
gene 3 5 190 0.0 0 90 0 1
gene 1 6 173 0.0 0 91 0 1
gene 2 6 174 0.0 0 92 0 1
gene 3 6 175 0.0 0 93 0 1
gene 1 6 176 0.0 0 94 0 1
gene 2 6 177 0.0 0 95 0 1
gene 3 6 178 0.0 0 96 0 1
gene 1 6 179 0.0 0 97 0 1
gene 2 6 180 0.0 0 98 0 1
gene 3 6 181 0.0 0 99 0 1
gene 1 6 182 0.0 0 100 0 1
gene 2 6 183 0.0 0 101 0 1
gene 3 6 184 0.0 0 102 0 1
gene 1 6 185 0.0 0 103 0 1
gene 2 6 186 0.0 0 104 0 1
gene 3 6 187 0.0 0 105 0 1
gene 1 6 188 0.0 0 106 0 1
gene 2 6 189 0.0 0 107 0 1
gene 3 6 190 0.0 0 108 0 1
gene 1 7 173 0.0 0 109 0 1
gene 2 7 174 0.0 0 110 0 1
gene 3 7 175 0.0 0 111 0 1
gene 1 7 176 0.0 0 112 0 1
gene 2 7 177 0.0 0 113 0 1
gene 3 7 178 0.0 0 114 0 1
gene 1 7 179 0.0 0 115 0 1
gene 2 7 180 0.0 0 116 0 1
gene 3 7 181 0.0 0 117 0 1
gene 1 7 182 0.0 0 118 0 1
gene 2 7 183 0.0 0 119 0 1
gene 3 7 184 0.0 0 120 0 1
gene 1 7 185 0.0 0 121 0 1
gene 2 7 186 0.0 0 122 0 1
gene 3 7 187 0.0 0 123 0 1
gene 1 7 188 0.0 0 124 0 1
gene 2 7 189 0.0 0 125 0 1
gene 3 7 190 0.0 0 126 0 1
gene 1 8 173 0.0 0 127 0 1
gene 2 8 174 0.0 0 128 0 1
gene 3 8 175 0.0 0 129 0 1
gene 1 8 176 0.0 0 130 0 1
gene 2 8 177 0.0 0 131 0 1
gene 3 8 178 0.0 0 132 0 1
gene 1 8 179 0.0 0 133 0 1
gene 2 8 180 0.0 0 134 0 1
gene 3 8 181 0.0 0 135 0 1
gene 1 8 182 0.0 0 136 0 1
gene 2 8 183 0.0 0 137 0 1
gene 3 8 184 0.0 0 138 0 1
gene 1 8 185 0.0 0 139 0 1
gene 2 8 186 0.0 0 140 0 1
gene 3 8 187 0.0 0 141 0 1
gene 1 8 188 0.0 0 142 0 1
gene 2 8 189 0.0 0 143 0 1
gene 3 8 190 0.0 0 144 0 1
gene 1 9 173 0.0 0 145 0 1
gene 2 9 174 0.0 0 146 0 1
gene 3 9 175 0.0 0 147 0 1
gene 1 9 176 0.0 0 148 0 1
gene 2 9 177 0.0 0 149 0 1
gene 3 9 178 0.0 0 150 0 1
gene 1 9 179 0.0 0 151 0 1
gene 2 9 180 0.0 0 152 0 1
gene 3 9 181 0.0 0 153 0 1
gene 1 9 182 0.0 0 154 0 1
gene 2 9 183 0.0 0 155 0 1
gene 3 9 184 0.0 0 156 0 1
gene 1 9 185 0.0 0 157 0 1
gene 2 9 186 0.0 0 158 0 1
gene 3 9 187 0.0 0 159 0 1
gene 1 9 188 0.0 0 160 0 1
gene 2 9 189 0.0 0 161 0 1
gene 3 9 190 0.0 0 162 0 1
gene 1 10 173 0.0 0 163 0 1
gene 2 10 174 0.0 0 164 0 1
gene 3 10 175 0.0 0 165 0 1
gene 1 10 176 0.0 0 166 0 1
gene 2 10 177 0.0 0 167 0 1
gene 3 10 178 0.0 0 168 0 1
gene 1 10 179 0.0 0 169 0 1
gene 2 10 180 0.0 0 170 0 1
gene 3 10 181 0.0 0 171 0 1
gene 1 10 182 0.0 0 172 0 1
gene 2 10 183 0.0 0 173 0 1
gene 3 10 184 0.0 0 174 0 1
gene 1 10 185 0.0 0 175 0 1
gene 2 10 186 0.0 0 176 0 1
gene 3 10 187 0.0 0 177 0 1
gene 1 10 188 0.0 0 178 0 1
gene 2 10 189 0.0 0 179 0 1
gene 3 10 190 0.0 0 180 0 1
gene 1 11 173 0.0 0 181 0 1
gene 2 11 174 0.0 0 182 0 1
gene 3 11 175 0.0 0 183 0 1
gene 1 11 176 0.0 0 184 0 1
gene 2 11 177 0.0 0 185 0 1
gene 3 11 178 0.0 0 186 0 1
gene 1 11 179 0.0 0 187 0 1
gene 2 11 180 0.0 0 188 0 1
gene 3 11 181 0.0 0 189 0 1
gene 1 11 182 0.0 0 190 0 1
gene 2 11 183 0.0 0 191 0 1
gene 3 11 184 0.0 0 192 0 1
gene 1 11 185 0.0 0 193 0 1
gene 2 11 186 0.0 0 194 0 1
gene 3 11 187 0.0 0 195 0 1
gene 1 11 188 0.0 0 196 0 1
gene 2 11 189 0.0 0 197 0 1
gene 3 11 190 0.0 0 198 0 1
gene 1 12 173 0.0 0 199 0 1
gene 2 12 174 0.0 0 200 0 1
gene 3 12 175 0.0 0 201 0 1
gene 1 12 176 0.0 0 202 0 1
gene 2 12 177 0.0 0 203 0 1
gene 3 12 178 0.0 0 204 0 1
gene 1 12 179 0.0 0 205 0 1
gene 2 12 180 0.0 0 206 0 1
gene 3 12 181 0.0 0 207 0 1
gene 1 12 182 0.0 0 208 0 1
gene 2 12 183 0.0 0 209 0 1
gene 3 12 184 0.0 0 210 0 1
gene 1 12 185 0.0 0 211 0 1
gene 2 12 186 0.0 0 212 0 1
gene 3 12 187 0.0 0 213 0 1
gene 1 12 188 0.0 0 214 0 1
gene 2 12 189 0.0 0 215 0 1
gene 3 12 190 0.0 0 216 0 1
gene 1 13 173 0.0 0 217 0 1
gene 2 13 174 0.0 0 218 0 1
gene 3 13 175 0.0 0 219 0 1
gene 1 13 176 0.0 0 220 0 1
gene 2 13 177 0.0 0 221 0 1
gene 3 13 178 0.0 0 222 0 1
gene 1 13 179 0.0 0 223 0 1
gene 2 13 180 0.0 0 224 0 1
gene 3 13 181 0.0 0 225 0 1
gene 1 13 182 0.0 0 226 0 1
gene 2 13 183 0.0 0 227 0 1
gene 3 13 184 0.0 0 228 0 1
gene 1 13 185 0.0 0 229 0 1
gene 2 13 186 0.0 0 230 0 1
gene 3 13 187 0.0 0 231 0 1
gene 1 13 188 0.0 0 232 0 1
gene 2 13 189 0.0 0 233 0 1
gene 3 13 190 0.0 0 234 0 1
gene 1 14 173 0.0 0 235 0 1
gene 2 14 174 0.0 0 236 0 1
gene 3 14 175 0.0 0 237 0 1
gene 1 14 176 0.0 0 238 0 1
gene 2 14 177 0.0 0 239 0 1
gene 3 14 178 0.0 0 240 0 1
gene 1 14 179 0.0 0 241 0 1
gene 2 14 180 0.0 0 242 0 1
gene 3 14 181 0.0 0 243 0 1
gene 1 14 182 0.0 0 244 0 1
gene 2 14 183 0.0 0 245 0 1
gene 3 14 184 0.0 0 246 0 1
gene 1 14 185 0.0 0 247 0 1
gene 2 14 186 0.0 0 248 0 1
gene 3 14 187 0.0 0 249 0 1
gene 1 14 188 0.0 0 250 0 1
gene 2 14 189 0.0 0 251 0 1
gene 3 14 190 0.0 0 252 0 1
gene 1 15 173 0.0 0 253 0 1
gene 2 15 174 0.0 0 254 0 1
gene 3 15 175 0.0 0 255 0 1
gene 1 15 176 0.0 0 256 0 1
gene 2 15 177 0.0 0 257 0 1
gene 3 15 178 0.0 0 258 0 1
gene 1 15 179 0.0 0 259 0 1
gene 2 15 180 0.0 0 260 0 1
gene 3 15 181 0.0 0 261 0 1
gene 1 15 182 0.0 0 262 0 1
gene 2 15 183 0.0 0 263 0 1
gene 3 15 184 0.0 0 264 0 1
gene 1 15 185 0.0 0 265 0 1
gene 2 15 186 0.0 0 266 0 1
gene 3 15 187 0.0 0 267 0 1
gene 1 15 188 0.0 0 268 0 1
gene 2 15 189 0.0 0 269 0 1
gene 3 15 190 0.0 0 270 0 1
gene 1 16 173 0.0 0 271 0 1
gene 2 16 174 0.0 0 272 0 1
gene 3 16 175 0.0 0 273 0 1
gene 1 16 176 0.0 0 274 0 1
gene 2 16 177 0.0 0 275 0 1
gene 3 16 178 0.0 0 276 0 1
gene 1 16 179 0.0 0 277 0 1
gene 2 16 180 0.0 0 278 0 1
gene 3 16 181 0.0 0 279 0 1
gene 1 16 182 0.0 0 280 0 1
gene 2 16 183 0.0 0 281 0 1
gene 3 16 184 0.0 0 282 0 1
gene 1 16 185 0.0 0 283 0 1
gene 2 16 186 0.0 0 284 0 1
gene 3 16 187 0.0 0 285 0 1
gene 1 16 188 0.0 0 286 0 1
gene 2 16 189 0.0 0 287 0 1
gene 3 16 190 0.0 0 288 0 1
gene 1 17 173 0.0 0 289 0 1
gene 2 17 174 0.0 0 290 0 1
gene 3 17 175 0.0 0 291 0 1
gene 1 17 176 0.0 0 292 0 1
gene 2 17 177 0.0 0 293 0 1
gene 3 17 178 0.0 0 294 0 1
gene 1 17 179 0.0 0 295 0 1
gene 2 17 180 0.0 0 296 0 1
gene 3 17 181 0.0 0 297 0 1
gene 1 17 182 0.0 0 298 0 1
gene 2 17 183 0.0 0 299 0 1
gene 3 17 184 0.0 0 300 0 1
gene 1 17 185 0.0 0 301 0 1
gene 2 17 186 0.0 0 302 0 1
gene 3 17 187 0.0 0 303 0 1
gene 1 17 188 0.0 0 304 0 1
gene 2 17 189 0.0 0 305 0 1
gene 3 17 190 0.0 0 306 0 1
gene 1 18 173 0.0 0 307 0 1
gene 2 18 174 0.0 0 308 0 1
gene 3 18 175 0.0 0 309 0 1
gene 1 18 176 0.0 0 310 0 1
gene 2 18 177 0.0 0 311 0 1
gene 3 18 178 0.0 0 312 0 1
gene 1 18 179 0.0 0 313 0 1
gene 2 18 180 0.0 0 314 0 1
gene 3 18 181 0.0 0 315 0 1
gene 1 18 182 0.0 0 316 0 1
gene 2 18 183 0.0 0 317 0 1
gene 3 18 184 0.0 0 318 0 1
gene 1 18 185 0.0 0 319 0 1
gene 2 18 186 0.0 0 320 0 1
gene 3 18 187 0.0 0 321 0 1
gene 1 18 188 0.0 0 322 0 1
gene 2 18 189 0.0 0 323 0 1
gene 3 18 190 0.0 0 324 0 1
gene 1 19 173 0.0 0 325 0 1
gene 2 19 174 0.0 0 326 0 1
gene 3 19 175 0.0 0 327 0 1
gene 1 19 176 0.0 0 328 0 1
gene 2 19 177 0.0 0 329 0 1
gene 3 19 178 0.0 0 330 0 1
gene 1 19 179 0.0 0 331 0 1
gene 2 19 180 0.0 0 332 0 1
gene 3 19 181 0.0 0 333 0 1
gene 1 19 182 0.0 0 334 0 1
gene 2 19 183 0.0 0 335 0 1
gene 3 19 184 0.0 0 336 0 1
gene 1 19 185 0.0 0 337 0 1
gene 2 19 186 0.0 0 338 0 1
gene 3 19 187 0.0 0 339 0 1
gene 1 19 188 0.0 0 340 0 1
gene 2 19 189 0.0 0 341 0 1
gene 3 19 190 0.0 0 342 0 1
gene 1 20 173 0.0 0 343 0 1
gene 2 20 174 0.0 0 344 0 1
gene 3 20 175 0.0 0 345 0 1
gene 1 20 176 0.0 0 346 0 1
gene 2 20 177 0.0 0 347 0 1
gene 3 20 178 0.0 0 348 0 1
gene 1 20 179 0.0 0 349 0 1
gene 2 20 180 0.0 0 350 0 1
gene 3 20 181 0.0 0 351 0 1
gene 1 20 182 0.0 0 352 0 1
gene 2 20 183 0.0 0 353 0 1
gene 3 20 184 0.0 0 354 0 1
gene 1 20 185 0.0 0 355 0 1
gene 2 20 186 0.0 0 356 0 1
gene 3 20 187 0.0 0 357 0 1
gene 1 20 188 0.0 0 358 0 1
gene 2 20 189 0.0 0 359 0 1
gene 3 20 190 0.0 0 360 0 1
gene 1 21 173 0.0 0 361 0 1
gene 2 21 174 0.0 0 362 0 1
gene 3 21 175 0.0 0 363 0 1
gene 1 21 176 0.0 0 364 0 1
gene 2 21 177 0.0 0 365 0 1
gene 3 21 178 0.0 0 366 0 1
gene 1 21 179 0.0 0 367 0 1
gene 2 21 180 0.0 0 368 0 1
gene 3 21 181 0.0 0 369 0 1
gene 1 21 182 0.0 0 370 0 1
gene 2 21 183 0.0 0 371 0 1
gene 3 21 184 0.0 0 372 0 1
gene 1 21 185 0.0 0 373 0 1
gene 2 21 186 0.0 0 374 0 1
gene 3 21 187 0.0 0 375 0 1
gene 1 21 188 0.0 0 376 0 1
gene 2 21 189 0.0 0 377 0 1
gene 3 21 190 0.0 0 378 0 1
gene 1 22 173 0.0 0 379 0 1
gene 2 22 174 0.0 0 380 0 1
gene 3 22 175 0.0 0 381 0 1
gene 1 22 176 0.0 0 382 0 1
gene 2 22 177 0.0 0 383 0 1
gene 3 22 178 0.0 0 384 0 1
gene 1 22 179 0.0 0 385 0 1
gene 2 22 180 0.0 0 386 0 1
gene 3 22 181 0.0 0 387 0 1
gene 1 22 182 0.0 0 388 0 1
gene 2 22 183 0.0 0 389 0 1
gene 3 22 184 0.0 0 390 0 1
gene 1 22 185 0.0 0 391 0 1
gene 2 22 186 0.0 0 392 0 1
gene 3 22 187 0.0 0 393 0 1
gene 1 22 188 0.0 0 394 0 1
gene 2 22 189 0.0 0 395 0 1
gene 3 22 190 0.0 0 396 0 1
gene 1 23 173 0.0 0 397 0 1
gene 2 23 174 0.0 0 398 0 1
gene 3 23 175 0.0 0 399 0 1
gene 1 23 176 0.0 0 400 0 1
gene 2 23 177 0.0 0 401 0 1
gene 3 23 178 0.0 0 402 0 1
gene 1 23 179 0.0 0 403 0 1
gene 2 23 180 0.0 0 404 0 1
gene 3 23 181 0.0 0 405 0 1
gene 1 23 182 0.0 0 406 0 1
gene 2 23 183 0.0 0 407 0 1
gene 3 23 184 0.0 0 408 0 1
gene 1 23 185 0.0 0 409 0 1
gene 2 23 186 0.0 0 410 0 1
gene 3 23 187 0.0 0 411 0 1
gene 1 23 188 0.0 0 412 0 1
gene 2 23 189 0.0 0 413 0 1
gene 3 23 190 0.0 0 414 0 1
gene 1 24 173 0.0 0 415 0 1
gene 2 24 174 0.0 0 416 0 1
gene 3 24 175 0.0 0 417 0 1
gene 1 24 176 0.0 0 418 0 1
gene 2 24 177 0.0 0 419 0 1
gene 3 24 178 0.0 0 420 0 1
gene 1 24 179 0.0 0 421 0 1
gene 2 24 180 0.0 0 422 0 1
gene 3 24 181 0.0 0 423 0 1
gene 1 24 182 0.0 0 424 0 1
gene 2 24 183 0.0 0 425 0 1
gene 3 24 184 0.0 0 426 0 1
gene 1 24 185 0.0 0 427 0 1
gene 2 24 186 0.0 0 428 0 1
gene 3 24 187 0.0 0 429 0 1
gene 1 24 188 0.0 0 430 0 1
gene 2 24 189 0.0 0 431 0 1
gene 3 24 190 0.0 0 432 0 1
gene 1 25 173 0.0 0 433 0 1
gene 2 25 174 0.0 0 434 0 1
gene 3 25 175 0.0 0 435 0 1
gene 1 25 176 0.0 0 436 0 1
gene 2 25 177 0.0 0 437 0 1
gene 3 25 178 0.0 0 438 0 1
gene 1 25 179 0.0 0 439 0 1
gene 2 25 180 0.0 0 440 0 1
gene 3 25 181 0.0 0 441 0 1
gene 1 25 182 0.0 0 442 0 1
gene 2 25 183 0.0 0 443 0 1
gene 3 25 184 0.0 0 444 0 1
gene 1 25 185 0.0 0 445 0 1
gene 2 25 186 0.0 0 446 0 1
gene 3 25 187 0.0 0 447 0 1
gene 1 25 188 0.0 0 448 0 1
gene 2 25 189 0.0 0 449 0 1
gene 3 25 190 0.0 0 450 0 1
gene 1 26 173 0.0 0 451 0 1
gene 2 26 174 0.0 0 452 0 1
gene 3 26 175 0.0 0 453 0 1
gene 1 26 176 0.0 0 454 0 1
gene 2 26 177 0.0 0 455 0 1
gene 3 26 178 0.0 0 456 0 1
gene 1 26 179 0.0 0 457 0 1
gene 2 26 180 0.0 0 458 0 1
gene 3 26 181 0.0 0 459 0 1
gene 1 26 182 0.0 0 460 0 1
gene 2 26 183 0.0 0 461 0 1
gene 3 26 184 0.0 0 462 0 1
gene 1 26 185 0.0 0 463 0 1
gene 2 26 186 0.0 0 464 0 1
gene 3 26 187 0.0 0 465 0 1
gene 1 26 188 0.0 0 466 0 1
gene 2 26 189 0.0 0 467 0 1
gene 3 26 190 0.0 0 468 0 1
gene 1 27 173 0.0 0 469 0 1
gene 2 27 174 0.0 0 470 0 1
gene 3 27 175 0.0 0 471 0 1
gene 1 27 176 0.0 0 472 0 1
gene 2 27 177 0.0 0 473 0 1
gene 3 27 178 0.0 0 474 0 1
gene 1 27 179 0.0 0 475 0 1
gene 2 27 180 0.0 0 476 0 1
gene 3 27 181 0.0 0 477 0 1
gene 1 27 182 0.0 0 478 0 1
gene 2 27 183 0.0 0 479 0 1
gene 3 27 184 0.0 0 480 0 1
gene 1 27 185 0.0 0 481 0 1
gene 2 27 186 0.0 0 482 0 1
gene 3 27 187 0.0 0 483 0 1
gene 1 27 188 0.0 0 484 0 1
gene 2 27 189 0.0 0 485 0 1
gene 3 27 190 0.0 0 486 0 1
gene 1 28 173 0.0 0 487 0 1
gene 2 28 174 0.0 0 488 0 1
gene 3 28 175 0.0 0 489 0 1
gene 1 28 176 0.0 0 490 0 1
gene 2 28 177 0.0 0 491 0 1
gene 3 28 178 0.0 0 492 0 1
gene 1 28 179 0.0 0 493 0 1
gene 2 28 180 0.0 0 494 0 1
gene 3 28 181 0.0 0 495 0 1
gene 1 28 182 0.0 0 496 0 1
gene 2 28 183 0.0 0 497 0 1
gene 3 28 184 0.0 0 498 0 1
gene 1 28 185 0.0 0 499 0 1
gene 2 28 186 0.0 0 500 0 1
gene 3 28 187 0.0 0 501 0 1
gene 1 28 188 0.0 0 502 0 1
gene 2 28 189 0.0 0 503 0 1
gene 3 28 190 0.0 0 504 0 1
gene 1 29 173 0.0 0 505 0 1
gene 2 29 174 0.0 0 506 0 1
gene 3 29 175 0.0 0 507 0 1
gene 1 29 176 0.0 0 508 0 1
gene 2 29 177 0.0 0 509 0 1
gene 3 29 178 0.0 0 510 0 1
gene 1 29 179 0.0 0 511 0 1
gene 2 29 180 0.0 0 512 0 1
gene 3 29 181 0.0 0 513 0 1
gene 1 29 182 0.0 0 514 0 1
gene 2 29 183 0.0 0 515 0 1
gene 3 29 184 0.0 0 516 0 1
gene 1 29 185 0.0 0 517 0 1
gene 2 29 186 0.0 0 518 0 1
gene 3 29 187 0.0 0 519 0 1
gene 1 29 188 0.0 0 520 0 1
gene 2 29 189 0.0 0 521 0 1
gene 3 29 190 0.0 0 522 0 1
gene 1 30 173 0.0 0 523 0 1
gene 2 30 174 0.0 0 524 0 1
gene 3 30 175 0.0 0 525 0 1
gene 1 30 176 0.0 0 526 0 1
gene 2 30 177 0.0 0 527 0 1
gene 3 30 178 0.0 0 528 0 1
gene 1 30 179 0.0 0 529 0 1
gene 2 30 180 0.0 0 530 0 1
gene 3 30 181 0.0 0 531 0 1
gene 1 30 182 0.0 0 532 0 1
gene 2 30 183 0.0 0 533 0 1
gene 3 30 184 0.0 0 534 0 1
gene 1 30 185 0.0 0 535 0 1
gene 2 30 186 0.0 0 536 0 1
gene 3 30 187 0.0 0 537 0 1
gene 1 30 188 0.0 0 538 0 1
gene 2 30 189 0.0 0 539 0 1
gene 3 30 190 0.0 0 540 0 1
gene 1 31 173 0.0 0 541 0 1
gene 2 31 174 0.0 0 542 0 1
gene 3 31 175 0.0 0 543 0 1
gene 1 31 176 0.0 0 544 0 1
gene 2 31 177 0.0 0 545 0 1
gene 3 31 178 0.0 0 546 0 1
gene 1 31 179 0.0 0 547 0 1
gene 2 31 180 0.0 0 548 0 1
gene 3 31 181 0.0 0 549 0 1
gene 1 31 182 0.0 0 550 0 1
gene 2 31 183 0.0 0 551 0 1
gene 3 31 184 0.0 0 552 0 1
gene 1 31 185 0.0 0 553 0 1
gene 2 31 186 0.0 0 554 0 1
gene 3 31 187 0.0 0 555 0 1
gene 1 31 188 0.0 0 556 0 1
gene 2 31 189 0.0 0 557 0 1
gene 3 31 190 0.0 0 558 0 1
gene 1 32 173 0.0 0 559 0 1
gene 2 32 174 0.0 0 560 0 1
gene 3 32 175 0.0 0 561 0 1
gene 1 32 176 0.0 0 562 0 1
gene 2 32 177 0.0 0 563 0 1
gene 3 32 178 0.0 0 564 0 1
gene 1 32 179 0.0 0 565 0 1
gene 2 32 180 0.0 0 566 0 1
gene 3 32 181 0.0 0 567 0 1
gene 1 32 182 0.0 0 568 0 1
gene 2 32 183 0.0 0 569 0 1
gene 3 32 184 0.0 0 570 0 1
gene 1 32 185 0.0 0 571 0 1
gene 2 32 186 0.0 0 572 0 1
gene 3 32 187 0.0 0 573 0 1
gene 1 32 188 0.0 0 574 0 1
gene 2 32 189 0.0 0 575 0 1
gene 3 32 190 0.0 0 576 0 1
gene 1 33 173 0.0 0 577 0 1
gene 2 33 174 0.0 0 578 0 1
gene 3 33 175 0.0 0 579 0 1
gene 1 33 176 0.0 0 580 0 1
gene 2 33 177 0.0 0 581 0 1
gene 3 33 178 0.0 0 582 0 1
gene 1 33 179 0.0 0 583 0 1
gene 2 33 180 0.0 0 584 0 1
gene 3 33 181 0.0 0 585 0 1
gene 1 33 182 0.0 0 586 0 1
gene 2 33 183 0.0 0 587 0 1
gene 3 33 184 0.0 0 588 0 1
gene 1 33 185 0.0 0 589 0 1
gene 2 33 186 0.0 0 590 0 1
gene 3 33 187 0.0 0 591 0 1
gene 1 33 188 0.0 0 592 0 1
gene 2 33 189 0.0 0 593 0 1
gene 3 33 190 0.0 0 594 0 1
gene 1 34 173 0.0 0 595 0 1
gene 2 34 174 0.0 0 596 0 1
gene 3 34 175 0.0 0 597 0 1
gene 1 34 176 0.0 0 598 0 1
gene 2 34 177 0.0 0 599 0 1
gene 3 34 178 0.0 0 600 0 1
gene 1 34 179 0.0 0 601 0 1
gene 2 34 180 0.0 0 602 0 1
gene 3 34 181 0.0 0 603 0 1
gene 1 34 182 0.0 0 604 0 1
gene 2 34 183 0.0 0 605 0 1
gene 3 34 184 0.0 0 606 0 1
gene 1 34 185 0.0 0 607 0 1
gene 2 34 186 0.0 0 608 0 1
gene 3 34 187 0.0 0 609 0 1
gene 1 34 188 0.0 0 610 0 1
gene 2 34 189 0.0 0 611 0 1
gene 3 34 190 0.0 0 612 0 1
gene 1 35 173 0.0 0 613 0 1
gene 2 35 174 0.0 0 614 0 1
gene 3 35 175 0.0 0 615 0 1
gene 1 35 176 0.0 0 616 0 1
gene 2 35 177 0.0 0 617 0 1
gene 3 35 178 0.0 0 618 0 1
gene 1 35 179 0.0 0 619 0 1
gene 2 35 180 0.0 0 620 0 1
gene 3 35 181 0.0 0 621 0 1
gene 1 35 182 0.0 0 622 0 1
gene 2 35 183 0.0 0 623 0 1
gene 3 35 184 0.0 0 624 0 1
gene 1 35 185 0.0 0 625 0 1
gene 2 35 186 0.0 0 626 0 1
gene 3 35 187 0.0 0 627 0 1
gene 1 35 188 0.0 0 628 0 1
gene 2 35 189 0.0 0 629 0 1
gene 3 35 190 0.0 0 630 0 1
gene 1 36 173 0.0 0 631 0 1
gene 2 36 174 0.0 0 632 0 1
gene 3 36 175 0.0 0 633 0 1
gene 1 36 176 0.0 0 634 0 1
gene 2 36 177 0.0 0 635 0 1
gene 3 36 178 0.0 0 636 0 1
gene 1 36 179 0.0 0 637 0 1
gene 2 36 180 0.0 0 638 0 1
gene 3 36 181 0.0 0 639 0 1
gene 1 36 182 0.0 0 640 0 1
gene 2 36 183 0.0 0 641 0 1
gene 3 36 184 0.0 0 642 0 1
gene 1 36 185 0.0 0 643 0 1
gene 2 36 186 0.0 0 644 0 1
gene 3 36 187 0.0 0 645 0 1
gene 1 36 188 0.0 0 646 0 1
gene 2 36 189 0.0 0 647 0 1
gene 3 36 190 0.0 0 648 0 1
gene 1 37 173 0.0 0 649 0 1
gene 2 37 174 0.0 0 650 0 1
gene 3 37 175 0.0 0 651 0 1
gene 1 37 176 0.0 0 652 0 1
gene 2 37 177 0.0 0 653 0 1
gene 3 37 178 0.0 0 654 0 1
gene 1 37 179 0.0 0 655 0 1
gene 2 37 180 0.0 0 656 0 1
gene 3 37 181 0.0 0 657 0 1
gene 1 37 182 0.0 0 658 0 1
gene 2 37 183 0.0 0 659 0 1
gene 3 37 184 0.0 0 660 0 1
gene 1 37 185 0.0 0 661 0 1
gene 2 37 186 0.0 0 662 0 1
gene 3 37 187 0.0 0 663 0 1
gene 1 37 188 0.0 0 664 0 1
gene 2 37 189 0.0 0 665 0 1
gene 3 37 190 0.0 0 666 0 1
gene 1 38 173 0.0 0 667 0 1
gene 2 38 174 0.0 0 668 0 1
gene 3 38 175 0.0 0 669 0 1
gene 1 38 176 0.0 0 670 0 1
gene 2 38 177 0.0 0 671 0 1
gene 3 38 178 0.0 0 672 0 1
gene 1 38 179 0.0 0 673 0 1
gene 2 38 180 0.0 0 674 0 1
gene 3 38 181 0.0 0 675 0 1
gene 1 38 182 0.0 0 676 0 1
gene 2 38 183 0.0 0 677 0 1
gene 3 38 184 0.0 0 678 0 1
gene 1 38 185 0.0 0 679 0 1
gene 2 38 186 0.0 0 680 0 1
gene 3 38 187 0.0 0 681 0 1
gene 1 38 188 0.0 0 682 0 1
gene 2 38 189 0.0 0 683 0 1
gene 3 38 190 0.0 0 684 0 1
gene 1 39 173 0.0 0 685 0 1
gene 2 39 174 0.0 0 686 0 1
gene 3 39 175 0.0 0 687 0 1
gene 1 39 176 0.0 0 688 0 1
gene 2 39 177 0.0 0 689 0 1
gene 3 39 178 0.0 0 690 0 1
gene 1 39 179 0.0 0 691 0 1
gene 2 39 180 0.0 0 692 0 1
gene 3 39 181 0.0 0 693 0 1
gene 1 39 182 0.0 0 694 0 1
gene 2 39 183 0.0 0 695 0 1
gene 3 39 184 0.0 0 696 0 1
gene 1 39 185 0.0 0 697 0 1
gene 2 39 186 0.0 0 698 0 1
gene 3 39 187 0.0 0 699 0 1
gene 1 39 188 0.0 0 700 0 1
gene 2 39 189 0.0 0 701 0 1
gene 3 39 190 0.0 0 702 0 1
gene 1 40 173 0.0 0 703 0 1
gene 2 40 174 0.0 0 704 0 1
gene 3 40 175 0.0 0 705 0 1
gene 1 40 176 0.0 0 706 0 1
gene 2 40 177 0.0 0 707 0 1
gene 3 40 178 0.0 0 708 0 1
gene 1 40 179 0.0 0 709 0 1
gene 2 40 180 0.0 0 710 0 1
gene 3 40 181 0.0 0 711 0 1
gene 1 40 182 0.0 0 712 0 1
gene 2 40 183 0.0 0 713 0 1
gene 3 40 184 0.0 0 714 0 1
gene 1 40 185 0.0 0 715 0 1
gene 2 40 186 0.0 0 716 0 1
gene 3 40 187 0.0 0 717 0 1
gene 1 40 188 0.0 0 718 0 1
gene 2 40 189 0.0 0 719 0 1
gene 3 40 190 0.0 0 720 0 1
gene 1 41 173 0.0 0 721 0 1
gene 2 41 174 0.0 0 722 0 1
gene 3 41 175 0.0 0 723 0 1
gene 1 41 176 0.0 0 724 0 1
gene 2 41 177 0.0 0 725 0 1
gene 3 41 178 0.0 0 726 0 1
gene 1 41 179 0.0 0 727 0 1
gene 2 41 180 0.0 0 728 0 1
gene 3 41 181 0.0 0 729 0 1
gene 1 41 182 0.0 0 730 0 1
gene 2 41 183 0.0 0 731 0 1
gene 3 41 184 0.0 0 732 0 1
gene 1 41 185 0.0 0 733 0 1
gene 2 41 186 0.0 0 734 0 1
gene 3 41 187 0.0 0 735 0 1
gene 1 41 188 0.0 0 736 0 1
gene 2 41 189 0.0 0 737 0 1
gene 3 41 190 0.0 0 738 0 1
gene 1 42 173 0.0 0 739 0 1
gene 2 42 174 0.0 0 740 0 1
gene 3 42 175 0.0 0 741 0 1
gene 1 42 176 0.0 0 742 0 1
gene 2 42 177 0.0 0 743 0 1
gene 3 42 178 0.0 0 744 0 1
gene 1 42 179 0.0 0 745 0 1
gene 2 42 180 0.0 0 746 0 1
gene 3 42 181 0.0 0 747 0 1
gene 1 42 182 0.0 0 748 0 1
gene 2 42 183 0.0 0 749 0 1
gene 3 42 184 0.0 0 750 0 1
gene 1 42 185 0.0 0 751 0 1
gene 2 42 186 0.0 0 752 0 1
gene 3 42 187 0.0 0 753 0 1
gene 1 42 188 0.0 0 754 0 1
gene 2 42 189 0.0 0 755 0 1
gene 3 42 190 0.0 0 756 0 1
gene 1 43 173 0.0 0 757 0 1
gene 2 43 174 0.0 0 758 0 1
gene 3 43 175 0.0 0 759 0 1
gene 1 43 176 0.0 0 760 0 1
gene 2 43 177 0.0 0 761 0 1
gene 3 43 178 0.0 0 762 0 1
gene 1 43 179 0.0 0 763 0 1
gene 2 43 180 0.0 0 764 0 1
gene 3 43 181 0.0 0 765 0 1
gene 1 43 182 0.0 0 766 0 1
gene 2 43 183 0.0 0 767 0 1
gene 3 43 184 0.0 0 768 0 1
gene 1 43 185 0.0 0 769 0 1
gene 2 43 186 0.0 0 770 0 1
gene 3 43 187 0.0 0 771 0 1
gene 1 43 188 0.0 0 772 0 1
gene 2 43 189 0.0 0 773 0 1
gene 3 43 190 0.0 0 774 0 1
gene 1 44 173 0.0 0 775 0 1
gene 2 44 174 0.0 0 776 0 1
gene 3 44 175 0.0 0 777 0 1
gene 1 44 176 0.0 0 778 0 1
gene 2 44 177 0.0 0 779 0 1
gene 3 44 178 0.0 0 780 0 1
gene 1 44 179 0.0 0 781 0 1
gene 2 44 180 0.0 0 782 0 1
gene 3 44 181 0.0 0 783 0 1
gene 1 44 182 0.0 0 784 0 1
gene 2 44 183 0.0 0 785 0 1
gene 3 44 184 0.0 0 786 0 1
gene 1 44 185 0.0 0 787 0 1
gene 2 44 186 0.0 0 788 0 1
gene 3 44 187 0.0 0 789 0 1
gene 1 44 188 0.0 0 790 0 1
gene 2 44 189 0.0 0 791 0 1
gene 3 44 190 0.0 0 792 0 1
gene 1 45 173 0.0 0 793 0 1
gene 2 45 174 0.0 0 794 0 1
gene 3 45 175 0.0 0 795 0 1
gene 1 45 176 0.0 0 796 0 1
gene 2 45 177 0.0 0 797 0 1
gene 3 45 178 0.0 0 798 0 1
gene 1 45 179 0.0 0 799 0 1
gene 2 45 180 0.0 0 800 0 1
gene 3 45 181 0.0 0 801 0 1
gene 1 45 182 0.0 0 802 0 1
gene 2 45 183 0.0 0 803 0 1
gene 3 45 184 0.0 0 804 0 1
gene 1 45 185 0.0 0 805 0 1
gene 2 45 186 0.0 0 806 0 1
gene 3 45 187 0.0 0 807 0 1
gene 1 45 188 0.0 0 808 0 1
gene 2 45 189 0.0 0 809 0 1
gene 3 45 190 0.0 0 810 0 1
gene 1 46 173 0.0 0 811 0 1
gene 2 46 174 0.0 0 812 0 1
gene 3 46 175 0.0 0 813 0 1
gene 1 46 176 0.0 0 814 0 1
gene 2 46 177 0.0 0 815 0 1
gene 3 46 178 0.0 0 816 0 1
gene 1 46 179 0.0 0 817 0 1
gene 2 46 180 0.0 0 818 0 1
gene 3 46 181 0.0 0 819 0 1
gene 1 46 182 0.0 0 820 0 1
gene 2 46 183 0.0 0 821 0 1
gene 3 46 184 0.0 0 822 0 1
gene 1 46 185 0.0 0 823 0 1
gene 2 46 186 0.0 0 824 0 1
gene 3 46 187 0.0 0 825 0 1
gene 1 46 188 0.0 0 826 0 1
gene 2 46 189 0.0 0 827 0 1
gene 3 46 190 0.0 0 828 0 1
gene 1 47 173 0.0 0 829 0 1
gene 2 47 174 0.0 0 830 0 1
gene 3 47 175 0.0 0 831 0 1
gene 1 47 176 0.0 0 832 0 1
gene 2 47 177 0.0 0 833 0 1
gene 3 47 178 0.0 0 834 0 1
gene 1 47 179 0.0 0 835 0 1
gene 2 47 180 0.0 0 836 0 1
gene 3 47 181 0.0 0 837 0 1
gene 1 47 182 0.0 0 838 0 1
gene 2 47 183 0.0 0 839 0 1
gene 3 47 184 0.0 0 840 0 1
gene 1 47 185 0.0 0 841 0 1
gene 2 47 186 0.0 0 842 0 1
gene 3 47 187 0.0 0 843 0 1
gene 1 47 188 0.0 0 844 0 1
gene 2 47 189 0.0 0 845 0 1
gene 3 47 190 0.0 0 846 0 1
gene 1 48 173 0.0 0 847 0 1
gene 2 48 174 0.0 0 848 0 1
gene 3 48 175 0.0 0 849 0 1
gene 1 48 176 0.0 0 850 0 1
gene 2 48 177 0.0 0 851 0 1
gene 3 48 178 0.0 0 852 0 1
gene 1 48 179 0.0 0 853 0 1
gene 2 48 180 0.0 0 854 0 1
gene 3 48 181 0.0 0 855 0 1
gene 1 48 182 0.0 0 856 0 1
gene 2 48 183 0.0 0 857 0 1
gene 3 48 184 0.0 0 858 0 1
gene 1 48 185 0.0 0 859 0 1
gene 2 48 186 0.0 0 860 0 1
gene 3 48 187 0.0 0 861 0 1
gene 1 48 188 0.0 0 862 0 1
gene 2 48 189 0.0 0 863 0 1
gene 3 48 190 0.0 0 864 0 1
gene 1 49 173 0.0 0 865 0 1
gene 2 49 174 0.0 0 866 0 1
gene 3 49 175 0.0 0 867 0 1
gene 1 49 176 0.0 0 868 0 1
gene 2 49 177 0.0 0 869 0 1
gene 3 49 178 0.0 0 870 0 1
gene 1 49 179 0.0 0 871 0 1
gene 2 49 180 0.0 0 872 0 1
gene 3 49 181 0.0 0 873 0 1
gene 1 49 182 0.0 0 874 0 1
gene 2 49 183 0.0 0 875 0 1
gene 3 49 184 0.0 0 876 0 1
gene 1 49 185 0.0 0 877 0 1
gene 2 49 186 0.0 0 878 0 1
gene 3 49 187 0.0 0 879 0 1
gene 1 49 188 0.0 0 880 0 1
gene 2 49 189 0.0 0 881 0 1
gene 3 49 190 0.0 0 882 0 1
gene 1 50 173 0.0 0 883 0 1
gene 2 50 174 0.0 0 884 0 1
gene 3 50 175 0.0 0 885 0 1
gene 1 50 176 0.0 0 886 0 1
gene 2 50 177 0.0 0 887 0 1
gene 3 50 178 0.0 0 888 0 1
gene 1 50 179 0.0 0 889 0 1
gene 2 50 180 0.0 0 890 0 1
gene 3 50 181 0.0 0 891 0 1
gene 1 50 182 0.0 0 892 0 1
gene 2 50 183 0.0 0 893 0 1
gene 3 50 184 0.0 0 894 0 1
gene 1 50 185 0.0 0 895 0 1
gene 2 50 186 0.0 0 896 0 1
gene 3 50 187 0.0 0 897 0 1
gene 1 50 188 0.0 0 898 0 1
gene 2 50 189 0.0 0 899 0 1
gene 3 50 190 0.0 0 900 0 1
gene 1 51 173 0.0 0 901 0 1
gene 2 51 174 0.0 0 902 0 1
gene 3 51 175 0.0 0 903 0 1
gene 1 51 176 0.0 0 904 0 1
gene 2 51 177 0.0 0 905 0 1
gene 3 51 178 0.0 0 906 0 1
gene 1 51 179 0.0 0 907 0 1
gene 2 51 180 0.0 0 908 0 1
gene 3 51 181 0.0 0 909 0 1
gene 1 51 182 0.0 0 910 0 1
gene 2 51 183 0.0 0 911 0 1
gene 3 51 184 0.0 0 912 0 1
gene 1 51 185 0.0 0 913 0 1
gene 2 51 186 0.0 0 914 0 1
gene 3 51 187 0.0 0 915 0 1
gene 1 51 188 0.0 0 916 0 1
gene 2 51 189 0.0 0 917 0 1
gene 3 51 190 0.0 0 918 0 1
gene 1 52 173 0.0 0 919 0 1
gene 2 52 174 0.0 0 920 0 1
gene 3 52 175 0.0 0 921 0 1
gene 1 52 176 0.0 0 922 0 1
gene 2 52 177 0.0 0 923 0 1
gene 3 52 178 0.0 0 924 0 1
gene 1 52 179 0.0 0 925 0 1
gene 2 52 180 0.0 0 926 0 1
gene 3 52 181 0.0 0 927 0 1
gene 1 52 182 0.0 0 928 0 1
gene 2 52 183 0.0 0 929 0 1
gene 3 52 184 0.0 0 930 0 1
gene 1 52 185 0.0 0 931 0 1
gene 2 52 186 0.0 0 932 0 1
gene 3 52 187 0.0 0 933 0 1
gene 1 52 188 0.0 0 934 0 1
gene 2 52 189 0.0 0 935 0 1
gene 3 52 190 0.0 0 936 0 1
gene 1 53 173 0.0 0 937 0 1
gene 2 53 174 0.0 0 938 0 1
gene 3 53 175 0.0 0 939 0 1
gene 1 53 176 0.0 0 940 0 1
gene 2 53 177 0.0 0 941 0 1
gene 3 53 178 0.0 0 942 0 1
gene 1 53 179 0.0 0 943 0 1
gene 2 53 180 0.0 0 944 0 1
gene 3 53 181 0.0 0 945 0 1
gene 1 53 182 0.0 0 946 0 1
gene 2 53 183 0.0 0 947 0 1
gene 3 53 184 0.0 0 948 0 1
gene 1 53 185 0.0 0 949 0 1
gene 2 53 186 0.0 0 950 0 1
gene 3 53 187 0.0 0 951 0 1
gene 1 53 188 0.0 0 952 0 1
gene 2 53 189 0.0 0 953 0 1
gene 3 53 190 0.0 0 954 0 1
gene 1 54 173 0.0 0 955 0 1
gene 2 54 174 0.0 0 956 0 1
gene 3 54 175 0.0 0 957 0 1
gene 1 54 176 0.0 0 958 0 1
gene 2 54 177 0.0 0 959 0 1
gene 3 54 178 0.0 0 960 0 1
gene 1 54 179 0.0 0 961 0 1
gene 2 54 180 0.0 0 962 0 1
gene 3 54 181 0.0 0 963 0 1
gene 1 54 182 0.0 0 964 0 1
gene 2 54 183 0.0 0 965 0 1
gene 3 54 184 0.0 0 966 0 1
gene 1 54 185 0.0 0 967 0 1
gene 2 54 186 0.0 0 968 0 1
gene 3 54 187 0.0 0 969 0 1
gene 1 54 188 0.0 0 970 0 1
gene 2 54 189 0.0 0 971 0 1
gene 3 54 190 0.0 0 972 0 1
gene 1 55 173 0.0 0 973 0 1
gene 2 55 174 0.0 0 974 0 1
gene 3 55 175 0.0 0 975 0 1
gene 1 55 176 0.0 0 976 0 1
gene 2 55 177 0.0 0 977 0 1
gene 3 55 178 0.0 0 978 0 1
gene 1 55 179 0.0 0 979 0 1
gene 2 55 180 0.0 0 980 0 1
gene 3 55 181 0.0 0 981 0 1
gene 1 55 182 0.0 0 982 0 1
gene 2 55 183 0.0 0 983 0 1
gene 3 55 184 0.0 0 984 0 1
gene 1 55 185 0.0 0 985 0 1
gene 2 55 186 0.0 0 986 0 1
gene 3 55 187 0.0 0 987 0 1
gene 1 55 188 0.0 0 988 0 1
gene 2 55 189 0.0 0 989 0 1
gene 3 55 190 0.0 0 990 0 1
gene 1 56 173 0.0 0 991 0 1
gene 2 56 174 0.0 0 992 0 1
gene 3 56 175 0.0 0 993 0 1
gene 1 56 176 0.0 0 994 0 1
gene 2 56 177 0.0 0 995 0 1
gene 3 56 178 0.0 0 996 0 1
gene 1 56 179 0.0 0 997 0 1
gene 2 56 180 0.0 0 998 0 1
gene 3 56 181 0.0 0 999 0 1
gene 1 56 182 0.0 0 1000 0 1
gene 2 56 183 0.0 0 1001 0 1
gene 3 56 184 0.0 0 1002 0 1
gene 1 56 185 0.0 0 1003 0 1
gene 2 56 186 0.0 0 1004 0 1
gene 3 56 187 0.0 0 1005 0 1
gene 1 56 188 0.0 0 1006 0 1
gene 2 56 189 0.0 0 1007 0 1
gene 3 56 190 0.0 0 1008 0 1
gene 1 57 173 0.0 0 1009 0 1
gene 2 57 174 0.0 0 1010 0 1
gene 3 57 175 0.0 0 1011 0 1
gene 1 57 176 0.0 0 1012 0 1
gene 2 57 177 0.0 0 1013 0 1
gene 3 57 178 0.0 0 1014 0 1
gene 1 57 179 0.0 0 1015 0 1
gene 2 57 180 0.0 0 1016 0 1
gene 3 57 181 0.0 0 1017 0 1
gene 1 57 182 0.0 0 1018 0 1
gene 2 57 183 0.0 0 1019 0 1
gene 3 57 184 0.0 0 1020 0 1
gene 1 57 185 0.0 0 1021 0 1
gene 2 57 186 0.0 0 1022 0 1
gene 3 57 187 0.0 0 1023 0 1
gene 1 57 188 0.0 0 1024 0 1
gene 2 57 189 0.0 0 1025 0 1
gene 3 57 190 0.0 0 1026 0 1
gene 1 58 173 0.0 0 1027 0 1
gene 2 58 174 0.0 0 1028 0 1
gene 3 58 175 0.0 0 1029 0 1
gene 1 58 176 0.0 0 1030 0 1
gene 2 58 177 0.0 0 1031 0 1
gene 3 58 178 0.0 0 1032 0 1
gene 1 58 179 0.0 0 1033 0 1
gene 2 58 180 0.0 0 1034 0 1
gene 3 58 181 0.0 0 1035 0 1
gene 1 58 182 0.0 0 1036 0 1
gene 2 58 183 0.0 0 1037 0 1
gene 3 58 184 0.0 0 1038 0 1
gene 1 58 185 0.0 0 1039 0 1
gene 2 58 186 0.0 0 1040 0 1
gene 3 58 187 0.0 0 1041 0 1
gene 1 58 188 0.0 0 1042 0 1
gene 2 58 189 0.0 0 1043 0 1
gene 3 58 190 0.0 0 1044 0 1
gene 1 59 173 0.0 0 1045 0 1
gene 2 59 174 0.0 0 1046 0 1
gene 3 59 175 0.0 0 1047 0 1
gene 1 59 176 0.0 0 1048 0 1
gene 2 59 177 0.0 0 1049 0 1
gene 3 59 178 0.0 0 1050 0 1
gene 1 59 179 0.0 0 1051 0 1
gene 2 59 180 0.0 0 1052 0 1
gene 3 59 181 0.0 0 1053 0 1
gene 1 59 182 0.0 0 1054 0 1
gene 2 59 183 0.0 0 1055 0 1
gene 3 59 184 0.0 0 1056 0 1
gene 1 59 185 0.0 0 1057 0 1
gene 2 59 186 0.0 0 1058 0 1
gene 3 59 187 0.0 0 1059 0 1
gene 1 59 188 0.0 0 1060 0 1
gene 2 59 189 0.0 0 1061 0 1
gene 3 59 190 0.0 0 1062 0 1
gene 1 60 173 0.0 0 1063 0 1
gene 2 60 174 0.0 0 1064 0 1
gene 3 60 175 0.0 0 1065 0 1
gene 1 60 176 0.0 0 1066 0 1
gene 2 60 177 0.0 0 1067 0 1
gene 3 60 178 0.0 0 1068 0 1
gene 1 60 179 0.0 0 1069 0 1
gene 2 60 180 0.0 0 1070 0 1
gene 3 60 181 0.0 0 1071 0 1
gene 1 60 182 0.0 0 1072 0 1
gene 2 60 183 0.0 0 1073 0 1
gene 3 60 184 0.0 0 1074 0 1
gene 1 60 185 0.0 0 1075 0 1
gene 2 60 186 0.0 0 1076 0 1
gene 3 60 187 0.0 0 1077 0 1
gene 1 60 188 0.0 0 1078 0 1
gene 2 60 189 0.0 0 1079 0 1
gene 3 60 190 0.0 0 1080 0 1
gene 1 61 173 0.0 0 1081 0 1
gene 2 61 174 0.0 0 1082 0 1
gene 3 61 175 0.0 0 1083 0 1
gene 1 61 176 0.0 0 1084 0 1
gene 2 61 177 0.0 0 1085 0 1
gene 3 61 178 0.0 0 1086 0 1
gene 1 61 179 0.0 0 1087 0 1
gene 2 61 180 0.0 0 1088 0 1
gene 3 61 181 0.0 0 1089 0 1
gene 1 61 182 0.0 0 1090 0 1
gene 2 61 183 0.0 0 1091 0 1
gene 3 61 184 0.0 0 1092 0 1
gene 1 61 185 0.0 0 1093 0 1
gene 2 61 186 0.0 0 1094 0 1
gene 3 61 187 0.0 0 1095 0 1
gene 1 61 188 0.0 0 1096 0 1
gene 2 61 189 0.0 0 1097 0 1
gene 3 61 190 0.0 0 1098 0 1
gene 1 62 173 0.0 0 1099 0 1
gene 2 62 174 0.0 0 1100 0 1
gene 3 62 175 0.0 0 1101 0 1
gene 1 62 176 0.0 0 1102 0 1
gene 2 62 177 0.0 0 1103 0 1
gene 3 62 178 0.0 0 1104 0 1
gene 1 62 179 0.0 0 1105 0 1
gene 2 62 180 0.0 0 1106 0 1
gene 3 62 181 0.0 0 1107 0 1
gene 1 62 182 0.0 0 1108 0 1
gene 2 62 183 0.0 0 1109 0 1
gene 3 62 184 0.0 0 1110 0 1
gene 1 62 185 0.0 0 1111 0 1
gene 2 62 186 0.0 0 1112 0 1
gene 3 62 187 0.0 0 1113 0 1
gene 1 62 188 0.0 0 1114 0 1
gene 2 62 189 0.0 0 1115 0 1
gene 3 62 190 0.0 0 1116 0 1
gene 1 63 173 0.0 0 1117 0 1
gene 2 63 174 0.0 0 1118 0 1
gene 3 63 175 0.0 0 1119 0 1
gene 1 63 176 0.0 0 1120 0 1
gene 2 63 177 0.0 0 1121 0 1
gene 3 63 178 0.0 0 1122 0 1
gene 1 63 179 0.0 0 1123 0 1
gene 2 63 180 0.0 0 1124 0 1
gene 3 63 181 0.0 0 1125 0 1
gene 1 63 182 0.0 0 1126 0 1
gene 2 63 183 0.0 0 1127 0 1
gene 3 63 184 0.0 0 1128 0 1
gene 1 63 185 0.0 0 1129 0 1
gene 2 63 186 0.0 0 1130 0 1
gene 3 63 187 0.0 0 1131 0 1
gene 1 63 188 0.0 0 1132 0 1
gene 2 63 189 0.0 0 1133 0 1
gene 3 63 190 0.0 0 1134 0 1
gene 1 64 173 0.0 0 1135 0 1
gene 2 64 174 0.0 0 1136 0 1
gene 3 64 175 0.0 0 1137 0 1
gene 1 64 176 0.0 0 1138 0 1
gene 2 64 177 0.0 0 1139 0 1
gene 3 64 178 0.0 0 1140 0 1
gene 1 64 179 0.0 0 1141 0 1
gene 2 64 180 0.0 0 1142 0 1
gene 3 64 181 0.0 0 1143 0 1
gene 1 64 182 0.0 0 1144 0 1
gene 2 64 183 0.0 0 1145 0 1
gene 3 64 184 0.0 0 1146 0 1
gene 1 64 185 0.0 0 1147 0 1
gene 2 64 186 0.0 0 1148 0 1
gene 3 64 187 0.0 0 1149 0 1
gene 1 64 188 0.0 0 1150 0 1
gene 2 64 189 0.0 0 1151 0 1
gene 3 64 190 0.0 0 1152 0 1
gene 1 65 173 0.0 0 1153 0 1
gene 2 65 174 0.0 0 1154 0 1
gene 3 65 175 0.0 0 1155 0 1
gene 1 65 176 0.0 0 1156 0 1
gene 2 65 177 0.0 0 1157 0 1
gene 3 65 178 0.0 0 1158 0 1
gene 1 65 179 0.0 0 1159 0 1
gene 2 65 180 0.0 0 1160 0 1
gene 3 65 181 0.0 0 1161 0 1
gene 1 65 182 0.0 0 1162 0 1
gene 2 65 183 0.0 0 1163 0 1
gene 3 65 184 0.0 0 1164 0 1
gene 1 65 185 0.0 0 1165 0 1
gene 2 65 186 0.0 0 1166 0 1
gene 3 65 187 0.0 0 1167 0 1
gene 1 65 188 0.0 0 1168 0 1
gene 2 65 189 0.0 0 1169 0 1
gene 3 65 190 0.0 0 1170 0 1
gene 1 66 173 0.0 0 1171 0 1
gene 2 66 174 0.0 0 1172 0 1
gene 3 66 175 0.0 0 1173 0 1
gene 1 66 176 0.0 0 1174 0 1
gene 2 66 177 0.0 0 1175 0 1
gene 3 66 178 0.0 0 1176 0 1
gene 1 66 179 0.0 0 1177 0 1
gene 2 66 180 0.0 0 1178 0 1
gene 3 66 181 0.0 0 1179 0 1
gene 1 66 182 0.0 0 1180 0 1
gene 2 66 183 0.0 0 1181 0 1
gene 3 66 184 0.0 0 1182 0 1
gene 1 66 185 0.0 0 1183 0 1
gene 2 66 186 0.0 0 1184 0 1
gene 3 66 187 0.0 0 1185 0 1
gene 1 66 188 0.0 0 1186 0 1
gene 2 66 189 0.0 0 1187 0 1
gene 3 66 190 0.0 0 1188 0 1
gene 1 67 173 0.0 0 1189 0 1
gene 2 67 174 0.0 0 1190 0 1
gene 3 67 175 0.0 0 1191 0 1
gene 1 67 176 0.0 0 1192 0 1
gene 2 67 177 0.0 0 1193 0 1
gene 3 67 178 0.0 0 1194 0 1
gene 1 67 179 0.0 0 1195 0 1
gene 2 67 180 0.0 0 1196 0 1
gene 3 67 181 0.0 0 1197 0 1
gene 1 67 182 0.0 0 1198 0 1
gene 2 67 183 0.0 0 1199 0 1
gene 3 67 184 0.0 0 1200 0 1
gene 1 67 185 0.0 0 1201 0 1
gene 2 67 186 0.0 0 1202 0 1
gene 3 67 187 0.0 0 1203 0 1
gene 1 67 188 0.0 0 1204 0 1
gene 2 67 189 0.0 0 1205 0 1
gene 3 67 190 0.0 0 1206 0 1
gene 1 68 173 0.0 0 1207 0 1
gene 2 68 174 0.0 0 1208 0 1
gene 3 68 175 0.0 0 1209 0 1
gene 1 68 176 0.0 0 1210 0 1
gene 2 68 177 0.0 0 1211 0 1
gene 3 68 178 0.0 0 1212 0 1
gene 1 68 179 0.0 0 1213 0 1
gene 2 68 180 0.0 0 1214 0 1
gene 3 68 181 0.0 0 1215 0 1
gene 1 68 182 0.0 0 1216 0 1
gene 2 68 183 0.0 0 1217 0 1
gene 3 68 184 0.0 0 1218 0 1
gene 1 68 185 0.0 0 1219 0 1
gene 2 68 186 0.0 0 1220 0 1
gene 3 68 187 0.0 0 1221 0 1
gene 1 68 188 0.0 0 1222 0 1
gene 2 68 189 0.0 0 1223 0 1
gene 3 68 190 0.0 0 1224 0 1
gene 1 69 173 0.0 0 1225 0 1
gene 2 69 174 0.0 0 1226 0 1
gene 3 69 175 0.0 0 1227 0 1
gene 1 69 176 0.0 0 1228 0 1
gene 2 69 177 0.0 0 1229 0 1
gene 3 69 178 0.0 0 1230 0 1
gene 1 69 179 0.0 0 1231 0 1
gene 2 69 180 0.0 0 1232 0 1
gene 3 69 181 0.0 0 1233 0 1
gene 1 69 182 0.0 0 1234 0 1
gene 2 69 183 0.0 0 1235 0 1
gene 3 69 184 0.0 0 1236 0 1
gene 1 69 185 0.0 0 1237 0 1
gene 2 69 186 0.0 0 1238 0 1
gene 3 69 187 0.0 0 1239 0 1
gene 1 69 188 0.0 0 1240 0 1
gene 2 69 189 0.0 0 1241 0 1
gene 3 69 190 0.0 0 1242 0 1
gene 1 70 173 0.0 0 1243 0 1
gene 2 70 174 0.0 0 1244 0 1
gene 3 70 175 0.0 0 1245 0 1
gene 1 70 176 0.0 0 1246 0 1
gene 2 70 177 0.0 0 1247 0 1
gene 3 70 178 0.0 0 1248 0 1
gene 1 70 179 0.0 0 1249 0 1
gene 2 70 180 0.0 0 1250 0 1
gene 3 70 181 0.0 0 1251 0 1
gene 1 70 182 0.0 0 1252 0 1
gene 2 70 183 0.0 0 1253 0 1
gene 3 70 184 0.0 0 1254 0 1
gene 1 70 185 0.0 0 1255 0 1
gene 2 70 186 0.0 0 1256 0 1
gene 3 70 187 0.0 0 1257 0 1
gene 1 70 188 0.0 0 1258 0 1
gene 2 70 189 0.0 0 1259 0 1
gene 3 70 190 0.0 0 1260 0 1
gene 1 71 173 0.0 0 1261 0 1
gene 2 71 174 0.0 0 1262 0 1
gene 3 71 175 0.0 0 1263 0 1
gene 1 71 176 0.0 0 1264 0 1
gene 2 71 177 0.0 0 1265 0 1
gene 3 71 178 0.0 0 1266 0 1
gene 1 71 179 0.0 0 1267 0 1
gene 2 71 180 0.0 0 1268 0 1
gene 3 71 181 0.0 0 1269 0 1
gene 1 71 182 0.0 0 1270 0 1
gene 2 71 183 0.0 0 1271 0 1
gene 3 71 184 0.0 0 1272 0 1
gene 1 71 185 0.0 0 1273 0 1
gene 2 71 186 0.0 0 1274 0 1
gene 3 71 187 0.0 0 1275 0 1
gene 1 71 188 0.0 0 1276 0 1
gene 2 71 189 0.0 0 1277 0 1
gene 3 71 190 0.0 0 1278 0 1
gene 1 72 173 0.0 0 1279 0 1
gene 2 72 174 0.0 0 1280 0 1
gene 3 72 175 0.0 0 1281 0 1
gene 1 72 176 0.0 0 1282 0 1
gene 2 72 177 0.0 0 1283 0 1
gene 3 72 178 0.0 0 1284 0 1
gene 1 72 179 0.0 0 1285 0 1
gene 2 72 180 0.0 0 1286 0 1
gene 3 72 181 0.0 0 1287 0 1
gene 1 72 182 0.0 0 1288 0 1
gene 2 72 183 0.0 0 1289 0 1
gene 3 72 184 0.0 0 1290 0 1
gene 1 72 185 0.0 0 1291 0 1
gene 2 72 186 0.0 0 1292 0 1
gene 3 72 187 0.0 0 1293 0 1
gene 1 72 188 0.0 0 1294 0 1
gene 2 72 189 0.0 0 1295 0 1
gene 3 72 190 0.0 0 1296 0 1
gene 1 73 173 0.0 0 1297 0 1
gene 2 73 174 0.0 0 1298 0 1
gene 3 73 175 0.0 0 1299 0 1
gene 1 73 176 0.0 0 1300 0 1
gene 2 73 177 0.0 0 1301 0 1
gene 3 73 178 0.0 0 1302 0 1
gene 1 73 179 0.0 0 1303 0 1
gene 2 73 180 0.0 0 1304 0 1
gene 3 73 181 0.0 0 1305 0 1
gene 1 73 182 0.0 0 1306 0 1
gene 2 73 183 0.0 0 1307 0 1
gene 3 73 184 0.0 0 1308 0 1
gene 1 73 185 0.0 0 1309 0 1
gene 2 73 186 0.0 0 1310 0 1
gene 3 73 187 0.0 0 1311 0 1
gene 1 73 188 0.0 0 1312 0 1
gene 2 73 189 0.0 0 1313 0 1
gene 3 73 190 0.0 0 1314 0 1
gene 1 74 173 0.0 0 1315 0 1
gene 2 74 174 0.0 0 1316 0 1
gene 3 74 175 0.0 0 1317 0 1
gene 1 74 176 0.0 0 1318 0 1
gene 2 74 177 0.0 0 1319 0 1
gene 3 74 178 0.0 0 1320 0 1
gene 1 74 179 0.0 0 1321 0 1
gene 2 74 180 0.0 0 1322 0 1
gene 3 74 181 0.0 0 1323 0 1
gene 1 74 182 0.0 0 1324 0 1
gene 2 74 183 0.0 0 1325 0 1
gene 3 74 184 0.0 0 1326 0 1
gene 1 74 185 0.0 0 1327 0 1
gene 2 74 186 0.0 0 1328 0 1
gene 3 74 187 0.0 0 1329 0 1
gene 1 74 188 0.0 0 1330 0 1
gene 2 74 189 0.0 0 1331 0 1
gene 3 74 190 0.0 0 1332 0 1
gene 1 75 173 0.0 0 1333 0 1
gene 2 75 174 0.0 0 1334 0 1
gene 3 75 175 0.0 0 1335 0 1
gene 1 75 176 0.0 0 1336 0 1
gene 2 75 177 0.0 0 1337 0 1
gene 3 75 178 0.0 0 1338 0 1
gene 1 75 179 0.0 0 1339 0 1
gene 2 75 180 0.0 0 1340 0 1
gene 3 75 181 0.0 0 1341 0 1
gene 1 75 182 0.0 0 1342 0 1
gene 2 75 183 0.0 0 1343 0 1
gene 3 75 184 0.0 0 1344 0 1
gene 1 75 185 0.0 0 1345 0 1
gene 2 75 186 0.0 0 1346 0 1
gene 3 75 187 0.0 0 1347 0 1
gene 1 75 188 0.0 0 1348 0 1
gene 2 75 189 0.0 0 1349 0 1
gene 3 75 190 0.0 0 1350 0 1
gene 1 76 173 0.0 0 1351 0 1
gene 2 76 174 0.0 0 1352 0 1
gene 3 76 175 0.0 0 1353 0 1
gene 1 76 176 0.0 0 1354 0 1
gene 2 76 177 0.0 0 1355 0 1
gene 3 76 178 0.0 0 1356 0 1
gene 1 76 179 0.0 0 1357 0 1
gene 2 76 180 0.0 0 1358 0 1
gene 3 76 181 0.0 0 1359 0 1
gene 1 76 182 0.0 0 1360 0 1
gene 2 76 183 0.0 0 1361 0 1
gene 3 76 184 0.0 0 1362 0 1
gene 1 76 185 0.0 0 1363 0 1
gene 2 76 186 0.0 0 1364 0 1
gene 3 76 187 0.0 0 1365 0 1
gene 1 76 188 0.0 0 1366 0 1
gene 2 76 189 0.0 0 1367 0 1
gene 3 76 190 0.0 0 1368 0 1
gene 1 77 173 0.0 0 1369 0 1
gene 2 77 174 0.0 0 1370 0 1
gene 3 77 175 0.0 0 1371 0 1
gene 1 77 176 0.0 0 1372 0 1
gene 2 77 177 0.0 0 1373 0 1
gene 3 77 178 0.0 0 1374 0 1
gene 1 77 179 0.0 0 1375 0 1
gene 2 77 180 0.0 0 1376 0 1
gene 3 77 181 0.0 0 1377 0 1
gene 1 77 182 0.0 0 1378 0 1
gene 2 77 183 0.0 0 1379 0 1
gene 3 77 184 0.0 0 1380 0 1
gene 1 77 185 0.0 0 1381 0 1
gene 2 77 186 0.0 0 1382 0 1
gene 3 77 187 0.0 0 1383 0 1
gene 1 77 188 0.0 0 1384 0 1
gene 2 77 189 0.0 0 1385 0 1
gene 3 77 190 0.0 0 1386 0 1
gene 1 78 173 0.0 0 1387 0 1
gene 2 78 174 0.0 0 1388 0 1
gene 3 78 175 0.0 0 1389 0 1
gene 1 78 176 0.0 0 1390 0 1
gene 2 78 177 0.0 0 1391 0 1
gene 3 78 178 0.0 0 1392 0 1
gene 1 78 179 0.0 0 1393 0 1
gene 2 78 180 0.0 0 1394 0 1
gene 3 78 181 0.0 0 1395 0 1
gene 1 78 182 0.0 0 1396 0 1
gene 2 78 183 0.0 0 1397 0 1
gene 3 78 184 0.0 0 1398 0 1
gene 1 78 185 0.0 0 1399 0 1
gene 2 78 186 0.0 0 1400 0 1
gene 3 78 187 0.0 0 1401 0 1
gene 1 78 188 0.0 0 1402 0 1
gene 2 78 189 0.0 0 1403 0 1
gene 3 78 190 0.0 0 1404 0 1
gene 1 79 173 0.0 0 1405 0 1
gene 2 79 174 0.0 0 1406 0 1
gene 3 79 175 0.0 0 1407 0 1
gene 1 79 176 0.0 0 1408 0 1
gene 2 79 177 0.0 0 1409 0 1
gene 3 79 178 0.0 0 1410 0 1
gene 1 79 179 0.0 0 1411 0 1
gene 2 79 180 0.0 0 1412 0 1
gene 3 79 181 0.0 0 1413 0 1
gene 1 79 182 0.0 0 1414 0 1
gene 2 79 183 0.0 0 1415 0 1
gene 3 79 184 0.0 0 1416 0 1
gene 1 79 185 0.0 0 1417 0 1
gene 2 79 186 0.0 0 1418 0 1
gene 3 79 187 0.0 0 1419 0 1
gene 1 79 188 0.0 0 1420 0 1
gene 2 79 189 0.0 0 1421 0 1
gene 3 79 190 0.0 0 1422 0 1
gene 1 80 173 0.0 0 1423 0 1
gene 2 80 174 0.0 0 1424 0 1
gene 3 80 175 0.0 0 1425 0 1
gene 1 80 176 0.0 0 1426 0 1
gene 2 80 177 0.0 0 1427 0 1
gene 3 80 178 0.0 0 1428 0 1
gene 1 80 179 0.0 0 1429 0 1
gene 2 80 180 0.0 0 1430 0 1
gene 3 80 181 0.0 0 1431 0 1
gene 1 80 182 0.0 0 1432 0 1
gene 2 80 183 0.0 0 1433 0 1
gene 3 80 184 0.0 0 1434 0 1
gene 1 80 185 0.0 0 1435 0 1
gene 2 80 186 0.0 0 1436 0 1
gene 3 80 187 0.0 0 1437 0 1
gene 1 80 188 0.0 0 1438 0 1
gene 2 80 189 0.0 0 1439 0 1
gene 3 80 190 0.0 0 1440 0 1
gene 1 81 173 0.0 0 1441 0 1
gene 2 81 174 0.0 0 1442 0 1
gene 3 81 175 0.0 0 1443 0 1
gene 1 81 176 0.0 0 1444 0 1
gene 2 81 177 0.0 0 1445 0 1
gene 3 81 178 0.0 0 1446 0 1
gene 1 81 179 0.0 0 1447 0 1
gene 2 81 180 0.0 0 1448 0 1
gene 3 81 181 0.0 0 1449 0 1
gene 1 81 182 0.0 0 1450 0 1
gene 2 81 183 0.0 0 1451 0 1
gene 3 81 184 0.0 0 1452 0 1
gene 1 81 185 0.0 0 1453 0 1
gene 2 81 186 0.0 0 1454 0 1
gene 3 81 187 0.0 0 1455 0 1
gene 1 81 188 0.0 0 1456 0 1
gene 2 81 189 0.0 0 1457 0 1
gene 3 81 190 0.0 0 1458 0 1
gene 1 82 173 0.0 0 1459 0 1
gene 2 82 174 0.0 0 1460 0 1
gene 3 82 175 0.0 0 1461 0 1
gene 1 82 176 0.0 0 1462 0 1
gene 2 82 177 0.0 0 1463 0 1
gene 3 82 178 0.0 0 1464 0 1
gene 1 82 179 0.0 0 1465 0 1
gene 2 82 180 0.0 0 1466 0 1
gene 3 82 181 0.0 0 1467 0 1
gene 1 82 182 0.0 0 1468 0 1
gene 2 82 183 0.0 0 1469 0 1
gene 3 82 184 0.0 0 1470 0 1
gene 1 82 185 0.0 0 1471 0 1
gene 2 82 186 0.0 0 1472 0 1
gene 3 82 187 0.0 0 1473 0 1
gene 1 82 188 0.0 0 1474 0 1
gene 2 82 189 0.0 0 1475 0 1
gene 3 82 190 0.0 0 1476 0 1
gene 1 83 173 0.0 0 1477 0 1
gene 2 83 174 0.0 0 1478 0 1
gene 3 83 175 0.0 0 1479 0 1
gene 1 83 176 0.0 0 1480 0 1
gene 2 83 177 0.0 0 1481 0 1
gene 3 83 178 0.0 0 1482 0 1
gene 1 83 179 0.0 0 1483 0 1
gene 2 83 180 0.0 0 1484 0 1
gene 3 83 181 0.0 0 1485 0 1
gene 1 83 182 0.0 0 1486 0 1
gene 2 83 183 0.0 0 1487 0 1
gene 3 83 184 0.0 0 1488 0 1
gene 1 83 185 0.0 0 1489 0 1
gene 2 83 186 0.0 0 1490 0 1
gene 3 83 187 0.0 0 1491 0 1
gene 1 83 188 0.0 0 1492 0 1
gene 2 83 189 0.0 0 1493 0 1
gene 3 83 190 0.0 0 1494 0 1
gene 1 84 173 0.0 0 1495 0 1
gene 2 84 174 0.0 0 1496 0 1
gene 3 84 175 0.0 0 1497 0 1
gene 1 84 176 0.0 0 1498 0 1
gene 2 84 177 0.0 0 1499 0 1
gene 3 84 178 0.0 0 1500 0 1
gene 1 84 179 0.0 0 1501 0 1
gene 2 84 180 0.0 0 1502 0 1
gene 3 84 181 0.0 0 1503 0 1
gene 1 84 182 0.0 0 1504 0 1
gene 2 84 183 0.0 0 1505 0 1
gene 3 84 184 0.0 0 1506 0 1
gene 1 84 185 0.0 0 1507 0 1
gene 2 84 186 0.0 0 1508 0 1
gene 3 84 187 0.0 0 1509 0 1
gene 1 84 188 0.0 0 1510 0 1
gene 2 84 189 0.0 0 1511 0 1
gene 3 84 190 0.0 0 1512 0 1
gene 1 85 173 0.0 0 1513 0 1
gene 2 85 174 0.0 0 1514 0 1
gene 3 85 175 0.0 0 1515 0 1
gene 1 85 176 0.0 0 1516 0 1
gene 2 85 177 0.0 0 1517 0 1
gene 3 85 178 0.0 0 1518 0 1
gene 1 85 179 0.0 0 1519 0 1
gene 2 85 180 0.0 0 1520 0 1
gene 3 85 181 0.0 0 1521 0 1
gene 1 85 182 0.0 0 1522 0 1
gene 2 85 183 0.0 0 1523 0 1
gene 3 85 184 0.0 0 1524 0 1
gene 1 85 185 0.0 0 1525 0 1
gene 2 85 186 0.0 0 1526 0 1
gene 3 85 187 0.0 0 1527 0 1
gene 1 85 188 0.0 0 1528 0 1
gene 2 85 189 0.0 0 1529 0 1
gene 3 85 190 0.0 0 1530 0 1
gene 1 86 173 0.0 0 1531 0 1
gene 2 86 174 0.0 0 1532 0 1
gene 3 86 175 0.0 0 1533 0 1
gene 1 86 176 0.0 0 1534 0 1
gene 2 86 177 0.0 0 1535 0 1
gene 3 86 178 0.0 0 1536 0 1
gene 1 86 179 0.0 0 1537 0 1
gene 2 86 180 0.0 0 1538 0 1
gene 3 86 181 0.0 0 1539 0 1
gene 1 86 182 0.0 0 1540 0 1
gene 2 86 183 0.0 0 1541 0 1
gene 3 86 184 0.0 0 1542 0 1
gene 1 86 185 0.0 0 1543 0 1
gene 2 86 186 0.0 0 1544 0 1
gene 3 86 187 0.0 0 1545 0 1
gene 1 86 188 0.0 0 1546 0 1
gene 2 86 189 0.0 0 1547 0 1
gene 3 86 190 0.0 0 1548 0 1
gene 1 87 173 0.0 0 1549 0 1
gene 2 87 174 0.0 0 1550 0 1
gene 3 87 175 0.0 0 1551 0 1
gene 1 87 176 0.0 0 1552 0 1
gene 2 87 177 0.0 0 1553 0 1
gene 3 87 178 0.0 0 1554 0 1
gene 1 87 179 0.0 0 1555 0 1
gene 2 87 180 0.0 0 1556 0 1
gene 3 87 181 0.0 0 1557 0 1
gene 1 87 182 0.0 0 1558 0 1
gene 2 87 183 0.0 0 1559 0 1
gene 3 87 184 0.0 0 1560 0 1
gene 1 87 185 0.0 0 1561 0 1
gene 2 87 186 0.0 0 1562 0 1
gene 3 87 187 0.0 0 1563 0 1
gene 1 87 188 0.0 0 1564 0 1
gene 2 87 189 0.0 0 1565 0 1
gene 3 87 190 0.0 0 1566 0 1
gene 1 88 173 0.0 0 1567 0 1
gene 2 88 174 0.0 0 1568 0 1
gene 3 88 175 0.0 0 1569 0 1
gene 1 88 176 0.0 0 1570 0 1
gene 2 88 177 0.0 0 1571 0 1
gene 3 88 178 0.0 0 1572 0 1
gene 1 88 179 0.0 0 1573 0 1
gene 2 88 180 0.0 0 1574 0 1
gene 3 88 181 0.0 0 1575 0 1
gene 1 88 182 0.0 0 1576 0 1
gene 2 88 183 0.0 0 1577 0 1
gene 3 88 184 0.0 0 1578 0 1
gene 1 88 185 0.0 0 1579 0 1
gene 2 88 186 0.0 0 1580 0 1
gene 3 88 187 0.0 0 1581 0 1
gene 1 88 188 0.0 0 1582 0 1
gene 2 88 189 0.0 0 1583 0 1
gene 3 88 190 0.0 0 1584 0 1
gene 1 89 173 0.0 0 1585 0 1
gene 2 89 174 0.0 0 1586 0 1
gene 3 89 175 0.0 0 1587 0 1
gene 1 89 176 0.0 0 1588 0 1
gene 2 89 177 0.0 0 1589 0 1
gene 3 89 178 0.0 0 1590 0 1
gene 1 89 179 0.0 0 1591 0 1
gene 2 89 180 0.0 0 1592 0 1
gene 3 89 181 0.0 0 1593 0 1
gene 1 89 182 0.0 0 1594 0 1
gene 2 89 183 0.0 0 1595 0 1
gene 3 89 184 0.0 0 1596 0 1
gene 1 89 185 0.0 0 1597 0 1
gene 2 89 186 0.0 0 1598 0 1
gene 3 89 187 0.0 0 1599 0 1
gene 1 89 188 0.0 0 1600 0 1
gene 2 89 189 0.0 0 1601 0 1
gene 3 89 190 0.0 0 1602 0 1
gene 1 90 173 0.0 0 1603 0 1
gene 2 90 174 0.0 0 1604 0 1
gene 3 90 175 0.0 0 1605 0 1
gene 1 90 176 0.0 0 1606 0 1
gene 2 90 177 0.0 0 1607 0 1
gene 3 90 178 0.0 0 1608 0 1
gene 1 90 179 0.0 0 1609 0 1
gene 2 90 180 0.0 0 1610 0 1
gene 3 90 181 0.0 0 1611 0 1
gene 1 90 182 0.0 0 1612 0 1
gene 2 90 183 0.0 0 1613 0 1
gene 3 90 184 0.0 0 1614 0 1
gene 1 90 185 0.0 0 1615 0 1
gene 2 90 186 0.0 0 1616 0 1
gene 3 90 187 0.0 0 1617 0 1
gene 1 90 188 0.0 0 1618 0 1
gene 2 90 189 0.0 0 1619 0 1
gene 3 90 190 0.0 0 1620 0 1
gene 1 91 173 0.0 0 1621 0 1
gene 2 91 174 0.0 0 1622 0 1
gene 3 91 175 0.0 0 1623 0 1
gene 1 91 176 0.0 0 1624 0 1
gene 2 91 177 0.0 0 1625 0 1
gene 3 91 178 0.0 0 1626 0 1
gene 1 91 179 0.0 0 1627 0 1
gene 2 91 180 0.0 0 1628 0 1
gene 3 91 181 0.0 0 1629 0 1
gene 1 91 182 0.0 0 1630 0 1
gene 2 91 183 0.0 0 1631 0 1
gene 3 91 184 0.0 0 1632 0 1
gene 1 91 185 0.0 0 1633 0 1
gene 2 91 186 0.0 0 1634 0 1
gene 3 91 187 0.0 0 1635 0 1
gene 1 91 188 0.0 0 1636 0 1
gene 2 91 189 0.0 0 1637 0 1
gene 3 91 190 0.0 0 1638 0 1
gene 1 92 173 0.0 0 1639 0 1
gene 2 92 174 0.0 0 1640 0 1
gene 3 92 175 0.0 0 1641 0 1
gene 1 92 176 0.0 0 1642 0 1
gene 2 92 177 0.0 0 1643 0 1
gene 3 92 178 0.0 0 1644 0 1
gene 1 92 179 0.0 0 1645 0 1
gene 2 92 180 0.0 0 1646 0 1
gene 3 92 181 0.0 0 1647 0 1
gene 1 92 182 0.0 0 1648 0 1
gene 2 92 183 0.0 0 1649 0 1
gene 3 92 184 0.0 0 1650 0 1
gene 1 92 185 0.0 0 1651 0 1
gene 2 92 186 0.0 0 1652 0 1
gene 3 92 187 0.0 0 1653 0 1
gene 1 92 188 0.0 0 1654 0 1
gene 2 92 189 0.0 0 1655 0 1
gene 3 92 190 0.0 0 1656 0 1
gene 1 93 173 0.0 0 1657 0 1
gene 2 93 174 0.0 0 1658 0 1
gene 3 93 175 0.0 0 1659 0 1
gene 1 93 176 0.0 0 1660 0 1
gene 2 93 177 0.0 0 1661 0 1
gene 3 93 178 0.0 0 1662 0 1
gene 1 93 179 0.0 0 1663 0 1
gene 2 93 180 0.0 0 1664 0 1
gene 3 93 181 0.0 0 1665 0 1
gene 1 93 182 0.0 0 1666 0 1
gene 2 93 183 0.0 0 1667 0 1
gene 3 93 184 0.0 0 1668 0 1
gene 1 93 185 0.0 0 1669 0 1
gene 2 93 186 0.0 0 1670 0 1
gene 3 93 187 0.0 0 1671 0 1
gene 1 93 188 0.0 0 1672 0 1
gene 2 93 189 0.0 0 1673 0 1
gene 3 93 190 0.0 0 1674 0 1
gene 1 94 173 0.0 0 1675 0 1
gene 2 94 174 0.0 0 1676 0 1
gene 3 94 175 0.0 0 1677 0 1
gene 1 94 176 0.0 0 1678 0 1
gene 2 94 177 0.0 0 1679 0 1
gene 3 94 178 0.0 0 1680 0 1
gene 1 94 179 0.0 0 1681 0 1
gene 2 94 180 0.0 0 1682 0 1
gene 3 94 181 0.0 0 1683 0 1
gene 1 94 182 0.0 0 1684 0 1
gene 2 94 183 0.0 0 1685 0 1
gene 3 94 184 0.0 0 1686 0 1
gene 1 94 185 0.0 0 1687 0 1
gene 2 94 186 0.0 0 1688 0 1
gene 3 94 187 0.0 0 1689 0 1
gene 1 94 188 0.0 0 1690 0 1
gene 2 94 189 0.0 0 1691 0 1
gene 3 94 190 0.0 0 1692 0 1
gene 1 95 173 0.0 0 1693 0 1
gene 2 95 174 0.0 0 1694 0 1
gene 3 95 175 0.0 0 1695 0 1
gene 1 95 176 0.0 0 1696 0 1
gene 2 95 177 0.0 0 1697 0 1
gene 3 95 178 0.0 0 1698 0 1
gene 1 95 179 0.0 0 1699 0 1
gene 2 95 180 0.0 0 1700 0 1
gene 3 95 181 0.0 0 1701 0 1
gene 1 95 182 0.0 0 1702 0 1
gene 2 95 183 0.0 0 1703 0 1
gene 3 95 184 0.0 0 1704 0 1
gene 1 95 185 0.0 0 1705 0 1
gene 2 95 186 0.0 0 1706 0 1
gene 3 95 187 0.0 0 1707 0 1
gene 1 95 188 0.0 0 1708 0 1
gene 2 95 189 0.0 0 1709 0 1
gene 3 95 190 0.0 0 1710 0 1
gene 1 96 173 0.0 0 1711 0 1
gene 2 96 174 0.0 0 1712 0 1
gene 3 96 175 0.0 0 1713 0 1
gene 1 96 176 0.0 0 1714 0 1
gene 2 96 177 0.0 0 1715 0 1
gene 3 96 178 0.0 0 1716 0 1
gene 1 96 179 0.0 0 1717 0 1
gene 2 96 180 0.0 0 1718 0 1
gene 3 96 181 0.0 0 1719 0 1
gene 1 96 182 0.0 0 1720 0 1
gene 2 96 183 0.0 0 1721 0 1
gene 3 96 184 0.0 0 1722 0 1
gene 1 96 185 0.0 0 1723 0 1
gene 2 96 186 0.0 0 1724 0 1
gene 3 96 187 0.0 0 1725 0 1
gene 1 96 188 0.0 0 1726 0 1
gene 2 96 189 0.0 0 1727 0 1
gene 3 96 190 0.0 0 1728 0 1
gene 1 97 173 0.0 0 1729 0 1
gene 2 97 174 0.0 0 1730 0 1
gene 3 97 175 0.0 0 1731 0 1
gene 1 97 176 0.0 0 1732 0 1
gene 2 97 177 0.0 0 1733 0 1
gene 3 97 178 0.0 0 1734 0 1
gene 1 97 179 0.0 0 1735 0 1
gene 2 97 180 0.0 0 1736 0 1
gene 3 97 181 0.0 0 1737 0 1
gene 1 97 182 0.0 0 1738 0 1
gene 2 97 183 0.0 0 1739 0 1
gene 3 97 184 0.0 0 1740 0 1
gene 1 97 185 0.0 0 1741 0 1
gene 2 97 186 0.0 0 1742 0 1
gene 3 97 187 0.0 0 1743 0 1
gene 1 97 188 0.0 0 1744 0 1
gene 2 97 189 0.0 0 1745 0 1
gene 3 97 190 0.0 0 1746 0 1
gene 1 98 173 0.0 0 1747 0 1
gene 2 98 174 0.0 0 1748 0 1
gene 3 98 175 0.0 0 1749 0 1
gene 1 98 176 0.0 0 1750 0 1
gene 2 98 177 0.0 0 1751 0 1
gene 3 98 178 0.0 0 1752 0 1
gene 1 98 179 0.0 0 1753 0 1
gene 2 98 180 0.0 0 1754 0 1
gene 3 98 181 0.0 0 1755 0 1
gene 1 98 182 0.0 0 1756 0 1
gene 2 98 183 0.0 0 1757 0 1
gene 3 98 184 0.0 0 1758 0 1
gene 1 98 185 0.0 0 1759 0 1
gene 2 98 186 0.0 0 1760 0 1
gene 3 98 187 0.0 0 1761 0 1
gene 1 98 188 0.0 0 1762 0 1
gene 2 98 189 0.0 0 1763 0 1
gene 3 98 190 0.0 0 1764 0 1
gene 1 99 173 0.0 0 1765 0 1
gene 2 99 174 0.0 0 1766 0 1
gene 3 99 175 0.0 0 1767 0 1
gene 1 99 176 0.0 0 1768 0 1
gene 2 99 177 0.0 0 1769 0 1
gene 3 99 178 0.0 0 1770 0 1
gene 1 99 179 0.0 0 1771 0 1
gene 2 99 180 0.0 0 1772 0 1
gene 3 99 181 0.0 0 1773 0 1
gene 1 99 182 0.0 0 1774 0 1
gene 2 99 183 0.0 0 1775 0 1
gene 3 99 184 0.0 0 1776 0 1
gene 1 99 185 0.0 0 1777 0 1
gene 2 99 186 0.0 0 1778 0 1
gene 3 99 187 0.0 0 1779 0 1
gene 1 99 188 0.0 0 1780 0 1
gene 2 99 189 0.0 0 1781 0 1
gene 3 99 190 0.0 0 1782 0 1
gene 1 100 173 0.0 0 1783 0 1
gene 2 100 174 0.0 0 1784 0 1
gene 3 100 175 0.0 0 1785 0 1
gene 1 100 176 0.0 0 1786 0 1
gene 2 100 177 0.0 0 1787 0 1
gene 3 100 178 0.0 0 1788 0 1
gene 1 100 179 0.0 0 1789 0 1
gene 2 100 180 0.0 0 1790 0 1
gene 3 100 181 0.0 0 1791 0 1
gene 1 100 182 0.0 0 1792 0 1
gene 2 100 183 0.0 0 1793 0 1
gene 3 100 184 0.0 0 1794 0 1
gene 1 100 185 0.0 0 1795 0 1
gene 2 100 186 0.0 0 1796 0 1
gene 3 100 187 0.0 0 1797 0 1
gene 1 100 188 0.0 0 1798 0 1
gene 2 100 189 0.0 0 1799 0 1
gene 3 100 190 0.0 0 1800 0 1
gene 1 101 173 0.0 0 1801 0 1
gene 2 101 174 0.0 0 1802 0 1
gene 3 101 175 0.0 0 1803 0 1
gene 1 101 176 0.0 0 1804 0 1
gene 2 101 177 0.0 0 1805 0 1
gene 3 101 178 0.0 0 1806 0 1
gene 1 101 179 0.0 0 1807 0 1
gene 2 101 180 0.0 0 1808 0 1
gene 3 101 181 0.0 0 1809 0 1
gene 1 101 182 0.0 0 1810 0 1
gene 2 101 183 0.0 0 1811 0 1
gene 3 101 184 0.0 0 1812 0 1
gene 1 101 185 0.0 0 1813 0 1
gene 2 101 186 0.0 0 1814 0 1
gene 3 101 187 0.0 0 1815 0 1
gene 1 101 188 0.0 0 1816 0 1
gene 2 101 189 0.0 0 1817 0 1
gene 3 101 190 0.0 0 1818 0 1
gene 1 102 173 0.0 0 1819 0 1
gene 2 102 174 0.0 0 1820 0 1
gene 3 102 175 0.0 0 1821 0 1
gene 1 102 176 0.0 0 1822 0 1
gene 2 102 177 0.0 0 1823 0 1
gene 3 102 178 0.0 0 1824 0 1
gene 1 102 179 0.0 0 1825 0 1
gene 2 102 180 0.0 0 1826 0 1
gene 3 102 181 0.0 0 1827 0 1
gene 1 102 182 0.0 0 1828 0 1
gene 2 102 183 0.0 0 1829 0 1
gene 3 102 184 0.0 0 1830 0 1
gene 1 102 185 0.0 0 1831 0 1
gene 2 102 186 0.0 0 1832 0 1
gene 3 102 187 0.0 0 1833 0 1
gene 1 102 188 0.0 0 1834 0 1
gene 2 102 189 0.0 0 1835 0 1
gene 3 102 190 0.0 0 1836 0 1
gene 1 103 173 0.0 0 1837 0 1
gene 2 103 174 0.0 0 1838 0 1
gene 3 103 175 0.0 0 1839 0 1
gene 1 103 176 0.0 0 1840 0 1
gene 2 103 177 0.0 0 1841 0 1
gene 3 103 178 0.0 0 1842 0 1
gene 1 103 179 0.0 0 1843 0 1
gene 2 103 180 0.0 0 1844 0 1
gene 3 103 181 0.0 0 1845 0 1
gene 1 103 182 0.0 0 1846 0 1
gene 2 103 183 0.0 0 1847 0 1
gene 3 103 184 0.0 0 1848 0 1
gene 1 103 185 0.0 0 1849 0 1
gene 2 103 186 0.0 0 1850 0 1
gene 3 103 187 0.0 0 1851 0 1
gene 1 103 188 0.0 0 1852 0 1
gene 2 103 189 0.0 0 1853 0 1
gene 3 103 190 0.0 0 1854 0 1
gene 1 104 173 0.0 0 1855 0 1
gene 2 104 174 0.0 0 1856 0 1
gene 3 104 175 0.0 0 1857 0 1
gene 1 104 176 0.0 0 1858 0 1
gene 2 104 177 0.0 0 1859 0 1
gene 3 104 178 0.0 0 1860 0 1
gene 1 104 179 0.0 0 1861 0 1
gene 2 104 180 0.0 0 1862 0 1
gene 3 104 181 0.0 0 1863 0 1
gene 1 104 182 0.0 0 1864 0 1
gene 2 104 183 0.0 0 1865 0 1
gene 3 104 184 0.0 0 1866 0 1
gene 1 104 185 0.0 0 1867 0 1
gene 2 104 186 0.0 0 1868 0 1
gene 3 104 187 0.0 0 1869 0 1
gene 1 104 188 0.0 0 1870 0 1
gene 2 104 189 0.0 0 1871 0 1
gene 3 104 190 0.0 0 1872 0 1
gene 1 105 173 0.0 0 1873 0 1
gene 2 105 174 0.0 0 1874 0 1
gene 3 105 175 0.0 0 1875 0 1
gene 1 105 176 0.0 0 1876 0 1
gene 2 105 177 0.0 0 1877 0 1
gene 3 105 178 0.0 0 1878 0 1
gene 1 105 179 0.0 0 1879 0 1
gene 2 105 180 0.0 0 1880 0 1
gene 3 105 181 0.0 0 1881 0 1
gene 1 105 182 0.0 0 1882 0 1
gene 2 105 183 0.0 0 1883 0 1
gene 3 105 184 0.0 0 1884 0 1
gene 1 105 185 0.0 0 1885 0 1
gene 2 105 186 0.0 0 1886 0 1
gene 3 105 187 0.0 0 1887 0 1
gene 1 105 188 0.0 0 1888 0 1
gene 2 105 189 0.0 0 1889 0 1
gene 3 105 190 0.0 0 1890 0 1
gene 1 106 173 0.0 0 1891 0 1
gene 2 106 174 0.0 0 1892 0 1
gene 3 106 175 0.0 0 1893 0 1
gene 1 106 176 0.0 0 1894 0 1
gene 2 106 177 0.0 0 1895 0 1
gene 3 106 178 0.0 0 1896 0 1
gene 1 106 179 0.0 0 1897 0 1
gene 2 106 180 0.0 0 1898 0 1
gene 3 106 181 0.0 0 1899 0 1
gene 1 106 182 0.0 0 1900 0 1
gene 2 106 183 0.0 0 1901 0 1
gene 3 106 184 0.0 0 1902 0 1
gene 1 106 185 0.0 0 1903 0 1
gene 2 106 186 0.0 0 1904 0 1
gene 3 106 187 0.0 0 1905 0 1
gene 1 106 188 0.0 0 1906 0 1
gene 2 106 189 0.0 0 1907 0 1
gene 3 106 190 0.0 0 1908 0 1
gene 1 107 173 0.0 0 1909 0 1
gene 2 107 174 0.0 0 1910 0 1
gene 3 107 175 0.0 0 1911 0 1
gene 1 107 176 0.0 0 1912 0 1
gene 2 107 177 0.0 0 1913 0 1
gene 3 107 178 0.0 0 1914 0 1
gene 1 107 179 0.0 0 1915 0 1
gene 2 107 180 0.0 0 1916 0 1
gene 3 107 181 0.0 0 1917 0 1
gene 1 107 182 0.0 0 1918 0 1
gene 2 107 183 0.0 0 1919 0 1
gene 3 107 184 0.0 0 1920 0 1
gene 1 107 185 0.0 0 1921 0 1
gene 2 107 186 0.0 0 1922 0 1
gene 3 107 187 0.0 0 1923 0 1
gene 1 107 188 0.0 0 1924 0 1
gene 2 107 189 0.0 0 1925 0 1
gene 3 107 190 0.0 0 1926 0 1
gene 1 108 173 0.0 0 1927 0 1
gene 2 108 174 0.0 0 1928 0 1
gene 3 108 175 0.0 0 1929 0 1
gene 1 108 176 0.0 0 1930 0 1
gene 2 108 177 0.0 0 1931 0 1
gene 3 108 178 0.0 0 1932 0 1
gene 1 108 179 0.0 0 1933 0 1
gene 2 108 180 0.0 0 1934 0 1
gene 3 108 181 0.0 0 1935 0 1
gene 1 108 182 0.0 0 1936 0 1
gene 2 108 183 0.0 0 1937 0 1
gene 3 108 184 0.0 0 1938 0 1
gene 1 108 185 0.0 0 1939 0 1
gene 2 108 186 0.0 0 1940 0 1
gene 3 108 187 0.0 0 1941 0 1
gene 1 108 188 0.0 0 1942 0 1
gene 2 108 189 0.0 0 1943 0 1
gene 3 108 190 0.0 0 1944 0 1
gene 1 109 173 0.0 0 1945 0 1
gene 2 109 174 0.0 0 1946 0 1
gene 3 109 175 0.0 0 1947 0 1
gene 1 109 176 0.0 0 1948 0 1
gene 2 109 177 0.0 0 1949 0 1
gene 3 109 178 0.0 0 1950 0 1
gene 1 109 179 0.0 0 1951 0 1
gene 2 109 180 0.0 0 1952 0 1
gene 3 109 181 0.0 0 1953 0 1
gene 1 109 182 0.0 0 1954 0 1
gene 2 109 183 0.0 0 1955 0 1
gene 3 109 184 0.0 0 1956 0 1
gene 1 109 185 0.0 0 1957 0 1
gene 2 109 186 0.0 0 1958 0 1
gene 3 109 187 0.0 0 1959 0 1
gene 1 109 188 0.0 0 1960 0 1
gene 2 109 189 0.0 0 1961 0 1
gene 3 109 190 0.0 0 1962 0 1
gene 1 110 173 0.0 0 1963 0 1
gene 2 110 174 0.0 0 1964 0 1
gene 3 110 175 0.0 0 1965 0 1
gene 1 110 176 0.0 0 1966 0 1
gene 2 110 177 0.0 0 1967 0 1
gene 3 110 178 0.0 0 1968 0 1
gene 1 110 179 0.0 0 1969 0 1
gene 2 110 180 0.0 0 1970 0 1
gene 3 110 181 0.0 0 1971 0 1
gene 1 110 182 0.0 0 1972 0 1
gene 2 110 183 0.0 0 1973 0 1
gene 3 110 184 0.0 0 1974 0 1
gene 1 110 185 0.0 0 1975 0 1
gene 2 110 186 0.0 0 1976 0 1
gene 3 110 187 0.0 0 1977 0 1
gene 1 110 188 0.0 0 1978 0 1
gene 2 110 189 0.0 0 1979 0 1
gene 3 110 190 0.0 0 1980 0 1
gene 1 111 173 0.0 0 1981 0 1
gene 2 111 174 0.0 0 1982 0 1
gene 3 111 175 0.0 0 1983 0 1
gene 1 111 176 0.0 0 1984 0 1
gene 2 111 177 0.0 0 1985 0 1
gene 3 111 178 0.0 0 1986 0 1
gene 1 111 179 0.0 0 1987 0 1
gene 2 111 180 0.0 0 1988 0 1
gene 3 111 181 0.0 0 1989 0 1
gene 1 111 182 0.0 0 1990 0 1
gene 2 111 183 0.0 0 1991 0 1
gene 3 111 184 0.0 0 1992 0 1
gene 1 111 185 0.0 0 1993 0 1
gene 2 111 186 0.0 0 1994 0 1
gene 3 111 187 0.0 0 1995 0 1
gene 1 111 188 0.0 0 1996 0 1
gene 2 111 189 0.0 0 1997 0 1
gene 3 111 190 0.0 0 1998 0 1
gene 1 112 173 0.0 0 1999 0 1
gene 2 112 174 0.0 0 2000 0 1
gene 3 112 175 0.0 0 2001 0 1
gene 1 112 176 0.0 0 2002 0 1
gene 2 112 177 0.0 0 2003 0 1
gene 3 112 178 0.0 0 2004 0 1
gene 1 112 179 0.0 0 2005 0 1
gene 2 112 180 0.0 0 2006 0 1
gene 3 112 181 0.0 0 2007 0 1
gene 1 112 182 0.0 0 2008 0 1
gene 2 112 183 0.0 0 2009 0 1
gene 3 112 184 0.0 0 2010 0 1
gene 1 112 185 0.0 0 2011 0 1
gene 2 112 186 0.0 0 2012 0 1
gene 3 112 187 0.0 0 2013 0 1
gene 1 112 188 0.0 0 2014 0 1
gene 2 112 189 0.0 0 2015 0 1
gene 3 112 190 0.0 0 2016 0 1
gene 1 113 173 0.0 0 2017 0 1
gene 2 113 174 0.0 0 2018 0 1
gene 3 113 175 0.0 0 2019 0 1
gene 1 113 176 0.0 0 2020 0 1
gene 2 113 177 0.0 0 2021 0 1
gene 3 113 178 0.0 0 2022 0 1
gene 1 113 179 0.0 0 2023 0 1
gene 2 113 180 0.0 0 2024 0 1
gene 3 113 181 0.0 0 2025 0 1
gene 1 113 182 0.0 0 2026 0 1
gene 2 113 183 0.0 0 2027 0 1
gene 3 113 184 0.0 0 2028 0 1
gene 1 113 185 0.0 0 2029 0 1
gene 2 113 186 0.0 0 2030 0 1
gene 3 113 187 0.0 0 2031 0 1
gene 1 113 188 0.0 0 2032 0 1
gene 2 113 189 0.0 0 2033 0 1
gene 3 113 190 0.0 0 2034 0 1
gene 1 114 173 0.0 0 2035 0 1
gene 2 114 174 0.0 0 2036 0 1
gene 3 114 175 0.0 0 2037 0 1
gene 1 114 176 0.0 0 2038 0 1
gene 2 114 177 0.0 0 2039 0 1
gene 3 114 178 0.0 0 2040 0 1
gene 1 114 179 0.0 0 2041 0 1
gene 2 114 180 0.0 0 2042 0 1
gene 3 114 181 0.0 0 2043 0 1
gene 1 114 182 0.0 0 2044 0 1
gene 2 114 183 0.0 0 2045 0 1
gene 3 114 184 0.0 0 2046 0 1
gene 1 114 185 0.0 0 2047 0 1
gene 2 114 186 0.0 0 2048 0 1
gene 3 114 187 0.0 0 2049 0 1
gene 1 114 188 0.0 0 2050 0 1
gene 2 114 189 0.0 0 2051 0 1
gene 3 114 190 0.0 0 2052 0 1
gene 1 115 173 0.0 0 2053 0 1
gene 2 115 174 0.0 0 2054 0 1
gene 3 115 175 0.0 0 2055 0 1
gene 1 115 176 0.0 0 2056 0 1
gene 2 115 177 0.0 0 2057 0 1
gene 3 115 178 0.0 0 2058 0 1
gene 1 115 179 0.0 0 2059 0 1
gene 2 115 180 0.0 0 2060 0 1
gene 3 115 181 0.0 0 2061 0 1
gene 1 115 182 0.0 0 2062 0 1
gene 2 115 183 0.0 0 2063 0 1
gene 3 115 184 0.0 0 2064 0 1
gene 1 115 185 0.0 0 2065 0 1
gene 2 115 186 0.0 0 2066 0 1
gene 3 115 187 0.0 0 2067 0 1
gene 1 115 188 0.0 0 2068 0 1
gene 2 115 189 0.0 0 2069 0 1
gene 3 115 190 0.0 0 2070 0 1
gene 1 116 173 0.0 0 2071 0 1
gene 2 116 174 0.0 0 2072 0 1
gene 3 116 175 0.0 0 2073 0 1
gene 1 116 176 0.0 0 2074 0 1
gene 2 116 177 0.0 0 2075 0 1
gene 3 116 178 0.0 0 2076 0 1
gene 1 116 179 0.0 0 2077 0 1
gene 2 116 180 0.0 0 2078 0 1
gene 3 116 181 0.0 0 2079 0 1
gene 1 116 182 0.0 0 2080 0 1
gene 2 116 183 0.0 0 2081 0 1
gene 3 116 184 0.0 0 2082 0 1
gene 1 116 185 0.0 0 2083 0 1
gene 2 116 186 0.0 0 2084 0 1
gene 3 116 187 0.0 0 2085 0 1
gene 1 116 188 0.0 0 2086 0 1
gene 2 116 189 0.0 0 2087 0 1
gene 3 116 190 0.0 0 2088 0 1
gene 1 117 173 0.0 0 2089 0 1
gene 2 117 174 0.0 0 2090 0 1
gene 3 117 175 0.0 0 2091 0 1
gene 1 117 176 0.0 0 2092 0 1
gene 2 117 177 0.0 0 2093 0 1
gene 3 117 178 0.0 0 2094 0 1
gene 1 117 179 0.0 0 2095 0 1
gene 2 117 180 0.0 0 2096 0 1
gene 3 117 181 0.0 0 2097 0 1
gene 1 117 182 0.0 0 2098 0 1
gene 2 117 183 0.0 0 2099 0 1
gene 3 117 184 0.0 0 2100 0 1
gene 1 117 185 0.0 0 2101 0 1
gene 2 117 186 0.0 0 2102 0 1
gene 3 117 187 0.0 0 2103 0 1
gene 1 117 188 0.0 0 2104 0 1
gene 2 117 189 0.0 0 2105 0 1
gene 3 117 190 0.0 0 2106 0 1
gene 1 118 173 0.0 0 2107 0 1
gene 2 118 174 0.0 0 2108 0 1
gene 3 118 175 0.0 0 2109 0 1
gene 1 118 176 0.0 0 2110 0 1
gene 2 118 177 0.0 0 2111 0 1
gene 3 118 178 0.0 0 2112 0 1
gene 1 118 179 0.0 0 2113 0 1
gene 2 118 180 0.0 0 2114 0 1
gene 3 118 181 0.0 0 2115 0 1
gene 1 118 182 0.0 0 2116 0 1
gene 2 118 183 0.0 0 2117 0 1
gene 3 118 184 0.0 0 2118 0 1
gene 1 118 185 0.0 0 2119 0 1
gene 2 118 186 0.0 0 2120 0 1
gene 3 118 187 0.0 0 2121 0 1
gene 1 118 188 0.0 0 2122 0 1
gene 2 118 189 0.0 0 2123 0 1
gene 3 118 190 0.0 0 2124 0 1
gene 1 119 173 0.0 0 2125 0 1
gene 2 119 174 0.0 0 2126 0 1
gene 3 119 175 0.0 0 2127 0 1
gene 1 119 176 0.0 0 2128 0 1
gene 2 119 177 0.0 0 2129 0 1
gene 3 119 178 0.0 0 2130 0 1
gene 1 119 179 0.0 0 2131 0 1
gene 2 119 180 0.0 0 2132 0 1
gene 3 119 181 0.0 0 2133 0 1
gene 1 119 182 0.0 0 2134 0 1
gene 2 119 183 0.0 0 2135 0 1
gene 3 119 184 0.0 0 2136 0 1
gene 1 119 185 0.0 0 2137 0 1
gene 2 119 186 0.0 0 2138 0 1
gene 3 119 187 0.0 0 2139 0 1
gene 1 119 188 0.0 0 2140 0 1
gene 2 119 189 0.0 0 2141 0 1
gene 3 119 190 0.0 0 2142 0 1
gene 1 120 173 0.0 0 2143 0 1
gene 2 120 174 0.0 0 2144 0 1
gene 3 120 175 0.0 0 2145 0 1
gene 1 120 176 0.0 0 2146 0 1
gene 2 120 177 0.0 0 2147 0 1
gene 3 120 178 0.0 0 2148 0 1
gene 1 120 179 0.0 0 2149 0 1
gene 2 120 180 0.0 0 2150 0 1
gene 3 120 181 0.0 0 2151 0 1
gene 1 120 182 0.0 0 2152 0 1
gene 2 120 183 0.0 0 2153 0 1
gene 3 120 184 0.0 0 2154 0 1
gene 1 120 185 0.0 0 2155 0 1
gene 2 120 186 0.0 0 2156 0 1
gene 3 120 187 0.0 0 2157 0 1
gene 1 120 188 0.0 0 2158 0 1
gene 2 120 189 0.0 0 2159 0 1
gene 3 120 190 0.0 0 2160 0 1
gene 1 121 173 0.0 0 2161 0 1
gene 2 121 174 0.0 0 2162 0 1
gene 3 121 175 0.0 0 2163 0 1
gene 1 121 176 0.0 0 2164 0 1
gene 2 121 177 0.0 0 2165 0 1
gene 3 121 178 0.0 0 2166 0 1
gene 1 121 179 0.0 0 2167 0 1
gene 2 121 180 0.0 0 2168 0 1
gene 3 121 181 0.0 0 2169 0 1
gene 1 121 182 0.0 0 2170 0 1
gene 2 121 183 0.0 0 2171 0 1
gene 3 121 184 0.0 0 2172 0 1
gene 1 121 185 0.0 0 2173 0 1
gene 2 121 186 0.0 0 2174 0 1
gene 3 121 187 0.0 0 2175 0 1
gene 1 121 188 0.0 0 2176 0 1
gene 2 121 189 0.0 0 2177 0 1
gene 3 121 190 0.0 0 2178 0 1
gene 1 122 173 0.0 0 2179 0 1
gene 2 122 174 0.0 0 2180 0 1
gene 3 122 175 0.0 0 2181 0 1
gene 1 122 176 0.0 0 2182 0 1
gene 2 122 177 0.0 0 2183 0 1
gene 3 122 178 0.0 0 2184 0 1
gene 1 122 179 0.0 0 2185 0 1
gene 2 122 180 0.0 0 2186 0 1
gene 3 122 181 0.0 0 2187 0 1
gene 1 122 182 0.0 0 2188 0 1
gene 2 122 183 0.0 0 2189 0 1
gene 3 122 184 0.0 0 2190 0 1
gene 1 122 185 0.0 0 2191 0 1
gene 2 122 186 0.0 0 2192 0 1
gene 3 122 187 0.0 0 2193 0 1
gene 1 122 188 0.0 0 2194 0 1
gene 2 122 189 0.0 0 2195 0 1
gene 3 122 190 0.0 0 2196 0 1
gene 1 123 173 0.0 0 2197 0 1
gene 2 123 174 0.0 0 2198 0 1
gene 3 123 175 0.0 0 2199 0 1
gene 1 123 176 0.0 0 2200 0 1
gene 2 123 177 0.0 0 2201 0 1
gene 3 123 178 0.0 0 2202 0 1
gene 1 123 179 0.0 0 2203 0 1
gene 2 123 180 0.0 0 2204 0 1
gene 3 123 181 0.0 0 2205 0 1
gene 1 123 182 0.0 0 2206 0 1
gene 2 123 183 0.0 0 2207 0 1
gene 3 123 184 0.0 0 2208 0 1
gene 1 123 185 0.0 0 2209 0 1
gene 2 123 186 0.0 0 2210 0 1
gene 3 123 187 0.0 0 2211 0 1
gene 1 123 188 0.0 0 2212 0 1
gene 2 123 189 0.0 0 2213 0 1
gene 3 123 190 0.0 0 2214 0 1
gene 1 124 173 0.0 0 2215 0 1
gene 2 124 174 0.0 0 2216 0 1
gene 3 124 175 0.0 0 2217 0 1
gene 1 124 176 0.0 0 2218 0 1
gene 2 124 177 0.0 0 2219 0 1
gene 3 124 178 0.0 0 2220 0 1
gene 1 124 179 0.0 0 2221 0 1
gene 2 124 180 0.0 0 2222 0 1
gene 3 124 181 0.0 0 2223 0 1
gene 1 124 182 0.0 0 2224 0 1
gene 2 124 183 0.0 0 2225 0 1
gene 3 124 184 0.0 0 2226 0 1
gene 1 124 185 0.0 0 2227 0 1
gene 2 124 186 0.0 0 2228 0 1
gene 3 124 187 0.0 0 2229 0 1
gene 1 124 188 0.0 0 2230 0 1
gene 2 124 189 0.0 0 2231 0 1
gene 3 124 190 0.0 0 2232 0 1
gene 1 125 173 0.0 0 2233 0 1
gene 2 125 174 0.0 0 2234 0 1
gene 3 125 175 0.0 0 2235 0 1
gene 1 125 176 0.0 0 2236 0 1
gene 2 125 177 0.0 0 2237 0 1
gene 3 125 178 0.0 0 2238 0 1
gene 1 125 179 0.0 0 2239 0 1
gene 2 125 180 0.0 0 2240 0 1
gene 3 125 181 0.0 0 2241 0 1
gene 1 125 182 0.0 0 2242 0 1
gene 2 125 183 0.0 0 2243 0 1
gene 3 125 184 0.0 0 2244 0 1
gene 1 125 185 0.0 0 2245 0 1
gene 2 125 186 0.0 0 2246 0 1
gene 3 125 187 0.0 0 2247 0 1
gene 1 125 188 0.0 0 2248 0 1
gene 2 125 189 0.0 0 2249 0 1
gene 3 125 190 0.0 0 2250 0 1
gene 1 126 173 0.0 0 2251 0 1
gene 2 126 174 0.0 0 2252 0 1
gene 3 126 175 0.0 0 2253 0 1
gene 1 126 176 0.0 0 2254 0 1
gene 2 126 177 0.0 0 2255 0 1
gene 3 126 178 0.0 0 2256 0 1
gene 1 126 179 0.0 0 2257 0 1
gene 2 126 180 0.0 0 2258 0 1
gene 3 126 181 0.0 0 2259 0 1
gene 1 126 182 0.0 0 2260 0 1
gene 2 126 183 0.0 0 2261 0 1
gene 3 126 184 0.0 0 2262 0 1
gene 1 126 185 0.0 0 2263 0 1
gene 2 126 186 0.0 0 2264 0 1
gene 3 126 187 0.0 0 2265 0 1
gene 1 126 188 0.0 0 2266 0 1
gene 2 126 189 0.0 0 2267 0 1
gene 3 126 190 0.0 0 2268 0 1
gene 1 127 173 0.0 0 2269 0 1
gene 2 127 174 0.0 0 2270 0 1
gene 3 127 175 0.0 0 2271 0 1
gene 1 127 176 0.0 0 2272 0 1
gene 2 127 177 0.0 0 2273 0 1
gene 3 127 178 0.0 0 2274 0 1
gene 1 127 179 0.0 0 2275 0 1
gene 2 127 180 0.0 0 2276 0 1
gene 3 127 181 0.0 0 2277 0 1
gene 1 127 182 0.0 0 2278 0 1
gene 2 127 183 0.0 0 2279 0 1
gene 3 127 184 0.0 0 2280 0 1
gene 1 127 185 0.0 0 2281 0 1
gene 2 127 186 0.0 0 2282 0 1
gene 3 127 187 0.0 0 2283 0 1
gene 1 127 188 0.0 0 2284 0 1
gene 2 127 189 0.0 0 2285 0 1
gene 3 127 190 0.0 0 2286 0 1
gene 1 128 173 0.0 0 2287 0 1
gene 2 128 174 0.0 0 2288 0 1
gene 3 128 175 0.0 0 2289 0 1
gene 1 128 176 0.0 0 2290 0 1
gene 2 128 177 0.0 0 2291 0 1
gene 3 128 178 0.0 0 2292 0 1
gene 1 128 179 0.0 0 2293 0 1
gene 2 128 180 0.0 0 2294 0 1
gene 3 128 181 0.0 0 2295 0 1
gene 1 128 182 0.0 0 2296 0 1
gene 2 128 183 0.0 0 2297 0 1
gene 3 128 184 0.0 0 2298 0 1
gene 1 128 185 0.0 0 2299 0 1
gene 2 128 186 0.0 0 2300 0 1
gene 3 128 187 0.0 0 2301 0 1
gene 1 128 188 0.0 0 2302 0 1
gene 2 128 189 0.0 0 2303 0 1
gene 3 128 190 0.0 0 2304 0 1
gene 1 129 173 0.0 0 2305 0 1
gene 2 129 174 0.0 0 2306 0 1
gene 3 129 175 0.0 0 2307 0 1
gene 1 129 176 0.0 0 2308 0 1
gene 2 129 177 0.0 0 2309 0 1
gene 3 129 178 0.0 0 2310 0 1
gene 1 129 179 0.0 0 2311 0 1
gene 2 129 180 0.0 0 2312 0 1
gene 3 129 181 0.0 0 2313 0 1
gene 1 129 182 0.0 0 2314 0 1
gene 2 129 183 0.0 0 2315 0 1
gene 3 129 184 0.0 0 2316 0 1
gene 1 129 185 0.0 0 2317 0 1
gene 2 129 186 0.0 0 2318 0 1
gene 3 129 187 0.0 0 2319 0 1
gene 1 129 188 0.0 0 2320 0 1
gene 2 129 189 0.0 0 2321 0 1
gene 3 129 190 0.0 0 2322 0 1
gene 1 130 173 0.0 0 2323 0 1
gene 2 130 174 0.0 0 2324 0 1
gene 3 130 175 0.0 0 2325 0 1
gene 1 130 176 0.0 0 2326 0 1
gene 2 130 177 0.0 0 2327 0 1
gene 3 130 178 0.0 0 2328 0 1
gene 1 130 179 0.0 0 2329 0 1
gene 2 130 180 0.0 0 2330 0 1
gene 3 130 181 0.0 0 2331 0 1
gene 1 130 182 0.0 0 2332 0 1
gene 2 130 183 0.0 0 2333 0 1
gene 3 130 184 0.0 0 2334 0 1
gene 1 130 185 0.0 0 2335 0 1
gene 2 130 186 0.0 0 2336 0 1
gene 3 130 187 0.0 0 2337 0 1
gene 1 130 188 0.0 0 2338 0 1
gene 2 130 189 0.0 0 2339 0 1
gene 3 130 190 0.0 0 2340 0 1
gene 1 131 173 0.0 0 2341 0 1
gene 2 131 174 0.0 0 2342 0 1
gene 3 131 175 0.0 0 2343 0 1
gene 1 131 176 0.0 0 2344 0 1
gene 2 131 177 0.0 0 2345 0 1
gene 3 131 178 0.0 0 2346 0 1
gene 1 131 179 0.0 0 2347 0 1
gene 2 131 180 0.0 0 2348 0 1
gene 3 131 181 0.0 0 2349 0 1
gene 1 131 182 0.0 0 2350 0 1
gene 2 131 183 0.0 0 2351 0 1
gene 3 131 184 0.0 0 2352 0 1
gene 1 131 185 0.0 0 2353 0 1
gene 2 131 186 0.0 0 2354 0 1
gene 3 131 187 0.0 0 2355 0 1
gene 1 131 188 0.0 0 2356 0 1
gene 2 131 189 0.0 0 2357 0 1
gene 3 131 190 0.0 0 2358 0 1
gene 1 132 173 0.0 0 2359 0 1
gene 2 132 174 0.0 0 2360 0 1
gene 3 132 175 0.0 0 2361 0 1
gene 1 132 176 0.0 0 2362 0 1
gene 2 132 177 0.0 0 2363 0 1
gene 3 132 178 0.0 0 2364 0 1
gene 1 132 179 0.0 0 2365 0 1
gene 2 132 180 0.0 0 2366 0 1
gene 3 132 181 0.0 0 2367 0 1
gene 1 132 182 0.0 0 2368 0 1
gene 2 132 183 0.0 0 2369 0 1
gene 3 132 184 0.0 0 2370 0 1
gene 1 132 185 0.0 0 2371 0 1
gene 2 132 186 0.0 0 2372 0 1
gene 3 132 187 0.0 0 2373 0 1
gene 1 132 188 0.0 0 2374 0 1
gene 2 132 189 0.0 0 2375 0 1
gene 3 132 190 0.0 0 2376 0 1
gene 1 133 173 0.0 0 2377 0 1
gene 2 133 174 0.0 0 2378 0 1
gene 3 133 175 0.0 0 2379 0 1
gene 1 133 176 0.0 0 2380 0 1
gene 2 133 177 0.0 0 2381 0 1
gene 3 133 178 0.0 0 2382 0 1
gene 1 133 179 0.0 0 2383 0 1
gene 2 133 180 0.0 0 2384 0 1
gene 3 133 181 0.0 0 2385 0 1
gene 1 133 182 0.0 0 2386 0 1
gene 2 133 183 0.0 0 2387 0 1
gene 3 133 184 0.0 0 2388 0 1
gene 1 133 185 0.0 0 2389 0 1
gene 2 133 186 0.0 0 2390 0 1
gene 3 133 187 0.0 0 2391 0 1
gene 1 133 188 0.0 0 2392 0 1
gene 2 133 189 0.0 0 2393 0 1
gene 3 133 190 0.0 0 2394 0 1
gene 1 134 173 0.0 0 2395 0 1
gene 2 134 174 0.0 0 2396 0 1
gene 3 134 175 0.0 0 2397 0 1
gene 1 134 176 0.0 0 2398 0 1
gene 2 134 177 0.0 0 2399 0 1
gene 3 134 178 0.0 0 2400 0 1
gene 1 134 179 0.0 0 2401 0 1
gene 2 134 180 0.0 0 2402 0 1
gene 3 134 181 0.0 0 2403 0 1
gene 1 134 182 0.0 0 2404 0 1
gene 2 134 183 0.0 0 2405 0 1
gene 3 134 184 0.0 0 2406 0 1
gene 1 134 185 0.0 0 2407 0 1
gene 2 134 186 0.0 0 2408 0 1
gene 3 134 187 0.0 0 2409 0 1
gene 1 134 188 0.0 0 2410 0 1
gene 2 134 189 0.0 0 2411 0 1
gene 3 134 190 0.0 0 2412 0 1
gene 1 135 173 0.0 0 2413 0 1
gene 2 135 174 0.0 0 2414 0 1
gene 3 135 175 0.0 0 2415 0 1
gene 1 135 176 0.0 0 2416 0 1
gene 2 135 177 0.0 0 2417 0 1
gene 3 135 178 0.0 0 2418 0 1
gene 1 135 179 0.0 0 2419 0 1
gene 2 135 180 0.0 0 2420 0 1
gene 3 135 181 0.0 0 2421 0 1
gene 1 135 182 0.0 0 2422 0 1
gene 2 135 183 0.0 0 2423 0 1
gene 3 135 184 0.0 0 2424 0 1
gene 1 135 185 0.0 0 2425 0 1
gene 2 135 186 0.0 0 2426 0 1
gene 3 135 187 0.0 0 2427 0 1
gene 1 135 188 0.0 0 2428 0 1
gene 2 135 189 0.0 0 2429 0 1
gene 3 135 190 0.0 0 2430 0 1
gene 1 136 173 0.0 0 2431 0 1
gene 2 136 174 0.0 0 2432 0 1
gene 3 136 175 0.0 0 2433 0 1
gene 1 136 176 0.0 0 2434 0 1
gene 2 136 177 0.0 0 2435 0 1
gene 3 136 178 0.0 0 2436 0 1
gene 1 136 179 0.0 0 2437 0 1
gene 2 136 180 0.0 0 2438 0 1
gene 3 136 181 0.0 0 2439 0 1
gene 1 136 182 0.0 0 2440 0 1
gene 2 136 183 0.0 0 2441 0 1
gene 3 136 184 0.0 0 2442 0 1
gene 1 136 185 0.0 0 2443 0 1
gene 2 136 186 0.0 0 2444 0 1
gene 3 136 187 0.0 0 2445 0 1
gene 1 136 188 0.0 0 2446 0 1
gene 2 136 189 0.0 0 2447 0 1
gene 3 136 190 0.0 0 2448 0 1
gene 1 137 173 0.0 0 2449 0 1
gene 2 137 174 0.0 0 2450 0 1
gene 3 137 175 0.0 0 2451 0 1
gene 1 137 176 0.0 0 2452 0 1
gene 2 137 177 0.0 0 2453 0 1
gene 3 137 178 0.0 0 2454 0 1
gene 1 137 179 0.0 0 2455 0 1
gene 2 137 180 0.0 0 2456 0 1
gene 3 137 181 0.0 0 2457 0 1
gene 1 137 182 0.0 0 2458 0 1
gene 2 137 183 0.0 0 2459 0 1
gene 3 137 184 0.0 0 2460 0 1
gene 1 137 185 0.0 0 2461 0 1
gene 2 137 186 0.0 0 2462 0 1
gene 3 137 187 0.0 0 2463 0 1
gene 1 137 188 0.0 0 2464 0 1
gene 2 137 189 0.0 0 2465 0 1
gene 3 137 190 0.0 0 2466 0 1
gene 1 138 173 0.0 0 2467 0 1
gene 2 138 174 0.0 0 2468 0 1
gene 3 138 175 0.0 0 2469 0 1
gene 1 138 176 0.0 0 2470 0 1
gene 2 138 177 0.0 0 2471 0 1
gene 3 138 178 0.0 0 2472 0 1
gene 1 138 179 0.0 0 2473 0 1
gene 2 138 180 0.0 0 2474 0 1
gene 3 138 181 0.0 0 2475 0 1
gene 1 138 182 0.0 0 2476 0 1
gene 2 138 183 0.0 0 2477 0 1
gene 3 138 184 0.0 0 2478 0 1
gene 1 138 185 0.0 0 2479 0 1
gene 2 138 186 0.0 0 2480 0 1
gene 3 138 187 0.0 0 2481 0 1
gene 1 138 188 0.0 0 2482 0 1
gene 2 138 189 0.0 0 2483 0 1
gene 3 138 190 0.0 0 2484 0 1
gene 1 139 173 0.0 0 2485 0 1
gene 2 139 174 0.0 0 2486 0 1
gene 3 139 175 0.0 0 2487 0 1
gene 1 139 176 0.0 0 2488 0 1
gene 2 139 177 0.0 0 2489 0 1
gene 3 139 178 0.0 0 2490 0 1
gene 1 139 179 0.0 0 2491 0 1
gene 2 139 180 0.0 0 2492 0 1
gene 3 139 181 0.0 0 2493 0 1
gene 1 139 182 0.0 0 2494 0 1
gene 2 139 183 0.0 0 2495 0 1
gene 3 139 184 0.0 0 2496 0 1
gene 1 139 185 0.0 0 2497 0 1
gene 2 139 186 0.0 0 2498 0 1
gene 3 139 187 0.0 0 2499 0 1
gene 1 139 188 0.0 0 2500 0 1
gene 2 139 189 0.0 0 2501 0 1
gene 3 139 190 0.0 0 2502 0 1
gene 1 140 173 0.0 0 2503 0 1
gene 2 140 174 0.0 0 2504 0 1
gene 3 140 175 0.0 0 2505 0 1
gene 1 140 176 0.0 0 2506 0 1
gene 2 140 177 0.0 0 2507 0 1
gene 3 140 178 0.0 0 2508 0 1
gene 1 140 179 0.0 0 2509 0 1
gene 2 140 180 0.0 0 2510 0 1
gene 3 140 181 0.0 0 2511 0 1
gene 1 140 182 0.0 0 2512 0 1
gene 2 140 183 0.0 0 2513 0 1
gene 3 140 184 0.0 0 2514 0 1
gene 1 140 185 0.0 0 2515 0 1
gene 2 140 186 0.0 0 2516 0 1
gene 3 140 187 0.0 0 2517 0 1
gene 1 140 188 0.0 0 2518 0 1
gene 2 140 189 0.0 0 2519 0 1
gene 3 140 190 0.0 0 2520 0 1
gene 1 141 173 0.0 0 2521 0 1
gene 2 141 174 0.0 0 2522 0 1
gene 3 141 175 0.0 0 2523 0 1
gene 1 141 176 0.0 0 2524 0 1
gene 2 141 177 0.0 0 2525 0 1
gene 3 141 178 0.0 0 2526 0 1
gene 1 141 179 0.0 0 2527 0 1
gene 2 141 180 0.0 0 2528 0 1
gene 3 141 181 0.0 0 2529 0 1
gene 1 141 182 0.0 0 2530 0 1
gene 2 141 183 0.0 0 2531 0 1
gene 3 141 184 0.0 0 2532 0 1
gene 1 141 185 0.0 0 2533 0 1
gene 2 141 186 0.0 0 2534 0 1
gene 3 141 187 0.0 0 2535 0 1
gene 1 141 188 0.0 0 2536 0 1
gene 2 141 189 0.0 0 2537 0 1
gene 3 141 190 0.0 0 2538 0 1
gene 1 142 173 0.0 0 2539 0 1
gene 2 142 174 0.0 0 2540 0 1
gene 3 142 175 0.0 0 2541 0 1
gene 1 142 176 0.0 0 2542 0 1
gene 2 142 177 0.0 0 2543 0 1
gene 3 142 178 0.0 0 2544 0 1
gene 1 142 179 0.0 0 2545 0 1
gene 2 142 180 0.0 0 2546 0 1
gene 3 142 181 0.0 0 2547 0 1
gene 1 142 182 0.0 0 2548 0 1
gene 2 142 183 0.0 0 2549 0 1
gene 3 142 184 0.0 0 2550 0 1
gene 1 142 185 0.0 0 2551 0 1
gene 2 142 186 0.0 0 2552 0 1
gene 3 142 187 0.0 0 2553 0 1
gene 1 142 188 0.0 0 2554 0 1
gene 2 142 189 0.0 0 2555 0 1
gene 3 142 190 0.0 0 2556 0 1
gene 1 143 173 0.0 0 2557 0 1
gene 2 143 174 0.0 0 2558 0 1
gene 3 143 175 0.0 0 2559 0 1
gene 1 143 176 0.0 0 2560 0 1
gene 2 143 177 0.0 0 2561 0 1
gene 3 143 178 0.0 0 2562 0 1
gene 1 143 179 0.0 0 2563 0 1
gene 2 143 180 0.0 0 2564 0 1
gene 3 143 181 0.0 0 2565 0 1
gene 1 143 182 0.0 0 2566 0 1
gene 2 143 183 0.0 0 2567 0 1
gene 3 143 184 0.0 0 2568 0 1
gene 1 143 185 0.0 0 2569 0 1
gene 2 143 186 0.0 0 2570 0 1
gene 3 143 187 0.0 0 2571 0 1
gene 1 143 188 0.0 0 2572 0 1
gene 2 143 189 0.0 0 2573 0 1
gene 3 143 190 0.0 0 2574 0 1
gene 1 144 173 0.0 0 2575 0 1
gene 2 144 174 0.0 0 2576 0 1
gene 3 144 175 0.0 0 2577 0 1
gene 1 144 176 0.0 0 2578 0 1
gene 2 144 177 0.0 0 2579 0 1
gene 3 144 178 0.0 0 2580 0 1
gene 1 144 179 0.0 0 2581 0 1
gene 2 144 180 0.0 0 2582 0 1
gene 3 144 181 0.0 0 2583 0 1
gene 1 144 182 0.0 0 2584 0 1
gene 2 144 183 0.0 0 2585 0 1
gene 3 144 184 0.0 0 2586 0 1
gene 1 144 185 0.0 0 2587 0 1
gene 2 144 186 0.0 0 2588 0 1
gene 3 144 187 0.0 0 2589 0 1
gene 1 144 188 0.0 0 2590 0 1
gene 2 144 189 0.0 0 2591 0 1
gene 3 144 190 0.0 0 2592 0 1
gene 1 145 173 0.0 0 2593 0 1
gene 2 145 174 0.0 0 2594 0 1
gene 3 145 175 0.0 0 2595 0 1
gene 1 145 176 0.0 0 2596 0 1
gene 2 145 177 0.0 0 2597 0 1
gene 3 145 178 0.0 0 2598 0 1
gene 1 145 179 0.0 0 2599 0 1
gene 2 145 180 0.0 0 2600 0 1
gene 3 145 181 0.0 0 2601 0 1
gene 1 145 182 0.0 0 2602 0 1
gene 2 145 183 0.0 0 2603 0 1
gene 3 145 184 0.0 0 2604 0 1
gene 1 145 185 0.0 0 2605 0 1
gene 2 145 186 0.0 0 2606 0 1
gene 3 145 187 0.0 0 2607 0 1
gene 1 145 188 0.0 0 2608 0 1
gene 2 145 189 0.0 0 2609 0 1
gene 3 145 190 0.0 0 2610 0 1
gene 1 146 173 0.0 0 2611 0 1
gene 2 146 174 0.0 0 2612 0 1
gene 3 146 175 0.0 0 2613 0 1
gene 1 146 176 0.0 0 2614 0 1
gene 2 146 177 0.0 0 2615 0 1
gene 3 146 178 0.0 0 2616 0 1
gene 1 146 179 0.0 0 2617 0 1
gene 2 146 180 0.0 0 2618 0 1
gene 3 146 181 0.0 0 2619 0 1
gene 1 146 182 0.0 0 2620 0 1
gene 2 146 183 0.0 0 2621 0 1
gene 3 146 184 0.0 0 2622 0 1
gene 1 146 185 0.0 0 2623 0 1
gene 2 146 186 0.0 0 2624 0 1
gene 3 146 187 0.0 0 2625 0 1
gene 1 146 188 0.0 0 2626 0 1
gene 2 146 189 0.0 0 2627 0 1
gene 3 146 190 0.0 0 2628 0 1
gene 1 147 173 0.0 0 2629 0 1
gene 2 147 174 0.0 0 2630 0 1
gene 3 147 175 0.0 0 2631 0 1
gene 1 147 176 0.0 0 2632 0 1
gene 2 147 177 0.0 0 2633 0 1
gene 3 147 178 0.0 0 2634 0 1
gene 1 147 179 0.0 0 2635 0 1
gene 2 147 180 0.0 0 2636 0 1
gene 3 147 181 0.0 0 2637 0 1
gene 1 147 182 0.0 0 2638 0 1
gene 2 147 183 0.0 0 2639 0 1
gene 3 147 184 0.0 0 2640 0 1
gene 1 147 185 0.0 0 2641 0 1
gene 2 147 186 0.0 0 2642 0 1
gene 3 147 187 0.0 0 2643 0 1
gene 1 147 188 0.0 0 2644 0 1
gene 2 147 189 0.0 0 2645 0 1
gene 3 147 190 0.0 0 2646 0 1
gene 1 148 173 0.0 0 2647 0 1
gene 2 148 174 0.0 0 2648 0 1
gene 3 148 175 0.0 0 2649 0 1
gene 1 148 176 0.0 0 2650 0 1
gene 2 148 177 0.0 0 2651 0 1
gene 3 148 178 0.0 0 2652 0 1
gene 1 148 179 0.0 0 2653 0 1
gene 2 148 180 0.0 0 2654 0 1
gene 3 148 181 0.0 0 2655 0 1
gene 1 148 182 0.0 0 2656 0 1
gene 2 148 183 0.0 0 2657 0 1
gene 3 148 184 0.0 0 2658 0 1
gene 1 148 185 0.0 0 2659 0 1
gene 2 148 186 0.0 0 2660 0 1
gene 3 148 187 0.0 0 2661 0 1
gene 1 148 188 0.0 0 2662 0 1
gene 2 148 189 0.0 0 2663 0 1
gene 3 148 190 0.0 0 2664 0 1
gene 1 149 173 0.0 0 2665 0 1
gene 2 149 174 0.0 0 2666 0 1
gene 3 149 175 0.0 0 2667 0 1
gene 1 149 176 0.0 0 2668 0 1
gene 2 149 177 0.0 0 2669 0 1
gene 3 149 178 0.0 0 2670 0 1
gene 1 149 179 0.0 0 2671 0 1
gene 2 149 180 0.0 0 2672 0 1
gene 3 149 181 0.0 0 2673 0 1
gene 1 149 182 0.0 0 2674 0 1
gene 2 149 183 0.0 0 2675 0 1
gene 3 149 184 0.0 0 2676 0 1
gene 1 149 185 0.0 0 2677 0 1
gene 2 149 186 0.0 0 2678 0 1
gene 3 149 187 0.0 0 2679 0 1
gene 1 149 188 0.0 0 2680 0 1
gene 2 149 189 0.0 0 2681 0 1
gene 3 149 190 0.0 0 2682 0 1
gene 1 150 173 0.0 0 2683 0 1
gene 2 150 174 0.0 0 2684 0 1
gene 3 150 175 0.0 0 2685 0 1
gene 1 150 176 0.0 0 2686 0 1
gene 2 150 177 0.0 0 2687 0 1
gene 3 150 178 0.0 0 2688 0 1
gene 1 150 179 0.0 0 2689 0 1
gene 2 150 180 0.0 0 2690 0 1
gene 3 150 181 0.0 0 2691 0 1
gene 1 150 182 0.0 0 2692 0 1
gene 2 150 183 0.0 0 2693 0 1
gene 3 150 184 0.0 0 2694 0 1
gene 1 150 185 0.0 0 2695 0 1
gene 2 150 186 0.0 0 2696 0 1
gene 3 150 187 0.0 0 2697 0 1
gene 1 150 188 0.0 0 2698 0 1
gene 2 150 189 0.0 0 2699 0 1
gene 3 150 190 0.0 0 2700 0 1
gene 1 151 173 0.0 0 2701 0 1
gene 2 151 174 0.0 0 2702 0 1
gene 3 151 175 0.0 0 2703 0 1
gene 1 151 176 0.0 0 2704 0 1
gene 2 151 177 0.0 0 2705 0 1
gene 3 151 178 0.0 0 2706 0 1
gene 1 151 179 0.0 0 2707 0 1
gene 2 151 180 0.0 0 2708 0 1
gene 3 151 181 0.0 0 2709 0 1
gene 1 151 182 0.0 0 2710 0 1
gene 2 151 183 0.0 0 2711 0 1
gene 3 151 184 0.0 0 2712 0 1
gene 1 151 185 0.0 0 2713 0 1
gene 2 151 186 0.0 0 2714 0 1
gene 3 151 187 0.0 0 2715 0 1
gene 1 151 188 0.0 0 2716 0 1
gene 2 151 189 0.0 0 2717 0 1
gene 3 151 190 0.0 0 2718 0 1
gene 1 152 173 0.0 0 2719 0 1
gene 2 152 174 0.0 0 2720 0 1
gene 3 152 175 0.0 0 2721 0 1
gene 1 152 176 0.0 0 2722 0 1
gene 2 152 177 0.0 0 2723 0 1
gene 3 152 178 0.0 0 2724 0 1
gene 1 152 179 0.0 0 2725 0 1
gene 2 152 180 0.0 0 2726 0 1
gene 3 152 181 0.0 0 2727 0 1
gene 1 152 182 0.0 0 2728 0 1
gene 2 152 183 0.0 0 2729 0 1
gene 3 152 184 0.0 0 2730 0 1
gene 1 152 185 0.0 0 2731 0 1
gene 2 152 186 0.0 0 2732 0 1
gene 3 152 187 0.0 0 2733 0 1
gene 1 152 188 0.0 0 2734 0 1
gene 2 152 189 0.0 0 2735 0 1
gene 3 152 190 0.0 0 2736 0 1
gene 1 153 173 0.0 0 2737 0 1
gene 2 153 174 0.0 0 2738 0 1
gene 3 153 175 0.0 0 2739 0 1
gene 1 153 176 0.0 0 2740 0 1
gene 2 153 177 0.0 0 2741 0 1
gene 3 153 178 0.0 0 2742 0 1
gene 1 153 179 0.0 0 2743 0 1
gene 2 153 180 0.0 0 2744 0 1
gene 3 153 181 0.0 0 2745 0 1
gene 1 153 182 0.0 0 2746 0 1
gene 2 153 183 0.0 0 2747 0 1
gene 3 153 184 0.0 0 2748 0 1
gene 1 153 185 0.0 0 2749 0 1
gene 2 153 186 0.0 0 2750 0 1
gene 3 153 187 0.0 0 2751 0 1
gene 1 153 188 0.0 0 2752 0 1
gene 2 153 189 0.0 0 2753 0 1
gene 3 153 190 0.0 0 2754 0 1
gene 1 154 173 0.0 0 2755 0 1
gene 2 154 174 0.0 0 2756 0 1
gene 3 154 175 0.0 0 2757 0 1
gene 1 154 176 0.0 0 2758 0 1
gene 2 154 177 0.0 0 2759 0 1
gene 3 154 178 0.0 0 2760 0 1
gene 1 154 179 0.0 0 2761 0 1
gene 2 154 180 0.0 0 2762 0 1
gene 3 154 181 0.0 0 2763 0 1
gene 1 154 182 0.0 0 2764 0 1
gene 2 154 183 0.0 0 2765 0 1
gene 3 154 184 0.0 0 2766 0 1
gene 1 154 185 0.0 0 2767 0 1
gene 2 154 186 0.0 0 2768 0 1
gene 3 154 187 0.0 0 2769 0 1
gene 1 154 188 0.0 0 2770 0 1
gene 2 154 189 0.0 0 2771 0 1
gene 3 154 190 0.0 0 2772 0 1
gene 1 155 173 0.0 0 2773 0 1
gene 2 155 174 0.0 0 2774 0 1
gene 3 155 175 0.0 0 2775 0 1
gene 1 155 176 0.0 0 2776 0 1
gene 2 155 177 0.0 0 2777 0 1
gene 3 155 178 0.0 0 2778 0 1
gene 1 155 179 0.0 0 2779 0 1
gene 2 155 180 0.0 0 2780 0 1
gene 3 155 181 0.0 0 2781 0 1
gene 1 155 182 0.0 0 2782 0 1
gene 2 155 183 0.0 0 2783 0 1
gene 3 155 184 0.0 0 2784 0 1
gene 1 155 185 0.0 0 2785 0 1
gene 2 155 186 0.0 0 2786 0 1
gene 3 155 187 0.0 0 2787 0 1
gene 1 155 188 0.0 0 2788 0 1
gene 2 155 189 0.0 0 2789 0 1
gene 3 155 190 0.0 0 2790 0 1
gene 1 156 173 0.0 0 2791 0 1
gene 2 156 174 0.0 0 2792 0 1
gene 3 156 175 0.0 0 2793 0 1
gene 1 156 176 0.0 0 2794 0 1
gene 2 156 177 0.0 0 2795 0 1
gene 3 156 178 0.0 0 2796 0 1
gene 1 156 179 0.0 0 2797 0 1
gene 2 156 180 0.0 0 2798 0 1
gene 3 156 181 0.0 0 2799 0 1
gene 1 156 182 0.0 0 2800 0 1
gene 2 156 183 0.0 0 2801 0 1
gene 3 156 184 0.0 0 2802 0 1
gene 1 156 185 0.0 0 2803 0 1
gene 2 156 186 0.0 0 2804 0 1
gene 3 156 187 0.0 0 2805 0 1
gene 1 156 188 0.0 0 2806 0 1
gene 2 156 189 0.0 0 2807 0 1
gene 3 156 190 0.0 0 2808 0 1
gene 1 157 173 0.0 0 2809 0 1
gene 2 157 174 0.0 0 2810 0 1
gene 3 157 175 0.0 0 2811 0 1
gene 1 157 176 0.0 0 2812 0 1
gene 2 157 177 0.0 0 2813 0 1
gene 3 157 178 0.0 0 2814 0 1
gene 1 157 179 0.0 0 2815 0 1
gene 2 157 180 0.0 0 2816 0 1
gene 3 157 181 0.0 0 2817 0 1
gene 1 157 182 0.0 0 2818 0 1
gene 2 157 183 0.0 0 2819 0 1
gene 3 157 184 0.0 0 2820 0 1
gene 1 157 185 0.0 0 2821 0 1
gene 2 157 186 0.0 0 2822 0 1
gene 3 157 187 0.0 0 2823 0 1
gene 1 157 188 0.0 0 2824 0 1
gene 2 157 189 0.0 0 2825 0 1
gene 3 157 190 0.0 0 2826 0 1
gene 1 158 173 0.0 0 2827 0 1
gene 2 158 174 0.0 0 2828 0 1
gene 3 158 175 0.0 0 2829 0 1
gene 1 158 176 0.0 0 2830 0 1
gene 2 158 177 0.0 0 2831 0 1
gene 3 158 178 0.0 0 2832 0 1
gene 1 158 179 0.0 0 2833 0 1
gene 2 158 180 0.0 0 2834 0 1
gene 3 158 181 0.0 0 2835 0 1
gene 1 158 182 0.0 0 2836 0 1
gene 2 158 183 0.0 0 2837 0 1
gene 3 158 184 0.0 0 2838 0 1
gene 1 158 185 0.0 0 2839 0 1
gene 2 158 186 0.0 0 2840 0 1
gene 3 158 187 0.0 0 2841 0 1
gene 1 158 188 0.0 0 2842 0 1
gene 2 158 189 0.0 0 2843 0 1
gene 3 158 190 0.0 0 2844 0 1
gene 1 159 173 0.0 0 2845 0 1
gene 2 159 174 0.0 0 2846 0 1
gene 3 159 175 0.0 0 2847 0 1
gene 1 159 176 0.0 0 2848 0 1
gene 2 159 177 0.0 0 2849 0 1
gene 3 159 178 0.0 0 2850 0 1
gene 1 159 179 0.0 0 2851 0 1
gene 2 159 180 0.0 0 2852 0 1
gene 3 159 181 0.0 0 2853 0 1
gene 1 159 182 0.0 0 2854 0 1
gene 2 159 183 0.0 0 2855 0 1
gene 3 159 184 0.0 0 2856 0 1
gene 1 159 185 0.0 0 2857 0 1
gene 2 159 186 0.0 0 2858 0 1
gene 3 159 187 0.0 0 2859 0 1
gene 1 159 188 0.0 0 2860 0 1
gene 2 159 189 0.0 0 2861 0 1
gene 3 159 190 0.0 0 2862 0 1
gene 1 160 173 0.0 0 2863 0 1
gene 2 160 174 0.0 0 2864 0 1
gene 3 160 175 0.0 0 2865 0 1
gene 1 160 176 0.0 0 2866 0 1
gene 2 160 177 0.0 0 2867 0 1
gene 3 160 178 0.0 0 2868 0 1
gene 1 160 179 0.0 0 2869 0 1
gene 2 160 180 0.0 0 2870 0 1
gene 3 160 181 0.0 0 2871 0 1
gene 1 160 182 0.0 0 2872 0 1
gene 2 160 183 0.0 0 2873 0 1
gene 3 160 184 0.0 0 2874 0 1
gene 1 160 185 0.0 0 2875 0 1
gene 2 160 186 0.0 0 2876 0 1
gene 3 160 187 0.0 0 2877 0 1
gene 1 160 188 0.0 0 2878 0 1
gene 2 160 189 0.0 0 2879 0 1
gene 3 160 190 0.0 0 2880 0 1
gene 1 161 173 0.0 0 2881 0 1
gene 2 161 174 0.0 0 2882 0 1
gene 3 161 175 0.0 0 2883 0 1
gene 1 161 176 0.0 0 2884 0 1
gene 2 161 177 0.0 0 2885 0 1
gene 3 161 178 0.0 0 2886 0 1
gene 1 161 179 0.0 0 2887 0 1
gene 2 161 180 0.0 0 2888 0 1
gene 3 161 181 0.0 0 2889 0 1
gene 1 161 182 0.0 0 2890 0 1
gene 2 161 183 0.0 0 2891 0 1
gene 3 161 184 0.0 0 2892 0 1
gene 1 161 185 0.0 0 2893 0 1
gene 2 161 186 0.0 0 2894 0 1
gene 3 161 187 0.0 0 2895 0 1
gene 1 161 188 0.0 0 2896 0 1
gene 2 161 189 0.0 0 2897 0 1
gene 3 161 190 0.0 0 2898 0 1
gene 1 162 173 0.0 0 2899 0 1
gene 2 162 174 0.0 0 2900 0 1
gene 3 162 175 0.0 0 2901 0 1
gene 1 162 176 0.0 0 2902 0 1
gene 2 162 177 0.0 0 2903 0 1
gene 3 162 178 0.0 0 2904 0 1
gene 1 162 179 0.0 0 2905 0 1
gene 2 162 180 0.0 0 2906 0 1
gene 3 162 181 0.0 0 2907 0 1
gene 1 162 182 0.0 0 2908 0 1
gene 2 162 183 0.0 0 2909 0 1
gene 3 162 184 0.0 0 2910 0 1
gene 1 162 185 0.0 0 2911 0 1
gene 2 162 186 0.0 0 2912 0 1
gene 3 162 187 0.0 0 2913 0 1
gene 1 162 188 0.0 0 2914 0 1
gene 2 162 189 0.0 0 2915 0 1
gene 3 162 190 0.0 0 2916 0 1
gene 1 163 173 0.0 0 2917 0 1
gene 2 163 174 0.0 0 2918 0 1
gene 3 163 175 0.0 0 2919 0 1
gene 1 163 176 0.0 0 2920 0 1
gene 2 163 177 0.0 0 2921 0 1
gene 3 163 178 0.0 0 2922 0 1
gene 1 163 179 0.0 0 2923 0 1
gene 2 163 180 0.0 0 2924 0 1
gene 3 163 181 0.0 0 2925 0 1
gene 1 163 182 0.0 0 2926 0 1
gene 2 163 183 0.0 0 2927 0 1
gene 3 163 184 0.0 0 2928 0 1
gene 1 163 185 0.0 0 2929 0 1
gene 2 163 186 0.0 0 2930 0 1
gene 3 163 187 0.0 0 2931 0 1
gene 1 163 188 0.0 0 2932 0 1
gene 2 163 189 0.0 0 2933 0 1
gene 3 163 190 0.0 0 2934 0 1
gene 1 164 173 0.0 0 2935 0 1
gene 2 164 174 0.0 0 2936 0 1
gene 3 164 175 0.0 0 2937 0 1
gene 1 164 176 0.0 0 2938 0 1
gene 2 164 177 0.0 0 2939 0 1
gene 3 164 178 0.0 0 2940 0 1
gene 1 164 179 0.0 0 2941 0 1
gene 2 164 180 0.0 0 2942 0 1
gene 3 164 181 0.0 0 2943 0 1
gene 1 164 182 0.0 0 2944 0 1
gene 2 164 183 0.0 0 2945 0 1
gene 3 164 184 0.0 0 2946 0 1
gene 1 164 185 0.0 0 2947 0 1
gene 2 164 186 0.0 0 2948 0 1
gene 3 164 187 0.0 0 2949 0 1
gene 1 164 188 0.0 0 2950 0 1
gene 2 164 189 0.0 0 2951 0 1
gene 3 164 190 0.0 0 2952 0 1
gene 1 165 173 0.0 0 2953 0 1
gene 2 165 174 0.0 0 2954 0 1
gene 3 165 175 0.0 0 2955 0 1
gene 1 165 176 0.0 0 2956 0 1
gene 2 165 177 0.0 0 2957 0 1
gene 3 165 178 0.0 0 2958 0 1
gene 1 165 179 0.0 0 2959 0 1
gene 2 165 180 0.0 0 2960 0 1
gene 3 165 181 0.0 0 2961 0 1
gene 1 165 182 0.0 0 2962 0 1
gene 2 165 183 0.0 0 2963 0 1
gene 3 165 184 0.0 0 2964 0 1
gene 1 165 185 0.0 0 2965 0 1
gene 2 165 186 0.0 0 2966 0 1
gene 3 165 187 0.0 0 2967 0 1
gene 1 165 188 0.0 0 2968 0 1
gene 2 165 189 0.0 0 2969 0 1
gene 3 165 190 0.0 0 2970 0 1
gene 1 166 173 0.0 0 2971 0 1
gene 2 166 174 0.0 0 2972 0 1
gene 3 166 175 0.0 0 2973 0 1
gene 1 166 176 0.0 0 2974 0 1
gene 2 166 177 0.0 0 2975 0 1
gene 3 166 178 0.0 0 2976 0 1
gene 1 166 179 0.0 0 2977 0 1
gene 2 166 180 0.0 0 2978 0 1
gene 3 166 181 0.0 0 2979 0 1
gene 1 166 182 0.0 0 2980 0 1
gene 2 166 183 0.0 0 2981 0 1
gene 3 166 184 0.0 0 2982 0 1
gene 1 166 185 0.0 0 2983 0 1
gene 2 166 186 0.0 0 2984 0 1
gene 3 166 187 0.0 0 2985 0 1
gene 1 166 188 0.0 0 2986 0 1
gene 2 166 189 0.0 0 2987 0 1
gene 3 166 190 0.0 0 2988 0 1
gene 1 167 173 0.0 0 2989 0 1
gene 2 167 174 0.0 0 2990 0 1
gene 3 167 175 0.0 0 2991 0 1
gene 1 167 176 0.0 0 2992 0 1
gene 2 167 177 0.0 0 2993 0 1
gene 3 167 178 0.0 0 2994 0 1
gene 1 167 179 0.0 0 2995 0 1
gene 2 167 180 0.0 0 2996 0 1
gene 3 167 181 0.0 0 2997 0 1
gene 1 167 182 0.0 0 2998 0 1
gene 2 167 183 0.0 0 2999 0 1
gene 3 167 184 0.0 0 3000 0 1
gene 1 167 185 0.0 0 3001 0 1
gene 2 167 186 0.0 0 3002 0 1
gene 3 167 187 0.0 0 3003 0 1
gene 1 167 188 0.0 0 3004 0 1
gene 2 167 189 0.0 0 3005 0 1
gene 3 167 190 0.0 0 3006 0 1
gene 1 168 173 0.0 0 3007 0 1
gene 2 168 174 0.0 0 3008 0 1
gene 3 168 175 0.0 0 3009 0 1
gene 1 168 176 0.0 0 3010 0 1
gene 2 168 177 0.0 0 3011 0 1
gene 3 168 178 0.0 0 3012 0 1
gene 1 168 179 0.0 0 3013 0 1
gene 2 168 180 0.0 0 3014 0 1
gene 3 168 181 0.0 0 3015 0 1
gene 1 168 182 0.0 0 3016 0 1
gene 2 168 183 0.0 0 3017 0 1
gene 3 168 184 0.0 0 3018 0 1
gene 1 168 185 0.0 0 3019 0 1
gene 2 168 186 0.0 0 3020 0 1
gene 3 168 187 0.0 0 3021 0 1
gene 1 168 188 0.0 0 3022 0 1
gene 2 168 189 0.0 0 3023 0 1
gene 3 168 190 0.0 0 3024 0 1
gene 1 169 173 0.0 0 3025 0 1
gene 2 169 174 0.0 0 3026 0 1
gene 3 169 175 0.0 0 3027 0 1
gene 1 169 176 0.0 0 3028 0 1
gene 2 169 177 0.0 0 3029 0 1
gene 3 169 178 0.0 0 3030 0 1
gene 1 169 179 0.0 0 3031 0 1
gene 2 169 180 0.0 0 3032 0 1
gene 3 169 181 0.0 0 3033 0 1
gene 1 169 182 0.0 0 3034 0 1
gene 2 169 183 0.0 0 3035 0 1
gene 3 169 184 0.0 0 3036 0 1
gene 1 169 185 0.0 0 3037 0 1
gene 2 169 186 0.0 0 3038 0 1
gene 3 169 187 0.0 0 3039 0 1
gene 1 169 188 0.0 0 3040 0 1
gene 2 169 189 0.0 0 3041 0 1
gene 3 169 190 0.0 0 3042 0 1
gene 1 170 173 0.0 0 3043 0 1
gene 2 170 174 0.0 0 3044 0 1
gene 3 170 175 0.0 0 3045 0 1
gene 1 170 176 0.0 0 3046 0 1
gene 2 170 177 0.0 0 3047 0 1
gene 3 170 178 0.0 0 3048 0 1
gene 1 170 179 0.0 0 3049 0 1
gene 2 170 180 0.0 0 3050 0 1
gene 3 170 181 0.0 0 3051 0 1
gene 1 170 182 0.0 0 3052 0 1
gene 2 170 183 0.0 0 3053 0 1
gene 3 170 184 0.0 0 3054 0 1
gene 1 170 185 0.0 0 3055 0 1
gene 2 170 186 0.0 0 3056 0 1
gene 3 170 187 0.0 0 3057 0 1
gene 1 170 188 0.0 0 3058 0 1
gene 2 170 189 0.0 0 3059 0 1
gene 3 170 190 0.0 0 3060 0 1
gene 1 171 173 0.0 0 3061 0 1
gene 2 171 174 0.0 0 3062 0 1
gene 3 171 175 0.0 0 3063 0 1
gene 1 171 176 0.0 0 3064 0 1
gene 2 171 177 0.0 0 3065 0 1
gene 3 171 178 0.0 0 3066 0 1
gene 1 171 179 0.0 0 3067 0 1
gene 2 171 180 0.0 0 3068 0 1
gene 3 171 181 0.0 0 3069 0 1
gene 1 171 182 0.0 0 3070 0 1
gene 2 171 183 0.0 0 3071 0 1
gene 3 171 184 0.0 0 3072 0 1
gene 1 171 185 0.0 0 3073 0 1
gene 2 171 186 0.0 0 3074 0 1
gene 3 171 187 0.0 0 3075 0 1
gene 1 171 188 0.0 0 3076 0 1
gene 2 171 189 0.0 0 3077 0 1
gene 3 171 190 0.0 0 3078 0 1
gene 1 172 173 0.0 0 3079 0 1
gene 2 172 174 0.0 0 3080 0 1
gene 3 172 175 0.0 0 3081 0 1
gene 1 172 176 0.0 0 3082 0 1
gene 2 172 177 0.0 0 3083 0 1
gene 3 172 178 0.0 0 3084 0 1
gene 1 172 179 0.0 0 3085 0 1
gene 2 172 180 0.0 0 3086 0 1
gene 3 172 181 0.0 0 3087 0 1
gene 1 172 182 0.0 0 3088 0 1
gene 2 172 183 0.0 0 3089 0 1
gene 3 172 184 0.0 0 3090 0 1
gene 1 172 185 0.0 0 3091 0 1
gene 2 172 186 0.0 0 3092 0 1
gene 3 172 187 0.0 0 3093 0 1
gene 1 172 188 0.0 0 3094 0 1
gene 2 172 189 0.0 0 3095 0 1
gene 3 172 190 0.0 0 3096 0 1
genomeend 1
