genomestart 77
trait 1 0.277739166158 0.45066354473 0.0 0.0 0.831448173485 0.0 0.389425424883 0.294726826064 
trait 2 0.228314064907 0.0 0.0107286270909 0.00741875915591 0.0 0.0 0.00875707107517 0.0 
trait 3 0.0 0.402103008362 0.324619710615 0.0137824702862 0.683330974834 0.558569854147 0.0 0.0 
node 1 1 1 3
node 2 1 1 1
node 3 3 1 1
node 4 2 1 1
node 5 2 1 1
node 6 2 1 1
node 7 3 1 1
node 8 3 1 1
node 9 1 1 1
node 10 3 1 1
node 11 3 1 1
node 12 2 1 1
node 13 2 1 1
node 14 1 1 1
node 15 3 1 1
node 16 3 1 1
node 17 2 1 1
node 18 3 1 1
node 19 2 1 1
node 20 1 1 1
node 21 3 1 1
node 22 3 1 1
node 23 3 1 1
node 24 1 1 1
node 25 3 1 1
node 26 3 1 1
node 27 3 1 1
node 28 2 1 1
node 29 1 1 1
node 30 1 1 1
node 31 1 1 1
node 32 1 1 1
node 33 1 1 1
node 34 3 1 1
node 35 3 1 1
node 36 2 1 1
node 37 1 1 1
node 38 1 1 1
node 39 3 1 1
node 40 3 1 1
node 41 1 1 1
node 42 3 1 1
node 43 1 1 1
node 44 3 1 1
node 45 2 1 1
node 46 1 1 1
node 47 2 1 1
node 48 2 1 1
node 49 1 1 1
node 50 3 1 1
node 51 3 1 1
node 52 1 1 1
node 53 3 1 1
node 54 3 1 1
node 55 2 1 1
node 56 1 1 1
node 57 2 1 1
node 58 3 1 1
node 59 2 1 1
node 60 2 1 1
node 61 1 1 1
node 62 2 1 1
node 63 1 1 1
node 64 3 1 1
node 65 3 1 1
node 66 2 1 1
node 67 3 1 1
node 68 2 1 1
node 69 2 1 1
node 70 2 1 1
node 71 2 1 1
node 72 1 1 1
node 73 3 1 1
node 74 1 1 1
node 75 1 1 1
node 76 3 1 1
node 77 1 1 1
node 78 3 1 1
node 79 3 1 1
node 80 1 1 1
node 81 2 1 1
node 82 3 1 1
node 83 1 1 1
node 84 1 1 1
node 85 3 1 1
node 86 2 1 1
node 87 3 1 1
node 88 3 1 1
node 89 2 1 1
node 90 1 1 1
node 91 2 1 1
node 92 3 1 1
node 93 1 1 1
node 94 3 1 1
node 95 1 1 1
node 96 2 1 1
node 97 1 1 1
node 98 2 1 1
node 99 1 1 1
node 100 2 1 1
node 101 1 1 1
node 102 1 1 1
node 103 1 1 1
node 104 1 1 1
node 105 1 1 1
node 106 2 1 1
node 107 3 1 1
node 108 3 1 1
node 109 2 1 1
node 110 2 1 1
node 111 1 1 1
node 112 2 1 1
node 113 3 1 1
node 114 3 1 1
node 115 3 1 1
node 116 2 1 1
node 117 3 1 1
node 118 1 1 1
node 119 1 1 1
node 120 3 1 1
node 121 2 1 1
node 122 2 1 1
node 123 1 1 1
node 124 3 1 1
node 125 2 1 1
node 126 3 1 1
node 127 1 1 1
node 128 2 1 1
node 129 1 1 1
node 130 3 1 1
node 131 2 1 1
node 132 2 1 1
node 133 1 1 1
node 134 2 1 1
node 135 1 1 1
node 136 3 1 1
node 137 2 1 1
node 138 3 1 1
node 139 2 1 1
node 140 2 1 1
node 141 1 1 1
node 142 3 1 1
node 143 2 1 1
node 144 3 1 1
node 145 1 1 1
node 146 2 1 1
node 147 3 1 1
node 148 2 1 1
node 149 3 1 1
node 150 2 1 1
node 151 1 1 1
node 152 3 1 1
node 153 1 1 1
node 154 2 1 1
node 155 3 1 1
node 156 3 1 1
node 157 1 1 1
node 158 2 1 1
node 159 2 1 1
node 160 1 1 1
node 161 1 1 1
node 162 1 1 1
node 163 3 1 1
node 164 2 1 1
node 165 2 1 1
node 166 1 1 1
node 167 1 1 1
node 168 1 1 1
node 169 1 1 1
node 170 3 1 1
node 171 2 1 1
node 172 1 1 1
node 173 3 0 2
node 174 3 0 2
node 175 1 0 2
node 176 3 0 2
node 177 3 0 2
node 178 3 0 2
node 179 2 0 2
node 180 2 0 2
node 181 3 0 2
node 182 2 0 2
node 183 1 0 2
node 184 1 0 2
node 185 3 0 2
node 186 3 0 2
node 187 3 0 2
node 188 1 0 2
node 189 3 0 2
node 190 3 0 2
node 241 1 0 0
node 339 1 0 0
gene 3 1 173 -1.36226540787 False 1.0 -1.36226540787 True
gene 1 1 174 3.56342477517 False 2.0 3.56342477517 True
gene 1 1 175 -1.97471941527 False 3.0 -1.97471941527 True
gene 1 1 176 -7.21010488906 False 4.0 -7.21010488906 True
gene 3 1 177 8.0 False 5.0 8.0 True
gene 3 1 178 6.3033497209 False 6.0 6.3033497209 True
gene 2 1 179 -3.68655960427 False 7.0 -3.68655960427 True
gene 2 1 180 1.97439454869 False 8.0 1.97439454869 True
gene 2 1 181 -0.701790395407 False 9.0 -0.701790395407 True
gene 1 1 182 1.97160258816 False 10.0 1.97160258816 True
gene 1 1 183 0.957184605994 False 11.0 0.957184605994 True
gene 1 1 184 3.45752195063 False 12.0 3.45752195063 True
gene 2 1 185 -0.511734451598 False 13.0 -0.511734451598 True
gene 3 1 186 5.1756331075 False 14.0 5.1756331075 True
gene 1 1 187 -0.945549740676 False 15.0 -0.945549740676 True
gene 2 1 188 0.47931485128 False 16.0 0.47931485128 True
gene 1 1 189 -1.43627815891 False 17.0 -1.43627815891 True
gene 2 1 190 4.28736919451 False 18.0 4.28736919451 True
gene 3 2 173 3.35964905549 False 19.0 3.35964905549 True
gene 1 2 174 5.19915813999 False 20.0 5.19915813999 True
gene 2 2 175 0.161946899149 False 21.0 0.161946899149 True
gene 1 2 176 -8.0 False 22.0 -8.0 True
gene 2 2 177 -7.52427941197 False 23.0 -7.52427941197 True
gene 1 2 178 2.75714107079 False 24.0 2.75714107079 True
gene 3 2 179 3.37591375542 False 25.0 3.37591375542 True
gene 2 2 180 8.0 False 26.0 8.0 True
gene 1 2 181 2.85354560765 False 27.0 2.85354560765 True
gene 2 2 182 6.02531292772 False 28.0 6.02531292772 True
gene 2 2 183 4.24872527332 False 29.0 4.24872527332 True
gene 3 2 184 0.654593827384 False 30.0 0.654593827384 True
gene 3 2 185 -2.42135305154 False 31.0 -2.42135305154 True
gene 1 2 186 3.4872246485 False 32.0 3.4872246485 True
gene 1 2 187 3.18793326668 False 33.0 3.18793326668 True
gene 2 2 188 -8.0 False 34.0 -8.0 True
gene 2 2 189 3.38464883976 False 35.0 3.38464883976 True
gene 3 2 190 -4.87594447579 False 36.0 -4.87594447579 True
gene 3 3 173 -5.25071916648 False 37.0 -5.25071916648 True
gene 2 3 174 3.25558275584 False 38.0 3.25558275584 True
gene 1 3 175 2.89059850861 False 39.0 2.89059850861 True
gene 2 3 176 -0.472890895599 False 40.0 -0.472890895599 True
gene 3 3 177 0.392680362604 False 41.0 0.392680362604 True
gene 3 3 178 -1.47119420423 False 42.0 -1.47119420423 True
gene 2 3 179 -1.7808886433 False 43.0 -1.7808886433 True
gene 2 3 180 3.62887594272 False 44.0 3.62887594272 True
gene 1 3 181 -3.29422011117 False 45.0 -3.29422011117 True
gene 2 3 182 4.58353276993 False 46.0 4.58353276993 True
gene 3 3 183 -6.82720354937 False 47.0 -6.82720354937 True
gene 1 3 184 -4.24991958335 False 48.0 -4.24991958335 True
gene 2 3 185 1.08351593915 False 49.0 1.08351593915 True
gene 3 3 186 4.90470722573 False 50.0 4.90470722573 True
gene 2 3 187 0.730586342291 False 51.0 0.730586342291 True
gene 3 3 188 -7.03269184943 False 52.0 -7.03269184943 True
gene 2 3 189 6.71990632005 False 53.0 6.71990632005 True
gene 2 3 190 -6.35108146306 False 54.0 -6.35108146306 True
gene 1 4 173 2.77339524038 False 55.0 2.77339524038 True
gene 3 4 174 -2.30158526391 False 56.0 -2.30158526391 True
gene 3 4 175 3.44003670891 False 57.0 3.44003670891 True
gene 2 4 176 -1.40327754836 False 58.0 -1.40327754836 True
gene 2 4 177 -5.69139555045 False 59.0 -5.69139555045 True
gene 1 4 178 -1.75273599196 False 60.0 -1.75273599196 True
gene 1 4 179 0.5400429182 False 61.0 0.5400429182 True
gene 2 4 180 -3.96913596058 False 62.0 -3.96913596058 True
gene 2 4 181 -4.39765326439 False 63.0 -4.39765326439 True
gene 2 4 182 -0.904129298823 False 64.0 -0.904129298823 True
gene 1 4 183 1.89318141804 False 65.0 1.89318141804 True
gene 1 4 184 -0.258604739378 False 66.0 -0.258604739378 True
gene 2 4 185 2.80600756117 False 67.0 2.80600756117 True
gene 2 4 186 -2.91774530229 False 68.0 -2.91774530229 True
gene 2 4 187 -5.77611797378 False 69.0 -5.77611797378 True
gene 1 4 188 -3.05208281524 False 70.0 -3.05208281524 True
gene 3 4 189 5.53612375832 False 71.0 5.53612375832 True
gene 2 4 190 1.5498402179 False 72.0 1.5498402179 True
gene 3 5 173 -1.39336749976 False 73.0 -1.39336749976 True
gene 3 5 174 3.61987709517 False 74.0 3.61987709517 True
gene 1 5 175 8.0 False 75.0 8.0 True
gene 2 5 176 1.20478602459 False 76.0 1.20478602459 True
gene 2 5 177 6.20378277469 False 77.0 6.20378277469 True
gene 2 5 178 -1.18516196695 False 78.0 -1.18516196695 True
gene 1 5 179 5.58728482403 False 79.0 5.58728482403 True
gene 2 5 180 -0.76554203899 False 80.0 -0.76554203899 True
gene 1 5 181 -4.85892488868 False 81.0 -4.85892488868 True
gene 3 5 182 -4.80854930344 False 82.0 -4.80854930344 True
gene 2 5 183 6.91722048966 False 83.0 6.91722048966 True
gene 2 5 184 -0.175541392019 False 84.0 -0.175541392019 True
gene 2 5 185 -0.67413080339 False 85.0 -0.67413080339 True
gene 1 5 186 -2.79607194388 False 86.0 -2.79607194388 True
gene 3 5 187 0.278996800335 False 87.0 0.278996800335 True
gene 3 5 188 2.81734086403 False 88.0 2.81734086403 True
gene 2 5 189 -3.39161050149 False 89.0 -3.39161050149 True
gene 2 5 190 1.1632029873 False 90.0 1.1632029873 True
gene 3 6 173 -6.81083971877 False 91.0 -6.81083971877 True
gene 1 6 174 0.466248569082 False 92.0 0.466248569082 True
gene 3 6 175 6.90200075279 False 93.0 6.90200075279 True
gene 1 6 176 7.26169936161 False 94.0 7.26169936161 True
gene 2 6 177 3.18901737207 False 95.0 3.18901737207 True
gene 2 6 178 1.0915988018 False 96.0 1.0915988018 True
gene 1 6 179 5.19325778974 False 97.0 5.19325778974 True
gene 3 6 180 4.94405190351 False 98.0 4.94405190351 True
gene 1 6 181 -5.95430771385 False 99.0 -5.95430771385 True
gene 3 6 182 0.903598503641 False 100.0 0.903598503641 True
gene 2 6 183 1.8043865196 False 101.0 1.8043865196 True
gene 1 6 184 -2.58527508222 False 102.0 -2.58527508222 True
gene 2 6 185 -5.89543593357 False 103.0 -5.89543593357 True
gene 1 6 186 -2.9209104447 False 104.0 -2.9209104447 True
gene 2 6 187 1.09528324767 False 105.0 1.09528324767 True
gene 3 6 188 3.11433574071 False 106.0 3.11433574071 True
gene 2 6 189 1.29298464671 False 107.0 1.29298464671 True
gene 3 6 190 -2.00737411352 False 108.0 -2.00737411352 True
gene 3 7 173 2.52824431073 False 109.0 2.52824431073 True
gene 1 7 174 -1.48078981976 False 110.0 -1.48078981976 True
gene 2 7 175 3.32396135719 False 111.0 3.32396135719 True
gene 2 7 176 3.23647524648 False 112.0 3.23647524648 True
gene 1 7 177 -3.13339171315 False 113.0 -3.13339171315 True
gene 2 7 178 -2.34975408047 False 114.0 -2.34975408047 True
gene 3 7 179 5.04985157488 False 115.0 5.04985157488 True
gene 3 7 180 4.33402179054 False 116.0 4.33402179054 True
gene 3 7 181 8.0 False 117.0 8.0 True
gene 3 7 182 -6.24664098747 False 118.0 -6.24664098747 True
gene 2 7 183 -4.73309170374 False 119.0 -4.73309170374 True
gene 1 7 184 -4.81212343929 False 120.0 -4.81212343929 True
gene 1 7 185 -0.258604438638 False 121.0 -0.258604438638 True
gene 3 7 186 8.0 False 122.0 8.0 True
gene 3 7 187 -4.70321848053 False 123.0 -4.70321848053 True
gene 2 7 188 5.30545190434 False 124.0 5.30545190434 True
gene 2 7 189 0.89659456229 False 125.0 0.89659456229 True
gene 2 7 190 6.76790750336 False 126.0 6.76790750336 True
gene 3 8 173 -1.71953447352 False 127.0 -1.71953447352 True
gene 3 8 174 -4.55716697952 False 128.0 -4.55716697952 True
gene 3 8 175 1.84329007911 False 129.0 1.84329007911 True
gene 1 8 176 0.793616409295 False 130.0 0.793616409295 True
gene 2 8 177 7.29496658978 False 131.0 7.29496658978 True
gene 3 8 178 0.779288811173 False 132.0 0.779288811173 True
gene 3 8 179 -8.0 False 133.0 -8.0 True
gene 1 8 180 -0.25061538371 False 134.0 -0.25061538371 True
gene 2 8 181 2.75795857732 False 135.0 2.75795857732 True
gene 2 8 182 -1.41147604946 False 136.0 -1.41147604946 True
gene 1 8 183 -2.49305027125 False 137.0 -2.49305027125 True
gene 3 8 184 3.08966942028 False 138.0 3.08966942028 True
gene 2 8 185 5.09329096769 False 139.0 5.09329096769 True
gene 1 8 186 -6.19979027975 False 140.0 -6.19979027975 True
gene 3 8 187 -4.75020013147 False 141.0 -4.75020013147 True
gene 1 8 188 -5.62036921258 False 142.0 -5.62036921258 True
gene 3 8 189 -2.00187480449 False 143.0 -2.00187480449 True
gene 2 8 190 -2.38477823255 False 144.0 -2.38477823255 True
gene 3 9 173 4.32815668404 False 145.0 4.32815668404 True
gene 1 9 174 3.14565926999 False 146.0 3.14565926999 True
gene 1 9 175 0.412456634937 False 147.0 0.412456634937 True
gene 2 9 176 -1.41548820737 False 148.0 -1.41548820737 True
gene 3 9 177 -5.95006830409 False 149.0 -5.95006830409 True
gene 3 9 178 -3.3986814355 False 150.0 -3.3986814355 True
gene 3 9 179 2.69673696954 False 151.0 2.69673696954 True
gene 3 9 180 1.31137715401 False 152.0 1.31137715401 True
gene 1 9 181 5.13896923866 False 153.0 5.13896923866 True
gene 3 9 182 0.26998385441 False 154.0 0.26998385441 True
gene 3 9 183 3.11338825529 False 155.0 3.11338825529 True
gene 1 9 184 -2.95043006343 False 156.0 -2.95043006343 True
gene 3 9 185 -1.40042846622 False 157.0 -1.40042846622 True
gene 3 9 186 -5.61115703865 False 158.0 -5.61115703865 True
gene 2 9 187 2.18576656088 False 159.0 2.18576656088 True
gene 2 9 188 -2.83705543337 False 160.0 -2.83705543337 True
gene 3 9 189 -5.67750560457 False 161.0 -5.67750560457 True
gene 1 9 190 0.831146909363 False 162.0 0.831146909363 True
gene 3 10 173 5.70683433491 False 163.0 5.70683433491 True
gene 2 10 174 1.63902226067 False 164.0 1.63902226067 True
gene 3 10 175 -4.08738004132 False 165.0 -4.08738004132 True
gene 2 10 176 -7.55375087713 False 166.0 -7.55375087713 True
gene 3 10 177 -0.599838340827 False 167.0 -0.599838340827 True
gene 3 10 178 -0.908443644354 False 168.0 -0.908443644354 True
gene 1 10 179 0.51203823962 False 169.0 0.51203823962 True
gene 3 10 180 1.37955321437 False 170.0 1.37955321437 True
gene 3 10 181 -8.0 False 171.0 -8.0 True
gene 3 10 182 2.51946761889 False 172.0 2.51946761889 True
gene 3 10 183 3.11154397391 False 173.0 3.11154397391 True
gene 1 10 184 -0.882651268609 False 174.0 -0.882651268609 True
gene 2 10 185 3.03651223189 False 175.0 3.03651223189 True
gene 3 10 186 -4.22936340932 False 176.0 -4.22936340932 True
gene 1 10 187 -3.0890474287 False 177.0 -3.0890474287 True
gene 1 10 188 0.765408022937 False 178.0 0.765408022937 True
gene 2 10 189 4.15526366202 False 179.0 4.15526366202 True
gene 3 10 190 1.15031989952 False 180.0 1.15031989952 True
gene 2 11 173 -2.48801885692 False 181.0 -2.48801885692 True
gene 2 11 174 1.00606856418 False 182.0 1.00606856418 True
gene 1 11 175 0.348877341529 False 183.0 0.348877341529 True
gene 3 11 176 4.26940068425 False 184.0 4.26940068425 True
gene 3 11 177 -2.79248174388 False 185.0 -2.79248174388 True
gene 1 11 178 -0.0199951625003 False 186.0 -0.0199951625003 True
gene 1 11 179 -0.273490357456 False 187.0 -0.273490357456 True
gene 1 11 180 0.607962897931 False 188.0 0.607962897931 True
gene 1 11 181 -3.95204804243 False 189.0 -3.95204804243 True
gene 3 11 182 2.85929562756 False 190.0 2.85929562756 True
gene 1 11 183 -2.61588409288 False 191.0 -2.61588409288 True
gene 1 11 184 -8.0 False 192.0 -8.0 True
gene 3 11 185 -8.0 False 193.0 -8.0 True
gene 3 11 186 3.69480955794 False 194.0 3.69480955794 True
gene 2 11 187 6.44727315095 False 195.0 6.44727315095 True
gene 2 11 188 -2.77332023202 False 196.0 -2.77332023202 True
gene 3 11 189 -7.9735491789 False 197.0 -7.9735491789 True
gene 3 11 190 5.0090147378 False 198.0 5.0090147378 True
gene 2 12 173 -0.11143335698 False 199.0 -0.11143335698 True
gene 3 12 174 -4.54067825446 False 200.0 -4.54067825446 True
gene 2 12 175 2.6897951643 False 201.0 2.6897951643 True
gene 2 12 176 -0.314679700035 False 202.0 -0.314679700035 True
gene 1 12 177 6.95909323366 False 203.0 6.95909323366 True
gene 2 12 178 2.87206791415 False 204.0 2.87206791415 True
gene 2 12 179 4.64016611909 False 205.0 4.64016611909 True
gene 2 12 180 4.09679775216 False 206.0 4.09679775216 True
gene 1 12 181 -5.11797526856 False 207.0 -5.11797526856 True
gene 1 12 182 -3.58946422875 False 208.0 -3.58946422875 True
gene 3 12 183 1.44416149422 False 209.0 1.44416149422 True
gene 3 12 184 -0.504692513771 False 210.0 -0.504692513771 True
gene 2 12 185 4.28418243914 False 211.0 4.28418243914 True
gene 2 12 186 -1.42968022671 False 212.0 -1.42968022671 True
gene 3 12 187 -0.0103887117122 False 213.0 -0.0103887117122 True
gene 2 12 188 4.2337167976 False 214.0 4.2337167976 True
gene 2 12 189 -5.23344071887 False 215.0 -5.23344071887 True
gene 1 12 190 -0.404657990172 False 216.0 -0.404657990172 True
gene 1 13 173 -6.06500820489 False 217.0 -6.06500820489 True
gene 1 13 174 -8.0 False 218.0 -8.0 True
gene 3 13 175 -4.70648245303 False 219.0 -4.70648245303 True
gene 2 13 176 5.2181205742 False 220.0 5.2181205742 True
gene 1 13 177 2.62723597828 False 221.0 2.62723597828 True
gene 1 13 178 -2.52374733026 False 222.0 -2.52374733026 True
gene 2 13 179 -7.30307885062 False 223.0 -7.30307885062 True
gene 2 13 180 -2.71187900798 False 224.0 -2.71187900798 True
gene 2 13 181 -7.80066875519 False 225.0 -7.80066875519 True
gene 3 13 182 -0.954680970697 False 226.0 -0.954680970697 True
gene 1 13 183 -2.38915220798 False 227.0 -2.38915220798 True
gene 1 13 184 -3.30537888833 False 228.0 -3.30537888833 True
gene 3 13 185 7.47034378703 False 229.0 7.47034378703 True
gene 1 13 186 -8.0 False 230.0 -8.0 True
gene 1 13 187 3.24097487991 False 231.0 3.24097487991 True
gene 1 13 188 -0.659322370369 False 232.0 -0.659322370369 True
gene 3 13 189 4.03028933098 False 233.0 4.03028933098 True
gene 1 13 190 8.0 False 234.0 8.0 True
gene 2 14 173 5.62914996613 False 235.0 5.62914996613 True
gene 2 14 174 -0.990146090434 False 236.0 -0.990146090434 True
gene 3 14 175 4.33457958412 False 237.0 4.33457958412 True
gene 3 14 176 6.16598236058 False 238.0 6.16598236058 True
gene 1 14 177 2.41834914055 False 239.0 2.41834914055 True
gene 1 14 178 -2.03726136685 False 240.0 -2.03726136685 True
gene 2 14 179 -3.45844227784 False 241.0 -3.45844227784 True
gene 1 14 180 0.793869372221 False 242.0 0.793869372221 True
gene 1 14 181 -6.24145750592 False 243.0 -6.24145750592 True
gene 3 14 182 -3.1386714732 False 244.0 -3.1386714732 True
gene 2 14 183 5.42919966662 False 245.0 5.42919966662 True
gene 3 14 184 0.0277015954174 False 246.0 0.0277015954174 True
gene 2 14 185 3.82372641388 False 247.0 3.82372641388 True
gene 2 14 186 7.23003161801 False 248.0 7.23003161801 True
gene 3 14 187 4.4576941817 False 249.0 4.4576941817 True
gene 3 14 188 3.60648570591 False 250.0 3.60648570591 True
gene 2 14 189 2.16671364899 False 251.0 2.16671364899 True
gene 1 14 190 2.11306779117 False 252.0 2.11306779117 True
gene 1 15 173 8.0 False 253.0 8.0 True
gene 1 15 174 -3.26944379597 False 254.0 -3.26944379597 True
gene 2 15 175 -2.08030285013 False 255.0 -2.08030285013 True
gene 1 15 176 -3.58368871955 False 256.0 -3.58368871955 True
gene 2 15 177 2.03852585641 False 257.0 2.03852585641 True
gene 2 15 178 4.83771104955 False 258.0 4.83771104955 True
gene 3 15 179 2.15619851128 False 259.0 2.15619851128 True
gene 3 15 180 0.194191865615 False 260.0 0.194191865615 True
gene 2 15 181 -2.41391298358 False 261.0 -2.41391298358 True
gene 3 15 182 -2.12481197278 False 262.0 -2.12481197278 True
gene 1 15 183 2.60699708305 False 263.0 2.60699708305 True
gene 3 15 184 2.03546306385 False 264.0 2.03546306385 True
gene 2 15 185 4.60578237257 False 265.0 4.60578237257 True
gene 2 15 186 -8.0 False 266.0 -8.0 True
gene 2 15 187 -3.08246868723 False 267.0 -3.08246868723 True
gene 3 15 188 6.0357252305 False 268.0 6.0357252305 True
gene 1 15 189 1.4051774022 False 269.0 1.4051774022 True
gene 2 15 190 -4.17008122054 False 270.0 -4.17008122054 True
gene 1 16 173 1.74337561551 False 271.0 1.74337561551 True
gene 1 16 174 7.25255688307 False 272.0 7.25255688307 True
gene 3 16 175 -5.4202736335 False 273.0 -5.4202736335 True
gene 1 16 176 -2.88571228485 False 274.0 -2.88571228485 True
gene 3 16 177 7.65047549271 False 275.0 7.65047549271 True
gene 1 16 178 0.915737966693 False 276.0 0.915737966693 True
gene 3 16 179 -8.0 False 277.0 -8.0 True
gene 2 16 180 4.11928935108 False 278.0 4.11928935108 True
gene 2 16 181 -5.6106872389 False 279.0 -5.6106872389 True
gene 3 16 182 -4.31656848749 False 280.0 -4.31656848749 True
gene 3 16 183 1.0315723979 False 281.0 1.0315723979 True
gene 3 16 184 -2.47223336252 False 282.0 -2.47223336252 True
gene 1 16 185 -1.00602039725 False 283.0 -1.00602039725 True
gene 2 16 186 1.6182401454 False 284.0 1.6182401454 True
gene 1 16 187 6.17828782665 False 285.0 6.17828782665 True
gene 3 16 188 8.0 False 286.0 8.0 True
gene 2 16 189 8.0 False 287.0 8.0 True
gene 2 16 190 3.45430314839 False 288.0 3.45430314839 True
gene 3 17 173 2.23067101343 False 289.0 2.23067101343 True
gene 2 17 174 1.33074783743 False 290.0 1.33074783743 True
gene 3 17 175 0.757958861213 False 291.0 0.757958861213 True
gene 1 17 176 7.08052429892 False 292.0 7.08052429892 True
gene 3 17 177 1.14354030997 False 293.0 1.14354030997 True
gene 2 17 178 -0.166076725237 False 294.0 -0.166076725237 True
gene 1 17 179 5.40705429762 False 295.0 5.40705429762 True
gene 3 17 180 5.57343855862 False 296.0 5.57343855862 True
gene 1 17 181 3.06413671451 False 297.0 3.06413671451 True
gene 2 17 182 6.5830629726 False 298.0 6.5830629726 True
gene 1 17 183 -6.0832617846 False 299.0 -6.0832617846 True
gene 1 17 184 1.96871211617 False 300.0 1.96871211617 True
gene 1 17 185 -3.98786081705 False 301.0 -3.98786081705 True
gene 3 17 186 -2.04042225992 False 302.0 -2.04042225992 True
gene 3 17 187 -6.5955969722 False 303.0 -6.5955969722 True
gene 2 17 188 0.51947355806 False 304.0 0.51947355806 True
gene 2 17 189 -8.0 False 305.0 -8.0 True
gene 2 17 190 -8.0 False 306.0 -8.0 True
gene 1 18 173 -1.75262000914 False 307.0 -1.75262000914 True
gene 2 18 174 -1.82807737583 False 308.0 -1.82807737583 True
gene 1 18 175 5.8174740801 False 309.0 5.8174740801 True
gene 3 18 176 4.74416555334 False 310.0 4.74416555334 True
gene 2 18 177 -8.0 False 311.0 -8.0 True
gene 1 18 178 -1.37555167793 False 312.0 -1.37555167793 True
gene 2 18 179 -3.89691238654 False 313.0 -3.89691238654 True
gene 3 18 180 -4.62712544877 False 314.0 -4.62712544877 True
gene 2 18 181 -8.0 False 315.0 -8.0 True
gene 3 18 182 -6.41520540141 False 316.0 -6.41520540141 True
gene 1 18 183 -0.0987003711961 False 317.0 -0.0987003711961 True
gene 2 18 184 -5.07561006845 False 318.0 -5.07561006845 True
gene 1 18 185 3.71053370696 False 319.0 3.71053370696 True
gene 2 18 186 3.6412272245 False 320.0 3.6412272245 True
gene 3 18 187 1.31957132935 False 321.0 1.31957132935 True
gene 1 18 188 0.872883383851 False 322.0 0.872883383851 True
gene 3 18 189 -5.97581250923 False 323.0 -5.97581250923 True
gene 1 18 190 -6.1623224703 False 324.0 -6.1623224703 True
gene 2 19 173 1.39634441959 False 325.0 1.39634441959 True
gene 3 19 174 5.66512237988 False 326.0 5.66512237988 True
gene 3 19 175 3.15627648037 False 327.0 3.15627648037 True
gene 1 19 176 -4.20668075327 False 328.0 -4.20668075327 True
gene 1 19 177 1.39421072098 False 329.0 1.39421072098 True
gene 2 19 178 1.50678636574 False 330.0 1.50678636574 True
gene 3 19 179 8.0 False 331.0 8.0 True
gene 1 19 180 -2.0510135227 False 332.0 -2.0510135227 True
gene 3 19 181 -0.277242829122 False 333.0 -0.277242829122 True
gene 1 19 182 -7.00285564621 False 334.0 -7.00285564621 True
gene 3 19 183 -2.28359982931 False 335.0 -2.28359982931 True
gene 2 19 184 -4.78302982958 False 336.0 -4.78302982958 True
gene 1 19 185 1.01730424867 False 337.0 1.01730424867 True
gene 3 19 186 -3.04252726577 False 338.0 -3.04252726577 True
gene 3 19 187 3.59539235158 False 339.0 3.59539235158 True
gene 2 19 188 3.35830828556 False 340.0 3.35830828556 True
gene 3 19 189 -3.1493373039 False 341.0 -3.1493373039 True
gene 3 19 190 4.33769047131 False 342.0 4.33769047131 True
gene 3 20 173 -8.0 False 343.0 -8.0 True
gene 3 20 174 2.28342192048 False 344.0 2.28342192048 True
gene 1 20 175 -4.40376413641 False 345.0 -4.40376413641 True
gene 2 20 176 7.39448921124 False 346.0 7.39448921124 True
gene 3 20 177 -0.361607667104 False 347.0 -0.361607667104 True
gene 2 20 178 1.62301781126 False 348.0 1.62301781126 True
gene 2 20 179 -4.02501476417 False 349.0 -4.02501476417 True
gene 3 20 180 2.1186345934 False 350.0 2.1186345934 True
gene 3 20 181 5.764194162 False 351.0 5.764194162 True
gene 3 20 182 4.15559697509 False 352.0 4.15559697509 True
gene 3 20 183 -7.94063064811 False 353.0 -7.94063064811 True
gene 3 20 184 -7.97770380187 False 354.0 -7.97770380187 True
gene 3 20 185 5.60038193733 False 355.0 5.60038193733 True
gene 1 20 186 6.9687290901 False 356.0 6.9687290901 True
gene 3 20 187 -2.10544306574 False 357.0 -2.10544306574 True
gene 1 20 188 4.83333386018 False 358.0 4.83333386018 True
gene 2 20 189 -2.41830370493 False 359.0 -2.41830370493 True
gene 3 20 190 -2.41337263264 False 360.0 -2.41337263264 True
gene 1 21 173 4.93379565429 False 361.0 4.93379565429 True
gene 1 21 174 -0.294218593773 False 362.0 -0.294218593773 True
gene 3 21 175 2.94866075705 False 363.0 2.94866075705 True
gene 3 21 176 -1.06180205805 False 364.0 -1.06180205805 True
gene 3 21 177 -0.391317519137 False 365.0 -0.391317519137 True
gene 1 21 178 7.52110606137 False 366.0 7.52110606137 True
gene 2 21 179 -2.17303218695 False 367.0 -2.17303218695 True
gene 1 21 180 -1.66749685004 False 368.0 -1.66749685004 True
gene 1 21 181 -0.934506557562 False 369.0 -0.934506557562 True
gene 2 21 182 0.118661206676 False 370.0 0.118661206676 True
gene 2 21 183 1.78421832312 False 371.0 1.78421832312 True
gene 2 21 184 5.09194218649 False 372.0 5.09194218649 True
gene 2 21 185 -2.17196466879 False 373.0 -2.17196466879 True
gene 1 21 186 5.30492551529 False 374.0 5.30492551529 True
gene 2 21 187 -3.60338931689 False 375.0 -3.60338931689 True
gene 3 21 188 -3.70897743169 False 376.0 -3.70897743169 True
gene 1 21 189 -1.98377076091 False 377.0 -1.98377076091 True
gene 3 21 190 2.66489840931 False 378.0 2.66489840931 True
gene 3 22 173 -2.90059622168 False 379.0 -2.90059622168 True
gene 2 22 174 7.01974935871 False 380.0 7.01974935871 True
gene 1 22 175 -1.80920573294 False 381.0 -1.80920573294 True
gene 2 22 176 2.57100948841 False 382.0 2.57100948841 True
gene 1 22 177 -8.0 False 383.0 -8.0 True
gene 1 22 178 -8.0 False 384.0 -8.0 True
gene 1 22 179 -6.0884293886 False 385.0 -6.0884293886 True
gene 2 22 180 8.0 False 386.0 8.0 True
gene 1 22 181 -0.94931082076 False 387.0 -0.94931082076 True
gene 1 22 182 -2.8953638017 False 388.0 -2.8953638017 True
gene 3 22 183 -4.06318260168 False 389.0 -4.06318260168 True
gene 3 22 184 2.57285657781 False 390.0 2.57285657781 True
gene 3 22 185 7.05099532339 False 391.0 7.05099532339 True
gene 1 22 186 0.641002209525 False 392.0 0.641002209525 True
gene 2 22 187 -1.79652100328 False 393.0 -1.79652100328 True
gene 1 22 188 2.441029331 False 394.0 2.441029331 True
gene 1 22 189 6.71773854235 False 395.0 6.71773854235 True
gene 1 22 190 -3.98743148551 False 396.0 -3.98743148551 True
gene 1 23 173 6.32286098087 False 397.0 6.32286098087 True
gene 1 23 174 -8.0 False 398.0 -8.0 True
gene 2 23 175 0.0139135248848 False 399.0 0.0139135248848 True
gene 1 23 176 2.44048829856 False 400.0 2.44048829856 True
gene 3 23 177 0.812505061783 False 401.0 0.812505061783 True
gene 2 23 178 -3.60488800149 False 402.0 -3.60488800149 True
gene 1 23 179 8.0 False 403.0 8.0 True
gene 1 23 180 8.0 False 404.0 8.0 True
gene 3 23 181 -4.76063862032 False 405.0 -4.76063862032 True
gene 3 23 182 -8.0 False 406.0 -8.0 True
gene 2 23 183 -0.63630370576 False 407.0 -0.63630370576 True
gene 3 23 184 -5.21507108581 False 408.0 -5.21507108581 True
gene 1 23 185 8.0 False 409.0 8.0 True
gene 1 23 186 1.48669299392 False 410.0 1.48669299392 True
gene 3 23 187 5.15604873054 False 411.0 5.15604873054 True
gene 1 23 188 -0.491227945117 False 412.0 -0.491227945117 True
gene 3 23 189 6.87893197479 False 413.0 6.87893197479 True
gene 3 23 190 -0.797960299405 False 414.0 -0.797960299405 True
gene 1 24 173 -6.4329549305 False 415.0 -6.4329549305 True
gene 3 24 174 -1.73507782774 False 416.0 -1.73507782774 True
gene 3 24 175 6.39282581794 False 417.0 6.39282581794 True
gene 1 24 176 -0.24998974623 False 418.0 -0.24998974623 True
gene 1 24 177 4.2421966998 False 419.0 4.2421966998 True
gene 1 24 178 2.2690586931 False 420.0 2.2690586931 True
gene 1 24 179 0.778789780049 False 421.0 0.778789780049 True
gene 1 24 180 -3.77637201061 False 422.0 -3.77637201061 True
gene 3 24 181 1.97900463962 False 423.0 1.97900463962 True
gene 3 24 182 -4.28706476868 False 424.0 -4.28706476868 True
gene 1 24 183 -0.350972369296 False 425.0 -0.350972369296 True
gene 1 24 184 -2.38363660965 False 426.0 -2.38363660965 True
gene 2 24 185 -0.0708185031073 False 427.0 -0.0708185031073 True
gene 3 24 186 4.11565563407 False 428.0 4.11565563407 True
gene 2 24 187 1.55210786551 False 429.0 1.55210786551 True
gene 1 24 188 2.02136450602 False 430.0 2.02136450602 True
gene 3 24 189 6.01368142884 False 431.0 6.01368142884 True
gene 1 24 190 1.87890081957 False 432.0 1.87890081957 True
gene 1 25 173 -7.5313337195 False 433.0 -7.5313337195 True
gene 2 25 174 7.62936017009 False 434.0 7.62936017009 True
gene 2 25 175 -7.16922611537 False 435.0 -7.16922611537 True
gene 2 25 176 5.70856707099 False 436.0 5.70856707099 True
gene 1 25 177 2.02464236288 False 437.0 2.02464236288 True
gene 2 25 178 2.28204743993 False 438.0 2.28204743993 True
gene 3 25 179 -7.7467163088 False 439.0 -7.7467163088 True
gene 2 25 180 -4.79797990763 False 440.0 -4.79797990763 True
gene 2 25 181 -4.69849765215 False 441.0 -4.69849765215 True
gene 1 25 182 0.688660279398 False 442.0 0.688660279398 True
gene 2 25 183 -7.78822720311 False 443.0 -7.78822720311 True
gene 2 25 184 -1.26873744819 False 444.0 -1.26873744819 True
gene 3 25 185 7.39884552721 False 445.0 7.39884552721 True
gene 1 25 186 4.01705953786 False 446.0 4.01705953786 True
gene 2 25 187 -3.85761173527 False 447.0 -3.85761173527 True
gene 3 25 188 -0.0901211638001 False 448.0 -0.0901211638001 True
gene 3 25 189 -6.67653218165 False 449.0 -6.67653218165 True
gene 2 25 190 -2.41102940195 False 450.0 -2.41102940195 True
gene 3 26 173 6.74442420734 False 451.0 6.74442420734 True
gene 1 26 174 -1.19091502197 False 452.0 -1.19091502197 True
gene 3 26 175 -2.65031815509 False 453.0 -2.65031815509 True
gene 3 26 176 -4.67580358072 False 454.0 -4.67580358072 True
gene 2 26 177 -2.94072431694 False 455.0 -2.94072431694 True
gene 3 26 178 5.06206240496 False 456.0 5.06206240496 True
gene 2 26 179 -1.61812150878 False 457.0 -1.61812150878 True
gene 3 26 180 -5.49284017477 False 458.0 -5.49284017477 True
gene 3 26 181 -4.98472701391 False 459.0 -4.98472701391 True
gene 3 26 182 7.96299536978 False 460.0 7.96299536978 True
gene 2 26 183 -3.49242773473 False 461.0 -3.49242773473 True
gene 1 26 184 3.02872217315 False 462.0 3.02872217315 True
gene 3 26 185 -0.260488507665 False 463.0 -0.260488507665 True
gene 2 26 186 4.30407505589 False 464.0 4.30407505589 True
gene 2 26 187 3.21324991847 False 465.0 3.21324991847 True
gene 3 26 188 -0.532830144684 False 466.0 -0.532830144684 True
gene 3 26 189 -8.0 False 467.0 -8.0 True
gene 1 26 190 7.30652449755 False 468.0 7.30652449755 True
gene 3 27 173 2.34772372354 False 469.0 2.34772372354 True
gene 2 27 174 -1.65325876244 False 470.0 -1.65325876244 True
gene 1 27 175 5.07399738801 False 471.0 5.07399738801 True
gene 1 27 176 -6.42900204496 False 472.0 -6.42900204496 True
gene 2 27 177 7.44257820497 False 473.0 7.44257820497 True
gene 1 27 178 -1.9115505336 False 474.0 -1.9115505336 True
gene 1 27 179 0.151941896427 False 475.0 0.151941896427 True
gene 3 27 180 -1.80346029846 False 476.0 -1.80346029846 True
gene 3 27 181 -2.2254408179 False 477.0 -2.2254408179 True
gene 2 27 182 6.88422939569 False 478.0 6.88422939569 True
gene 1 27 183 -1.6023982643 False 479.0 -1.6023982643 True
gene 2 27 184 0.586868752018 False 480.0 0.586868752018 True
gene 1 27 185 -2.1074933213 False 481.0 -2.1074933213 True
gene 1 27 186 -1.84072874186 False 482.0 -1.84072874186 True
gene 2 27 187 0.518182539548 False 483.0 0.518182539548 True
gene 2 27 188 2.75245019445 False 484.0 2.75245019445 True
gene 2 27 189 1.78885119525 False 485.0 1.78885119525 True
gene 3 27 190 4.33500027903 False 486.0 4.33500027903 True
gene 1 28 173 3.61607325037 False 487.0 3.61607325037 True
gene 3 28 174 -8.0 False 488.0 -8.0 True
gene 1 28 175 -1.97302342669 False 489.0 -1.97302342669 True
gene 1 28 176 -0.627971979973 False 490.0 -0.627971979973 True
gene 2 28 177 4.63242744634 False 491.0 4.63242744634 True
gene 3 28 178 2.12648248365 False 492.0 2.12648248365 True
gene 3 28 179 -4.93153761091 False 493.0 -4.93153761091 True
gene 1 28 180 7.57864040935 False 494.0 7.57864040935 True
gene 3 28 181 5.05647519236 False 495.0 5.05647519236 True
gene 2 28 182 1.41903025715 False 496.0 1.41903025715 True
gene 3 28 183 -4.24980932894 False 497.0 -4.24980932894 True
gene 2 28 184 5.54066755258 False 498.0 5.54066755258 True
gene 2 28 185 -1.27303814928 False 499.0 -1.27303814928 True
gene 3 28 186 4.33172729039 False 500.0 4.33172729039 True
gene 3 28 187 5.92467332148 False 501.0 5.92467332148 True
gene 3 28 188 -6.1817857433 False 502.0 -6.1817857433 True
gene 3 28 189 5.52050865702 False 503.0 5.52050865702 True
gene 2 28 190 -2.60753754011 False 504.0 -2.60753754011 True
gene 2 29 173 2.8253101521 False 505.0 2.8253101521 True
gene 3 29 174 2.97951323251 False 506.0 2.97951323251 True
gene 3 29 175 5.28177594382 False 507.0 5.28177594382 True
gene 1 29 176 6.72845250391 False 508.0 6.72845250391 True
gene 2 29 177 3.67465897374 False 509.0 3.67465897374 True
gene 2 29 178 2.92040647322 False 510.0 2.92040647322 True
gene 1 29 179 3.40371634321 False 511.0 3.40371634321 True
gene 3 29 180 1.3478681973 False 512.0 1.3478681973 True
gene 1 29 181 -5.39942770288 False 513.0 -5.39942770288 True
gene 3 29 182 -4.11671375455 False 514.0 -4.11671375455 True
gene 3 29 183 -1.03098503663 False 515.0 -1.03098503663 True
gene 1 29 184 5.14852043952 False 516.0 5.14852043952 True
gene 2 29 185 -6.46490555768 False 517.0 -6.46490555768 True
gene 2 29 186 3.17357265438 False 518.0 3.17357265438 True
gene 3 29 187 -1.19500631194 False 519.0 -1.19500631194 True
gene 1 29 188 2.93743795682 False 520.0 2.93743795682 True
gene 3 29 189 2.66614293258 False 521.0 2.66614293258 True
gene 3 29 190 0.211824373995 False 522.0 0.211824373995 True
gene 2 30 173 -5.1003065637 False 523.0 -5.1003065637 True
gene 3 30 174 4.36236143932 False 524.0 4.36236143932 True
gene 2 30 175 -0.136028829549 False 525.0 -0.136028829549 True
gene 3 30 176 1.87452212139 False 526.0 1.87452212139 True
gene 3 30 177 5.7830521253 False 527.0 5.7830521253 True
gene 2 30 178 2.61970221079 False 528.0 2.61970221079 True
gene 1 30 179 -1.51131782646 False 529.0 -1.51131782646 True
gene 2 30 180 2.21798656396 False 530.0 2.21798656396 True
gene 2 30 181 -3.21812983028 False 531.0 -3.21812983028 True
gene 1 30 182 3.69380075499 False 532.0 3.69380075499 True
gene 3 30 183 -2.01204535002 False 533.0 -2.01204535002 True
gene 3 30 184 -6.94903396355 False 534.0 -6.94903396355 True
gene 2 30 185 2.02004597738 False 535.0 2.02004597738 True
gene 2 30 186 -4.70099521997 False 536.0 -4.70099521997 True
gene 1 30 187 -4.59959064412 False 537.0 -4.59959064412 True
gene 3 30 188 0.292180099943 False 538.0 0.292180099943 True
gene 3 30 189 -0.992918439666 False 539.0 -0.992918439666 True
gene 3 30 190 -3.39433244606 False 540.0 -3.39433244606 True
gene 2 31 173 5.74668185262 False 541.0 5.74668185262 True
gene 2 31 174 -5.39409781095 False 542.0 -5.39409781095 True
gene 3 31 175 -2.51840973586 False 543.0 -2.51840973586 True
gene 1 31 176 -4.91365314112 False 544.0 -4.91365314112 True
gene 3 31 177 1.02662263983 False 545.0 1.02662263983 True
gene 1 31 178 1.95464617246 False 546.0 1.95464617246 True
gene 3 31 179 2.3973048674 False 547.0 2.3973048674 True
gene 3 31 180 1.17145008828 False 548.0 1.17145008828 True
gene 3 31 181 -0.816497589615 False 549.0 -0.816497589615 True
gene 2 31 182 -2.42280350416 False 550.0 -2.42280350416 True
gene 2 31 183 -3.14560429723 False 551.0 -3.14560429723 True
gene 2 31 184 3.59577581675 False 552.0 3.59577581675 True
gene 2 31 185 6.85596212807 False 553.0 6.85596212807 True
gene 3 31 186 8.0 False 554.0 8.0 True
gene 3 31 187 -4.90023001646 False 555.0 -4.90023001646 True
gene 1 31 188 -1.95196927233 False 556.0 -1.95196927233 True
gene 2 31 189 1.2177460339 False 557.0 1.2177460339 True
gene 2 31 190 -8.0 False 558.0 -8.0 True
gene 2 32 173 -3.58943283376 False 559.0 -3.58943283376 True
gene 1 32 174 3.50380871619 False 560.0 3.50380871619 True
gene 3 32 175 -2.43930800519 False 561.0 -2.43930800519 True
gene 2 32 176 -8.0 False 562.0 -8.0 True
gene 2 32 177 -5.6145243904 False 563.0 -5.6145243904 True
gene 3 32 178 -4.96141773822 False 564.0 -4.96141773822 True
gene 1 32 179 5.42063161648 False 565.0 5.42063161648 True
gene 3 32 180 -4.51474366433 False 566.0 -4.51474366433 True
gene 3 32 181 3.36250300127 False 567.0 3.36250300127 True
gene 1 32 182 -2.09499943435 False 568.0 -2.09499943435 True
gene 3 32 183 3.39591777661 False 569.0 3.39591777661 True
gene 3 32 184 2.25908197161 False 570.0 2.25908197161 True
gene 3 32 185 0.391040774187 False 571.0 0.391040774187 True
gene 2 32 186 7.72147888365 False 572.0 7.72147888365 True
gene 1 32 187 -1.17039700732 False 573.0 -1.17039700732 True
gene 3 32 188 -7.93084485876 False 574.0 -7.93084485876 True
gene 2 32 189 5.97017204073 False 575.0 5.97017204073 True
gene 1 32 190 -2.51842971827 False 576.0 -2.51842971827 True
gene 3 33 173 -5.67842339647 False 577.0 -5.67842339647 True
gene 1 33 174 5.89482281988 False 578.0 5.89482281988 True
gene 1 33 175 -5.1855630687 False 579.0 -5.1855630687 True
gene 2 33 176 1.1872282845 False 580.0 1.1872282845 True
gene 3 33 177 -0.343967474512 False 581.0 -0.343967474512 True
gene 2 33 178 -1.71177618903 False 582.0 -1.71177618903 True
gene 3 33 179 2.80467528351 False 583.0 2.80467528351 True
gene 1 33 180 6.625826688 False 584.0 6.625826688 True
gene 2 33 181 4.45590800283 False 585.0 4.45590800283 True
gene 2 33 182 8.0 False 586.0 8.0 True
gene 3 33 183 -3.15795517644 False 587.0 -3.15795517644 True
gene 2 33 184 2.07478434424 False 588.0 2.07478434424 True
gene 1 33 185 -2.5521403353 False 589.0 -2.5521403353 True
gene 2 33 186 1.41638358808 False 590.0 1.41638358808 True
gene 2 33 187 -8.0 False 591.0 -8.0 True
gene 1 33 188 -3.43124185324 False 592.0 -3.43124185324 True
gene 2 33 189 4.37483878811 False 593.0 4.37483878811 True
gene 3 33 190 2.58865403651 False 594.0 2.58865403651 True
gene 2 34 173 -1.54884070418 False 595.0 -1.54884070418 True
gene 1 34 174 -7.76805371832 False 596.0 -7.76805371832 True
gene 3 34 175 4.83043291567 False 597.0 4.83043291567 True
gene 3 34 176 -2.957986531 False 598.0 -2.957986531 True
gene 3 34 177 1.83409690469 False 599.0 1.83409690469 True
gene 3 34 178 0.44171207027 False 600.0 0.44171207027 True
gene 2 34 179 6.38709186256 False 601.0 6.38709186256 True
gene 2 34 180 0.840193679248 False 602.0 0.840193679248 True
gene 3 34 181 -0.222772994049 False 603.0 -0.222772994049 True
gene 3 34 182 4.17493501224 False 604.0 4.17493501224 True
gene 1 34 183 -3.62480662761 False 605.0 -3.62480662761 True
gene 2 34 184 -8.0 False 606.0 -8.0 True
gene 2 34 185 -5.99638825984 False 607.0 -5.99638825984 True
gene 2 34 186 8.0 False 608.0 8.0 True
gene 2 34 187 -1.52686655873 False 609.0 -1.52686655873 True
gene 3 34 188 -6.16175316171 False 610.0 -6.16175316171 True
gene 1 34 189 5.92259441676 False 611.0 5.92259441676 True
gene 1 34 190 0.287934329908 False 612.0 0.287934329908 True
gene 3 35 173 -2.84732432024 False 613.0 -2.84732432024 True
gene 2 35 174 -1.45336346569 False 614.0 -1.45336346569 True
gene 2 35 175 3.10322127798 False 615.0 3.10322127798 True
gene 1 35 176 5.11574562684 False 616.0 5.11574562684 True
gene 1 35 177 -1.9125590326 False 617.0 -1.9125590326 True
gene 3 35 178 3.14282768812 False 618.0 3.14282768812 True
gene 1 35 179 3.54647471385 False 619.0 3.54647471385 True
gene 2 35 180 4.68907178782 False 620.0 4.68907178782 True
gene 1 35 181 4.8496150533 False 621.0 4.8496150533 True
gene 1 35 182 0.22487592286 False 622.0 0.22487592286 True
gene 1 35 183 -7.47261091847 False 623.0 -7.47261091847 True
gene 2 35 184 -0.674232300885 False 624.0 -0.674232300885 True
gene 1 35 185 1.51080096173 False 625.0 1.51080096173 True
gene 2 35 186 1.58063671114 False 626.0 1.58063671114 True
gene 1 35 187 -0.774789212232 False 627.0 -0.774789212232 True
gene 3 35 188 3.13964385772 False 628.0 3.13964385772 True
gene 3 35 189 -0.776697341201 False 629.0 -0.776697341201 True
gene 2 35 190 -3.41243093351 False 630.0 -3.41243093351 True
gene 1 36 173 -4.23463858007 False 631.0 -4.23463858007 True
gene 1 36 174 -0.54591712395 False 632.0 -0.54591712395 True
gene 3 36 175 -0.243150546684 False 633.0 -0.243150546684 True
gene 1 36 176 1.05331441792 False 634.0 1.05331441792 True
gene 2 36 177 -0.0693034245739 False 635.0 -0.0693034245739 True
gene 1 36 178 -0.00886939789607 False 636.0 -0.00886939789607 True
gene 3 36 179 2.82355575974 False 637.0 2.82355575974 True
gene 3 36 180 2.61901072345 False 638.0 2.61901072345 True
gene 3 36 181 0.228227566093 False 639.0 0.228227566093 True
gene 1 36 182 0.141659812025 False 640.0 0.141659812025 True
gene 1 36 183 -1.49713300274 False 641.0 -1.49713300274 True
gene 3 36 184 5.78390239472 False 642.0 5.78390239472 True
gene 2 36 185 1.59944398678 False 643.0 1.59944398678 True
gene 1 36 186 -6.16853961896 False 644.0 -6.16853961896 True
gene 2 36 187 -0.922484448452 False 645.0 -0.922484448452 True
gene 2 36 188 -3.77682218395 False 646.0 -3.77682218395 True
gene 2 36 189 2.72105895423 False 647.0 2.72105895423 True
gene 3 36 190 5.34171475757 False 648.0 5.34171475757 True
gene 1 37 173 -0.562262464501 False 649.0 -0.562262464501 True
gene 2 37 174 7.29873324783 False 650.0 7.29873324783 True
gene 3 37 175 -3.21882935764 False 651.0 -3.21882935764 True
gene 1 37 176 -5.26355867776 False 652.0 -5.26355867776 True
gene 3 37 177 0.60004193907 False 653.0 0.60004193907 True
gene 3 37 178 -7.61777282736 False 654.0 -7.61777282736 True
gene 1 37 179 -1.42139354651 False 655.0 -1.42139354651 True
gene 2 37 180 0.919874366805 False 656.0 0.919874366805 True
gene 3 37 181 -5.99693540275 False 657.0 -5.99693540275 True
gene 2 37 182 -4.47164745374 False 658.0 -4.47164745374 True
gene 2 37 183 4.40939824066 False 659.0 4.40939824066 True
gene 2 37 184 2.28557057299 False 660.0 2.28557057299 True
gene 3 37 185 2.9399740952 False 661.0 2.9399740952 True
gene 2 37 186 2.13758491797 False 662.0 2.13758491797 True
gene 2 37 187 0.151913383249 False 663.0 0.151913383249 True
gene 3 37 188 -8.0 False 664.0 -8.0 True
gene 2 37 189 -2.7266330498 False 665.0 -2.7266330498 True
gene 1 37 190 1.24547154261 False 666.0 1.24547154261 True
gene 1 38 173 0.849615882108 False 667.0 0.849615882108 True
gene 3 38 174 -2.01582549097 False 668.0 -2.01582549097 True
gene 2 38 175 -0.291889375459 False 669.0 -0.291889375459 True
gene 3 38 176 8.0 False 670.0 8.0 True
gene 3 38 177 -2.12304419665 False 671.0 -2.12304419665 True
gene 2 38 178 3.94022193244 False 672.0 3.94022193244 True
gene 3 38 179 2.11933091356 False 673.0 2.11933091356 True
gene 2 38 180 -1.62209020101 False 674.0 -1.62209020101 True
gene 2 38 181 2.28394480394 False 675.0 2.28394480394 True
gene 3 38 182 7.00016601675 False 676.0 7.00016601675 True
gene 3 38 183 -3.48986114809 False 677.0 -3.48986114809 True
gene 1 38 184 2.46600076192 False 678.0 2.46600076192 True
gene 1 38 185 -7.73928863952 False 679.0 -7.73928863952 True
gene 3 38 186 3.1210587802 False 680.0 3.1210587802 True
gene 3 38 187 -8.0 False 681.0 -8.0 True
gene 3 38 188 -1.67864926991 False 682.0 -1.67864926991 True
gene 3 38 189 2.00895548515 False 683.0 2.00895548515 True
gene 3 38 190 -0.281985347084 False 684.0 -0.281985347084 True
gene 1 39 173 -0.56754051556 False 685.0 -0.56754051556 True
gene 1 39 174 7.36099559828 False 686.0 7.36099559828 True
gene 1 39 175 0.680719994546 False 687.0 0.680719994546 True
gene 2 39 176 -1.72282973511 False 688.0 -1.72282973511 True
gene 3 39 177 -5.6831241292 False 689.0 -5.6831241292 True
gene 2 39 178 0.385509897754 False 690.0 0.385509897754 True
gene 3 39 179 2.66348455104 False 691.0 2.66348455104 True
gene 2 39 180 -5.84212612748 False 692.0 -5.84212612748 True
gene 1 39 181 -3.5879895372 False 693.0 -3.5879895372 True
gene 3 39 182 4.62811755359 False 694.0 4.62811755359 True
gene 2 39 183 -0.171274387958 False 695.0 -0.171274387958 True
gene 1 39 184 4.31816208018 False 696.0 4.31816208018 True
gene 1 39 185 0.483889005335 False 697.0 0.483889005335 True
gene 3 39 186 1.89710358493 False 698.0 1.89710358493 True
gene 1 39 187 0.423840985531 False 699.0 0.423840985531 True
gene 1 39 188 -3.18298373366 False 700.0 -3.18298373366 True
gene 1 39 189 3.55808168321 False 701.0 3.55808168321 True
gene 1 39 190 -2.44635749106 False 702.0 -2.44635749106 True
gene 3 40 173 -6.13566018393 False 703.0 -6.13566018393 True
gene 2 40 174 2.22078041272 False 704.0 2.22078041272 True
gene 1 40 175 2.14422862571 False 705.0 2.14422862571 True
gene 3 40 176 3.41464668059 False 706.0 3.41464668059 True
gene 1 40 177 -0.493442034689 False 707.0 -0.493442034689 True
gene 1 40 178 -4.17023221031 False 708.0 -4.17023221031 True
gene 2 40 179 -1.37788964902 False 709.0 -1.37788964902 True
gene 3 40 180 -0.103700115786 False 710.0 -0.103700115786 True
gene 3 40 181 -2.94986237173 False 711.0 -2.94986237173 True
gene 3 40 182 7.10182736899 False 712.0 7.10182736899 True
gene 3 40 183 5.3560216447 False 713.0 5.3560216447 True
gene 3 40 184 -1.35985192007 False 714.0 -1.35985192007 True
gene 2 40 185 1.33316885256 False 715.0 1.33316885256 True
gene 3 40 186 -8.0 False 716.0 -8.0 True
gene 3 40 187 5.20026179985 False 717.0 5.20026179985 True
gene 1 40 188 6.13484669232 False 718.0 6.13484669232 True
gene 3 40 189 5.78587873662 False 719.0 5.78587873662 True
gene 1 40 190 -1.04385060283 False 720.0 -1.04385060283 True
gene 3 41 173 -3.48205841237 False 721.0 -3.48205841237 True
gene 2 41 174 0.141632333565 False 722.0 0.141632333565 True
gene 1 41 175 -3.16054559275 False 723.0 -3.16054559275 True
gene 1 41 176 -0.350719623047 False 724.0 -0.350719623047 True
gene 1 41 177 6.21561991092 False 725.0 6.21561991092 True
gene 1 41 178 -4.08256288311 False 726.0 -4.08256288311 True
gene 1 41 179 -1.0483507368 False 727.0 -1.0483507368 True
gene 2 41 180 -1.06636774992 False 728.0 -1.06636774992 True
gene 3 41 181 3.37853897483 False 729.0 3.37853897483 True
gene 1 41 182 2.51455834961 False 730.0 2.51455834961 True
gene 3 41 183 1.04893967374 False 731.0 1.04893967374 True
gene 1 41 184 -2.52735346698 False 732.0 -2.52735346698 True
gene 1 41 185 5.52973986271 False 733.0 5.52973986271 True
gene 2 41 186 6.19382109366 False 734.0 6.19382109366 True
gene 3 41 187 8.0 False 735.0 8.0 True
gene 3 41 188 2.29606848165 False 736.0 2.29606848165 True
gene 1 41 189 2.42390927047 False 737.0 2.42390927047 True
gene 3 41 190 -1.06485981783 False 738.0 -1.06485981783 True
gene 3 42 173 2.78878103348 False 739.0 2.78878103348 True
gene 3 42 174 5.06102394273 False 740.0 5.06102394273 True
gene 1 42 175 1.89449449339 False 741.0 1.89449449339 True
gene 3 42 176 -4.92367023177 False 742.0 -4.92367023177 True
gene 1 42 177 -5.35241974165 False 743.0 -5.35241974165 True
gene 1 42 178 6.48144739965 False 744.0 6.48144739965 True
gene 1 42 179 3.91894900873 False 745.0 3.91894900873 True
gene 2 42 180 -0.231847234396 False 746.0 -0.231847234396 True
gene 2 42 181 0.307155923661 False 747.0 0.307155923661 True
gene 2 42 182 -0.249683931549 False 748.0 -0.249683931549 True
gene 3 42 183 -2.86815938683 False 749.0 -2.86815938683 True
gene 2 42 184 -5.18752602415 False 750.0 -5.18752602415 True
gene 3 42 185 -5.28191836168 False 751.0 -5.28191836168 True
gene 2 42 186 0.972826501049 False 752.0 0.972826501049 True
gene 2 42 187 -7.58255765815 False 753.0 -7.58255765815 True
gene 1 42 188 3.17526627901 False 754.0 3.17526627901 True
gene 3 42 189 7.97544147842 False 755.0 7.97544147842 True
gene 3 42 190 5.71042369993 False 756.0 5.71042369993 True
gene 3 43 173 -3.13632358131 False 757.0 -3.13632358131 True
gene 1 43 174 8.0 False 758.0 8.0 True
gene 1 43 175 1.12148544237 False 759.0 1.12148544237 True
gene 2 43 176 -5.34209482624 False 760.0 -5.34209482624 True
gene 1 43 177 -3.82366133474 False 761.0 -3.82366133474 True
gene 2 43 178 1.93220756422 False 762.0 1.93220756422 True
gene 3 43 179 -7.63063596346 False 763.0 -7.63063596346 True
gene 3 43 180 -0.760540926802 False 764.0 -0.760540926802 True
gene 3 43 181 0.278746845918 False 765.0 0.278746845918 True
gene 2 43 182 1.25293163986 False 766.0 1.25293163986 True
gene 1 43 183 0.819913258907 False 767.0 0.819913258907 True
gene 1 43 184 5.7986071618 False 768.0 5.7986071618 True
gene 3 43 185 4.99940177012 False 769.0 4.99940177012 True
gene 3 43 186 5.82391669117 False 770.0 5.82391669117 True
gene 1 43 187 7.964415175 False 771.0 7.964415175 True
gene 2 43 188 5.70622108424 False 772.0 5.70622108424 True
gene 1 43 189 0.752616273251 False 773.0 0.752616273251 True
gene 2 43 190 0.137700551042 False 774.0 0.137700551042 True
gene 1 44 173 6.42788482917 False 775.0 6.42788482917 True
gene 2 44 174 -3.3592182048 False 776.0 -3.3592182048 True
gene 3 44 175 -6.10015398925 False 777.0 -6.10015398925 True
gene 1 44 176 -8.0 False 778.0 -8.0 True
gene 3 44 177 3.44703262399 False 779.0 3.44703262399 True
gene 2 44 178 -2.7851616811 False 780.0 -2.7851616811 True
gene 1 44 179 -2.21161675544 False 781.0 -2.21161675544 True
gene 1 44 180 -6.56673268868 False 782.0 -6.56673268868 True
gene 3 44 181 4.29723549083 False 783.0 4.29723549083 True
gene 1 44 182 1.55518669367 False 784.0 1.55518669367 True
gene 1 44 183 8.0 False 785.0 8.0 True
gene 2 44 184 -3.91787022747 False 786.0 -3.91787022747 True
gene 1 44 185 -4.49288807984 False 787.0 -4.49288807984 True
gene 1 44 186 -2.29944512578 False 788.0 -2.29944512578 True
gene 2 44 187 4.96864416066 False 789.0 4.96864416066 True
gene 2 44 188 4.44843916719 False 790.0 4.44843916719 True
gene 3 44 189 -0.519321436473 False 791.0 -0.519321436473 True
gene 2 44 190 -3.98973997045 False 792.0 -3.98973997045 True
gene 2 45 173 -0.911596903698 False 793.0 -0.911596903698 True
gene 3 45 174 -4.33716458333 False 794.0 -4.33716458333 True
gene 3 45 175 -0.309456611076 False 795.0 -0.309456611076 True
gene 2 45 176 1.70840618657 False 796.0 1.70840618657 True
gene 3 45 177 -1.42567550011 False 797.0 -1.42567550011 True
gene 2 45 178 1.53659409155 False 798.0 1.53659409155 True
gene 2 45 179 -1.61754875262 False 799.0 -1.61754875262 True
gene 3 45 180 4.85594692331 False 800.0 4.85594692331 True
gene 3 45 181 -4.87576003801 False 801.0 -4.87576003801 True
gene 3 45 182 -4.58845086711 False 802.0 -4.58845086711 True
gene 3 45 183 3.67087555858 False 803.0 3.67087555858 True
gene 1 45 184 -3.16602460637 False 804.0 -3.16602460637 True
gene 2 45 185 5.95351993125 False 805.0 5.95351993125 True
gene 2 45 186 -3.5331218002 False 806.0 -3.5331218002 True
gene 2 45 187 2.43132840506 False 807.0 2.43132840506 True
gene 2 45 188 4.91739017291 False 808.0 4.91739017291 True
gene 2 45 189 3.45804574885 False 809.0 3.45804574885 True
gene 1 45 190 -2.98867820904 False 810.0 -2.98867820904 True
gene 3 46 173 -4.63888862578 False 811.0 -4.63888862578 True
gene 3 46 174 -4.95285896865 False 812.0 -4.95285896865 True
gene 2 46 175 3.32522455262 False 813.0 3.32522455262 True
gene 2 46 176 -7.93905083998 False 814.0 -7.93905083998 True
gene 3 46 177 5.79234188426 False 815.0 5.79234188426 True
gene 2 46 178 0.379534764886 False 816.0 0.379534764886 True
gene 2 46 179 1.70269339355 False 817.0 1.70269339355 True
gene 3 46 180 1.53601849255 False 818.0 1.53601849255 True
gene 2 46 181 5.88528269703 False 819.0 5.88528269703 True
gene 2 46 182 3.43878363364 False 820.0 3.43878363364 True
gene 2 46 183 1.4640361194 False 821.0 1.4640361194 True
gene 3 46 184 1.38507691657 False 822.0 1.38507691657 True
gene 2 46 185 2.4442651545 False 823.0 2.4442651545 True
gene 1 46 186 -3.52171012708 False 824.0 -3.52171012708 True
gene 2 46 187 2.1402433932 False 825.0 2.1402433932 True
gene 1 46 188 7.55290066586 False 826.0 7.55290066586 True
gene 2 46 189 0.494934449314 False 827.0 0.494934449314 True
gene 2 46 190 4.66761568544 False 828.0 4.66761568544 True
gene 1 47 173 6.04620094207 False 829.0 6.04620094207 True
gene 2 47 174 8.0 False 830.0 8.0 True
gene 2 47 175 0.723736000499 False 831.0 0.723736000499 True
gene 2 47 176 -1.44894788484 False 832.0 -1.44894788484 True
gene 3 47 177 5.85711642516 False 833.0 5.85711642516 True
gene 2 47 178 -2.30983998184 False 834.0 -2.30983998184 True
gene 3 47 179 -2.19714946118 False 835.0 -2.19714946118 True
gene 2 47 180 0.484390340118 False 836.0 0.484390340118 True
gene 3 47 181 0.956330692357 False 837.0 0.956330692357 True
gene 1 47 182 5.92902749139 False 838.0 5.92902749139 True
gene 2 47 183 -5.43934154013 False 839.0 -5.43934154013 True
gene 1 47 184 5.53655512807 False 840.0 5.53655512807 True
gene 2 47 185 -4.05960670981 False 841.0 -4.05960670981 True
gene 2 47 186 -1.78126531415 False 842.0 -1.78126531415 True
gene 3 47 187 2.51763574294 False 843.0 2.51763574294 True
gene 1 47 188 6.19647958966 False 844.0 6.19647958966 True
gene 1 47 189 2.11116707 False 845.0 2.11116707 True
gene 2 47 190 -5.25326167569 False 846.0 -5.25326167569 True
gene 2 48 173 -6.6185976413 False 847.0 -6.6185976413 True
gene 2 48 174 -2.12410469288 False 848.0 -2.12410469288 True
gene 2 48 175 2.6337364465 False 849.0 2.6337364465 True
gene 3 48 176 -3.59222594606 False 850.0 -3.59222594606 True
gene 3 48 177 -2.53227695793 False 851.0 -2.53227695793 True
gene 3 48 178 -1.8418122092 False 852.0 -1.8418122092 True
gene 1 48 179 0.523105560596 False 853.0 0.523105560596 True
gene 3 48 180 -6.31275265011 False 854.0 -6.31275265011 True
gene 3 48 181 -0.886509979356 False 855.0 -0.886509979356 True
gene 1 48 182 1.54460942506 False 856.0 1.54460942506 True
gene 2 48 183 -0.622757747486 False 857.0 -0.622757747486 True
gene 1 48 184 -0.615364166232 False 858.0 -0.615364166232 True
gene 1 48 185 0.852414528495 False 859.0 0.852414528495 True
gene 1 48 186 -1.57222577008 False 860.0 -1.57222577008 True
gene 2 48 187 4.4675748719 False 861.0 4.4675748719 True
gene 3 48 188 5.8121943083 False 862.0 5.8121943083 True
gene 2 48 189 1.43023660235 False 863.0 1.43023660235 True
gene 1 48 190 -2.66622446271 False 864.0 -2.66622446271 True
gene 2 49 173 4.6039125878 False 865.0 4.6039125878 True
gene 1 49 174 -7.70379328245 False 866.0 -7.70379328245 True
gene 3 49 175 -1.32819908141 False 867.0 -1.32819908141 True
gene 1 49 176 2.42853951915 False 868.0 2.42853951915 True
gene 1 49 177 0.350041897452 False 869.0 0.350041897452 True
gene 1 49 178 7.66660379637 False 870.0 7.66660379637 True
gene 3 49 179 -1.96647489907 False 871.0 -1.96647489907 True
gene 1 49 180 0.106348095448 False 872.0 0.106348095448 True
gene 2 49 181 5.37898291121 False 873.0 5.37898291121 True
gene 3 49 182 1.00672885411 False 874.0 1.00672885411 True
gene 1 49 183 -3.75055458324 False 875.0 -3.75055458324 True
gene 3 49 184 -1.35398675752 False 876.0 -1.35398675752 True
gene 3 49 185 8.0 False 877.0 8.0 True
gene 1 49 186 0.222485334085 False 878.0 0.222485334085 True
gene 1 49 187 -2.97910907815 False 879.0 -2.97910907815 True
gene 1 49 188 8.0 False 880.0 8.0 True
gene 3 49 189 -6.56498009855 False 881.0 -6.56498009855 True
gene 2 49 190 2.49353575354 False 882.0 2.49353575354 True
gene 3 50 173 0.205781378735 False 883.0 0.205781378735 True
gene 2 50 174 3.93240882187 False 884.0 3.93240882187 True
gene 1 50 175 2.12260841179 False 885.0 2.12260841179 True
gene 3 50 176 4.23273513991 False 886.0 4.23273513991 True
gene 2 50 177 4.68085293705 False 887.0 4.68085293705 True
gene 2 50 178 -2.19789834478 False 888.0 -2.19789834478 True
gene 2 50 179 6.50759798392 False 889.0 6.50759798392 True
gene 1 50 180 8.0 False 890.0 8.0 True
gene 1 50 181 -3.70093665037 False 891.0 -3.70093665037 True
gene 2 50 182 4.79758753603 False 892.0 4.79758753603 True
gene 3 50 183 2.46944312845 False 893.0 2.46944312845 True
gene 2 50 184 3.5218023633 False 894.0 3.5218023633 True
gene 1 50 185 -2.89220620964 False 895.0 -2.89220620964 True
gene 3 50 186 -1.11566712294 False 896.0 -1.11566712294 True
gene 3 50 187 -4.05849937483 False 897.0 -4.05849937483 True
gene 2 50 188 -3.03454404819 False 898.0 -3.03454404819 True
gene 1 50 189 4.44920748701 False 899.0 4.44920748701 True
gene 3 50 190 -0.195443152196 False 900.0 -0.195443152196 True
gene 3 51 173 3.53648770198 False 901.0 3.53648770198 True
gene 3 51 174 3.74717107558 False 902.0 3.74717107558 True
gene 3 51 175 -1.38710924831 False 903.0 -1.38710924831 True
gene 1 51 176 -5.87769111636 False 904.0 -5.87769111636 True
gene 1 51 177 3.81885398288 False 905.0 3.81885398288 True
gene 2 51 178 5.81868123398 False 906.0 5.81868123398 True
gene 2 51 179 -7.37673053163 False 907.0 -7.37673053163 True
gene 3 51 180 -0.109741451883 False 908.0 -0.109741451883 True
gene 2 51 181 -2.91874030435 False 909.0 -2.91874030435 True
gene 3 51 182 -4.49505975561 False 910.0 -4.49505975561 True
gene 3 51 183 -6.50660711061 False 911.0 -6.50660711061 True
gene 1 51 184 0.549523600947 False 912.0 0.549523600947 True
gene 3 51 185 5.44151230375 False 913.0 5.44151230375 True
gene 1 51 186 -4.84310151153 False 914.0 -4.84310151153 True
gene 1 51 187 3.1859630193 False 915.0 3.1859630193 True
gene 2 51 188 -2.47539307299 False 916.0 -2.47539307299 True
gene 1 51 189 0.656380998763 False 917.0 0.656380998763 True
gene 1 51 190 -0.45508657088 False 918.0 -0.45508657088 True
gene 1 52 173 -3.16914852865 False 919.0 -3.16914852865 True
gene 2 52 174 0.108472393387 False 920.0 0.108472393387 True
gene 1 52 175 3.8241162025 False 921.0 3.8241162025 True
gene 1 52 176 -0.28388103005 False 922.0 -0.28388103005 True
gene 1 52 177 -1.29165784184 False 923.0 -1.29165784184 True
gene 3 52 178 5.35444052254 False 924.0 5.35444052254 True
gene 3 52 179 -3.35340318774 False 925.0 -3.35340318774 True
gene 2 52 180 3.1754635053 False 926.0 3.1754635053 True
gene 1 52 181 2.934262317 False 927.0 2.934262317 True
gene 2 52 182 2.41537626325 False 928.0 2.41537626325 True
gene 2 52 183 -3.2692910203 False 929.0 -3.2692910203 True
gene 2 52 184 -4.32598142754 False 930.0 -4.32598142754 True
gene 3 52 185 -3.78580094527 False 931.0 -3.78580094527 True
gene 3 52 186 -1.31861897635 False 932.0 -1.31861897635 True
gene 2 52 187 3.52449836406 False 933.0 3.52449836406 True
gene 3 52 188 8.0 False 934.0 8.0 True
gene 2 52 189 2.48262742473 False 935.0 2.48262742473 True
gene 2 52 190 -4.09110387841 False 936.0 -4.09110387841 True
gene 1 53 173 1.33088027013 False 937.0 1.33088027013 True
gene 3 53 174 6.42296254271 False 938.0 6.42296254271 True
gene 1 53 175 -3.04569866731 False 939.0 -3.04569866731 True
gene 3 53 176 2.43251455295 False 940.0 2.43251455295 True
gene 3 53 177 6.06721615365 False 941.0 6.06721615365 True
gene 3 53 178 -1.98569817477 False 942.0 -1.98569817477 True
gene 1 53 179 -3.3466530953 False 943.0 -3.3466530953 True
gene 1 53 180 -4.16506898743 False 944.0 -4.16506898743 True
gene 2 53 181 5.59515599625 False 945.0 5.59515599625 True
gene 3 53 182 3.01296836638 False 946.0 3.01296836638 True
gene 1 53 183 -7.29725815244 False 947.0 -7.29725815244 True
gene 1 53 184 1.04546496986 False 948.0 1.04546496986 True
gene 3 53 185 -2.26321163854 False 949.0 -2.26321163854 True
gene 1 53 186 6.5398300102 False 950.0 6.5398300102 True
gene 2 53 187 7.37086758462 False 951.0 7.37086758462 True
gene 2 53 188 -0.388497273969 False 952.0 -0.388497273969 True
gene 2 53 189 3.36349673098 False 953.0 3.36349673098 True
gene 2 53 190 -0.421420527068 False 954.0 -0.421420527068 True
gene 2 54 173 -2.46011131147 False 955.0 -2.46011131147 True
gene 1 54 174 -7.22717370345 False 956.0 -7.22717370345 True
gene 1 54 175 5.80445892202 False 957.0 5.80445892202 True
gene 1 54 176 -8.0 False 958.0 -8.0 True
gene 1 54 177 -1.22002090753 False 959.0 -1.22002090753 True
gene 2 54 178 -1.32703765649 False 960.0 -1.32703765649 True
gene 3 54 179 -4.86238830276 False 961.0 -4.86238830276 True
gene 1 54 180 0.747405008987 False 962.0 0.747405008987 True
gene 3 54 181 1.22117930767 False 963.0 1.22117930767 True
gene 3 54 182 -0.297880647373 False 964.0 -0.297880647373 True
gene 1 54 183 2.12359704705 False 965.0 2.12359704705 True
gene 1 54 184 -2.43557885489 False 966.0 -2.43557885489 True
gene 2 54 185 -4.60704637003 False 967.0 -4.60704637003 True
gene 2 54 186 2.97980248173 False 968.0 2.97980248173 True
gene 3 54 187 -4.65273715756 False 969.0 -4.65273715756 True
gene 3 54 188 -7.75589760275 False 970.0 -7.75589760275 True
gene 3 54 189 2.26874316428 False 971.0 2.26874316428 True
gene 1 54 190 -1.68754310513 False 972.0 -1.68754310513 True
gene 2 55 173 4.60700974869 False 973.0 4.60700974869 True
gene 3 55 174 8.0 False 974.0 8.0 True
gene 2 55 175 -6.85136120475 False 975.0 -6.85136120475 True
gene 3 55 176 1.65926296253 False 976.0 1.65926296253 True
gene 1 55 177 -0.318457244125 False 977.0 -0.318457244125 True
gene 3 55 178 -4.07046292237 False 978.0 -4.07046292237 True
gene 3 55 179 -2.22321591992 False 979.0 -2.22321591992 True
gene 1 55 180 -1.59972281969 False 980.0 -1.59972281969 True
gene 2 55 181 0.757223754377 False 981.0 0.757223754377 True
gene 3 55 182 -3.55430153851 False 982.0 -3.55430153851 True
gene 3 55 183 -0.826488477964 False 983.0 -0.826488477964 True
gene 3 55 184 -1.42795313485 False 984.0 -1.42795313485 True
gene 3 55 185 -0.681868353651 False 985.0 -0.681868353651 True
gene 3 55 186 -0.75251187132 False 986.0 -0.75251187132 True
gene 2 55 187 -8.0 False 987.0 -8.0 True
gene 1 55 188 -8.0 False 988.0 -8.0 True
gene 2 55 189 -2.26404242122 False 989.0 -2.26404242122 True
gene 2 55 190 0.691728984046 False 990.0 0.691728984046 True
gene 2 56 173 3.32833548918 False 991.0 3.32833548918 True
gene 3 56 174 1.7334179539 False 992.0 1.7334179539 True
gene 3 56 175 5.49280454066 False 993.0 5.49280454066 True
gene 2 56 176 -3.24710229849 False 994.0 -3.24710229849 True
gene 2 56 177 -1.52793828604 False 995.0 -1.52793828604 True
gene 3 56 178 5.15032731675 False 996.0 5.15032731675 True
gene 3 56 179 -6.24515505755 False 997.0 -6.24515505755 True
gene 2 56 180 0.905122292208 False 998.0 0.905122292208 True
gene 1 56 181 -3.0584829145 False 999.0 -3.0584829145 True
gene 3 56 182 2.09631744683 False 1000.0 2.09631744683 True
gene 1 56 183 -7.28952269425 False 1001.0 -7.28952269425 True
gene 2 56 184 -3.01919630099 False 1002.0 -3.01919630099 True
gene 2 56 185 2.05611516766 False 1003.0 2.05611516766 True
gene 2 56 186 -0.880918124879 False 1004.0 -0.880918124879 True
gene 3 56 187 4.57374948981 False 1005.0 4.57374948981 True
gene 2 56 188 3.66768099016 False 1006.0 3.66768099016 True
gene 2 56 189 4.24159507056 False 1007.0 4.24159507056 True
gene 1 56 190 -1.41979896607 False 1008.0 -1.41979896607 True
gene 2 57 173 -6.19354478067 False 1009.0 -6.19354478067 True
gene 2 57 174 3.7759619341 False 1010.0 3.7759619341 True
gene 2 57 175 1.81873369025 False 1011.0 1.81873369025 True
gene 3 57 176 -3.94533302898 False 1012.0 -3.94533302898 True
gene 3 57 177 -8.0 False 1013.0 -8.0 True
gene 2 57 178 -0.047949863486 False 1014.0 -0.047949863486 True
gene 3 57 179 -5.89801422448 False 1015.0 -5.89801422448 True
gene 3 57 180 -4.28269321572 False 1016.0 -4.28269321572 True
gene 2 57 181 2.8428565779 False 1017.0 2.8428565779 True
gene 2 57 182 -7.44951100216 False 1018.0 -7.44951100216 True
gene 1 57 183 -8.0 False 1019.0 -8.0 True
gene 2 57 184 -5.59601116227 False 1020.0 -5.59601116227 True
gene 1 57 185 -6.49853531322 False 1021.0 -6.49853531322 True
gene 2 57 186 -1.10129370888 False 1022.0 -1.10129370888 True
gene 3 57 187 -3.00510408864 False 1023.0 -3.00510408864 True
gene 2 57 188 -1.62994298301 False 1024.0 -1.62994298301 True
gene 1 57 189 -8.0 False 1025.0 -8.0 True
gene 3 57 190 4.01120881968 False 1026.0 4.01120881968 True
gene 2 58 173 -1.1407213967 False 1027.0 -1.1407213967 True
gene 3 58 174 3.0521524899 False 1028.0 3.0521524899 True
gene 2 58 175 3.01406287512 False 1029.0 3.01406287512 True
gene 1 58 176 -1.91623832738 False 1030.0 -1.91623832738 True
gene 2 58 177 0.76946131681 False 1031.0 0.76946131681 True
gene 2 58 178 -3.92176641954 False 1032.0 -3.92176641954 True
gene 1 58 179 0.0855314608319 False 1033.0 0.0855314608319 True
gene 2 58 180 -4.57239176382 False 1034.0 -4.57239176382 True
gene 2 58 181 0.518542076293 False 1035.0 0.518542076293 True
gene 2 58 182 0.395887727937 False 1036.0 0.395887727937 True
gene 1 58 183 0.905533486631 False 1037.0 0.905533486631 True
gene 2 58 184 -1.92258085834 False 1038.0 -1.92258085834 True
gene 1 58 185 2.85363266536 False 1039.0 2.85363266536 True
gene 2 58 186 -4.3965382132 False 1040.0 -4.3965382132 True
gene 3 58 187 -7.84814561567 False 1041.0 -7.84814561567 True
gene 2 58 188 -3.87167978799 False 1042.0 -3.87167978799 True
gene 3 58 189 4.97133953617 False 1043.0 4.97133953617 True
gene 2 58 190 -2.93241492332 False 1044.0 -2.93241492332 True
gene 2 59 173 -6.27777996179 False 1045.0 -6.27777996179 True
gene 3 59 174 5.34165075863 False 1046.0 5.34165075863 True
gene 1 59 175 -4.24786214749 False 1047.0 -4.24786214749 True
gene 3 59 176 -1.88909796339 False 1048.0 -1.88909796339 True
gene 3 59 177 -3.44200624387 False 1049.0 -3.44200624387 True
gene 1 59 178 2.02084125116 False 1050.0 2.02084125116 True
gene 3 59 179 3.26113471647 False 1051.0 3.26113471647 True
gene 2 59 180 -3.61025912723 False 1052.0 -3.61025912723 True
gene 2 59 181 0.869471935979 False 1053.0 0.869471935979 True
gene 1 59 182 -3.70907131811 False 1054.0 -3.70907131811 True
gene 1 59 183 4.42541406258 False 1055.0 4.42541406258 True
gene 3 59 184 -1.12507006991 False 1056.0 -1.12507006991 True
gene 1 59 185 1.05340152206 False 1057.0 1.05340152206 True
gene 2 59 186 -1.98635039933 False 1058.0 -1.98635039933 True
gene 1 59 187 -4.35873308854 False 1059.0 -4.35873308854 True
gene 3 59 188 6.29233438052 False 1060.0 6.29233438052 True
gene 3 59 189 -8.0 False 1061.0 -8.0 True
gene 1 59 190 -2.50745748011 False 1062.0 -2.50745748011 True
gene 2 60 173 3.70730294727 False 1063.0 3.70730294727 True
gene 3 60 174 0.447232982839 False 1064.0 0.447232982839 True
gene 3 60 175 3.87704466782 False 1065.0 3.87704466782 True
gene 3 60 176 5.77937433569 False 1066.0 5.77937433569 True
gene 2 60 177 1.60242755968 False 1067.0 1.60242755968 True
gene 2 60 178 -5.95659603084 False 1068.0 -5.95659603084 True
gene 2 60 179 -2.16829986682 False 1069.0 -2.16829986682 True
gene 2 60 180 4.98987597332 False 1070.0 4.98987597332 True
gene 3 60 181 4.76821925291 False 1071.0 4.76821925291 True
gene 2 60 182 -5.87329481256 False 1072.0 -5.87329481256 True
gene 3 60 183 -3.12663918589 False 1073.0 -3.12663918589 True
gene 3 60 184 -3.96946716018 False 1074.0 -3.96946716018 True
gene 1 60 185 -1.91989946906 False 1075.0 -1.91989946906 True
gene 3 60 186 6.05341445996 False 1076.0 6.05341445996 True
gene 3 60 187 5.12439205966 False 1077.0 5.12439205966 True
gene 1 60 188 2.18187801058 False 1078.0 2.18187801058 True
gene 3 60 189 5.14928351538 False 1079.0 5.14928351538 True
gene 3 60 190 2.57791973552 False 1080.0 2.57791973552 True
gene 2 61 173 -5.2032622909 False 1081.0 -5.2032622909 True
gene 3 61 174 8.0 False 1082.0 8.0 True
gene 1 61 175 2.97059433884 False 1083.0 2.97059433884 True
gene 2 61 176 8.0 False 1084.0 8.0 True
gene 2 61 177 -0.950983954998 False 1085.0 -0.950983954998 True
gene 3 61 178 -1.29981199887 False 1086.0 -1.29981199887 True
gene 3 61 179 -5.36731280258 False 1087.0 -5.36731280258 True
gene 1 61 180 7.92964217133 False 1088.0 7.92964217133 True
gene 2 61 181 -6.55041044714 False 1089.0 -6.55041044714 True
gene 2 61 182 -1.3696576868 False 1090.0 -1.3696576868 True
gene 1 61 183 2.86361590551 False 1091.0 2.86361590551 True
gene 1 61 184 -1.74541443758 False 1092.0 -1.74541443758 True
gene 3 61 185 -7.57291351996 False 1093.0 -7.57291351996 True
gene 1 61 186 2.40320360499 False 1094.0 2.40320360499 True
gene 3 61 187 3.27205533188 False 1095.0 3.27205533188 True
gene 1 61 188 -1.1981867845 False 1096.0 -1.1981867845 True
gene 2 61 189 -4.75370151043 False 1097.0 -4.75370151043 True
gene 1 61 190 -7.6965387476 False 1098.0 -7.6965387476 True
gene 3 62 173 6.37624937743 False 1099.0 6.37624937743 True
gene 1 62 174 -3.43481725626 False 1100.0 -3.43481725626 True
gene 1 62 175 2.40404031931 False 1101.0 2.40404031931 True
gene 2 62 176 1.3084481254 False 1102.0 1.3084481254 True
gene 1 62 177 -0.813353174064 False 1103.0 -0.813353174064 True
gene 3 62 178 -0.845515084891 False 1104.0 -0.845515084891 True
gene 1 62 179 2.86804668509 False 1105.0 2.86804668509 True
gene 2 62 180 -4.24438490951 False 1106.0 -4.24438490951 True
gene 1 62 181 8.0 False 1107.0 8.0 True
gene 3 62 182 0.909611603243 False 1108.0 0.909611603243 True
gene 3 62 183 -5.32192346998 False 1109.0 -5.32192346998 True
gene 1 62 184 -1.47537279058 False 1110.0 -1.47537279058 True
gene 2 62 185 -5.45162378126 False 1111.0 -5.45162378126 True
gene 1 62 186 8.0 False 1112.0 8.0 True
gene 1 62 187 -0.47407694405 False 1113.0 -0.47407694405 True
gene 1 62 188 -0.664549712501 False 1114.0 -0.664549712501 True
gene 1 62 189 8.0 False 1115.0 8.0 True
gene 3 62 190 4.95014670105 False 1116.0 4.95014670105 True
gene 1 63 173 -6.59372304243 False 1117.0 -6.59372304243 True
gene 2 63 174 -4.5264070361 False 1118.0 -4.5264070361 True
gene 3 63 175 0.987007114544 False 1119.0 0.987007114544 True
gene 1 63 176 0.712337775575 False 1120.0 0.712337775575 True
gene 3 63 177 5.67936238562 False 1121.0 5.67936238562 True
gene 3 63 178 -3.12006752508 False 1122.0 -3.12006752508 True
gene 1 63 179 -0.192147263169 False 1123.0 -0.192147263169 True
gene 3 63 180 -3.62175886349 False 1124.0 -3.62175886349 True
gene 3 63 181 4.6701603308 False 1125.0 4.6701603308 True
gene 1 63 182 5.23542307628 False 1126.0 5.23542307628 True
gene 1 63 183 -4.64941340708 False 1127.0 -4.64941340708 True
gene 2 63 184 8.0 False 1128.0 8.0 True
gene 2 63 185 -5.60716260377 False 1129.0 -5.60716260377 True
gene 3 63 186 -0.864534093813 False 1130.0 -0.864534093813 True
gene 3 63 187 -4.85906740152 False 1131.0 -4.85906740152 True
gene 2 63 188 -7.69568773147 False 1132.0 -7.69568773147 True
gene 1 63 189 -3.18883227781 False 1133.0 -3.18883227781 True
gene 3 63 190 -4.60893343528 False 1134.0 -4.60893343528 True
gene 2 64 173 1.16749550476 False 1135.0 1.16749550476 True
gene 2 64 174 -8.0 False 1136.0 -8.0 True
gene 1 64 175 8.0 False 1137.0 8.0 True
gene 2 64 176 -0.383549760291 False 1138.0 -0.383549760291 True
gene 2 64 177 4.13888862404 False 1139.0 4.13888862404 True
gene 2 64 178 -2.84898815118 False 1140.0 -2.84898815118 True
gene 1 64 179 3.70452073752 False 1141.0 3.70452073752 True
gene 3 64 180 -0.616900618597 False 1142.0 -0.616900618597 True
gene 3 64 181 -3.33609124129 False 1143.0 -3.33609124129 True
gene 2 64 182 -7.69728945585 False 1144.0 -7.69728945585 True
gene 1 64 183 -3.21957110741 False 1145.0 -3.21957110741 True
gene 2 64 184 -2.97543368052 False 1146.0 -2.97543368052 True
gene 1 64 185 -4.21771777345 False 1147.0 -4.21771777345 True
gene 1 64 186 6.99418115422 False 1148.0 6.99418115422 True
gene 2 64 187 -2.73441746357 False 1149.0 -2.73441746357 True
gene 3 64 188 -7.1119080282 False 1150.0 -7.1119080282 True
gene 3 64 189 -5.60028213087 False 1151.0 -5.60028213087 True
gene 3 64 190 2.65332237263 False 1152.0 2.65332237263 True
gene 2 65 173 2.82118753454 False 1153.0 2.82118753454 True
gene 1 65 174 2.08171532719 False 1154.0 2.08171532719 True
gene 1 65 175 1.03462111254 False 1155.0 1.03462111254 True
gene 1 65 176 -2.00325208288 False 1156.0 -2.00325208288 True
gene 1 65 177 -8.0 False 1157.0 -8.0 True
gene 2 65 178 -8.0 False 1158.0 -8.0 True
gene 1 65 179 1.79187408077 False 1159.0 1.79187408077 True
gene 1 65 180 3.589972551 False 1160.0 3.589972551 True
gene 3 65 181 2.81983919213 False 1161.0 2.81983919213 True
gene 3 65 182 -0.8104205008 False 1162.0 -0.8104205008 True
gene 1 65 183 -4.59022598879 False 1163.0 -4.59022598879 True
gene 2 65 184 -1.66753667345 False 1164.0 -1.66753667345 True
gene 1 65 185 1.49404114334 False 1165.0 1.49404114334 True
gene 3 65 186 -3.71026048092 False 1166.0 -3.71026048092 True
gene 3 65 187 -2.25524390446 False 1167.0 -2.25524390446 True
gene 3 65 188 1.78462314384 False 1168.0 1.78462314384 True
gene 1 65 189 4.63040454183 False 1169.0 4.63040454183 True
gene 1 65 190 -4.38913358902 False 1170.0 -4.38913358902 True
gene 2 66 173 0.537466004713 False 1171.0 0.537466004713 True
gene 1 66 174 3.65303005319 False 1172.0 3.65303005319 True
gene 1 66 175 1.37029696561 False 1173.0 1.37029696561 True
gene 2 66 176 4.99383470091 False 1174.0 4.99383470091 True
gene 3 66 177 1.4938203527 False 1175.0 1.4938203527 True
gene 1 66 178 2.56251612622 False 1176.0 2.56251612622 True
gene 3 66 179 -7.06661117935 False 1177.0 -7.06661117935 True
gene 2 66 180 -1.63203363496 False 1178.0 -1.63203363496 True
gene 3 66 181 3.97292015888 False 1179.0 3.97292015888 True
gene 2 66 182 -5.01874814638 False 1180.0 -5.01874814638 True
gene 3 66 183 0.984247486587 False 1181.0 0.984247486587 True
gene 1 66 184 6.72517877906 False 1182.0 6.72517877906 True
gene 3 66 185 3.52661591629 False 1183.0 3.52661591629 True
gene 2 66 186 -2.64131479803 False 1184.0 -2.64131479803 True
gene 2 66 187 0.805491885836 False 1185.0 0.805491885836 True
gene 1 66 188 -5.70747494837 False 1186.0 -5.70747494837 True
gene 2 66 189 -3.85387169255 False 1187.0 -3.85387169255 True
gene 2 66 190 4.28269458318 False 1188.0 4.28269458318 True
gene 3 67 173 1.75574691088 False 1189.0 1.75574691088 True
gene 1 67 174 2.42140143803 False 1190.0 2.42140143803 True
gene 2 67 175 -8.0 False 1191.0 -8.0 True
gene 1 67 176 -0.776050003009 False 1192.0 -0.776050003009 True
gene 1 67 177 0.45145560592 False 1193.0 0.45145560592 True
gene 3 67 178 -3.06078292928 False 1194.0 -3.06078292928 True
gene 1 67 179 -0.644092509661 False 1195.0 -0.644092509661 True
gene 1 67 180 7.89140535412 False 1196.0 7.89140535412 True
gene 1 67 181 -1.45659787376 False 1197.0 -1.45659787376 True
gene 3 67 182 2.57813919065 False 1198.0 2.57813919065 True
gene 2 67 183 4.00457440791 False 1199.0 4.00457440791 True
gene 1 67 184 2.29690917376 False 1200.0 2.29690917376 True
gene 1 67 185 -1.73937937455 False 1201.0 -1.73937937455 True
gene 1 67 186 -4.47386382734 False 1202.0 -4.47386382734 True
gene 1 67 187 6.38097833553 False 1203.0 6.38097833553 True
gene 1 67 188 -3.96801880258 False 1204.0 -3.96801880258 True
gene 1 67 189 -1.19912068852 False 1205.0 -1.19912068852 True
gene 1 67 190 -7.03047092758 False 1206.0 -7.03047092758 True
gene 3 68 173 3.45362475361 False 1207.0 3.45362475361 True
gene 1 68 174 -5.74937703171 False 1208.0 -5.74937703171 True
gene 1 68 175 6.85582934621 False 1209.0 6.85582934621 True
gene 3 68 176 0.416833434213 False 1210.0 0.416833434213 True
gene 2 68 177 -7.0595388036 False 1211.0 -7.0595388036 True
gene 3 68 178 6.73419813128 False 1212.0 6.73419813128 True
gene 1 68 179 0.313943857463 False 1213.0 0.313943857463 True
gene 3 68 180 2.58596634154 False 1214.0 2.58596634154 True
gene 2 68 181 0.0704926364717 False 1215.0 0.0704926364717 True
gene 2 68 182 -3.91396688921 False 1216.0 -3.91396688921 True
gene 2 68 183 -4.8685352846 False 1217.0 -4.8685352846 True
gene 2 68 184 -1.88956450461 False 1218.0 -1.88956450461 True
gene 1 68 185 -2.51711221813 False 1219.0 -2.51711221813 True
gene 3 68 186 -7.76775069793 False 1220.0 -7.76775069793 True
gene 1 68 187 -0.705498481647 False 1221.0 -0.705498481647 True
gene 2 68 188 8.0 False 1222.0 8.0 True
gene 2 68 189 -2.04545804624 False 1223.0 -2.04545804624 True
gene 3 68 190 3.47728496841 False 1224.0 3.47728496841 True
gene 1 69 173 1.16623165546 False 1225.0 1.16623165546 True
gene 3 69 174 0.135950962364 False 1226.0 0.135950962364 True
gene 3 69 175 1.73771025994 False 1227.0 1.73771025994 True
gene 3 69 176 -5.49054600458 False 1228.0 -5.49054600458 True
gene 3 69 177 -0.494446935914 False 1229.0 -0.494446935914 True
gene 3 69 178 1.33683149619 False 1230.0 1.33683149619 True
gene 1 69 179 -7.10753655413 False 1231.0 -7.10753655413 True
gene 2 69 180 -0.29974375702 False 1232.0 -0.29974375702 True
gene 3 69 181 1.27963463637 False 1233.0 1.27963463637 True
gene 2 69 182 -3.68131473687 False 1234.0 -3.68131473687 True
gene 2 69 183 -4.57970993906 False 1235.0 -4.57970993906 True
gene 3 69 184 -3.53941463512 False 1236.0 -3.53941463512 True
gene 2 69 185 4.0975804912 False 1237.0 4.0975804912 True
gene 2 69 186 -5.22612922448 False 1238.0 -5.22612922448 True
gene 3 69 187 -3.59442767872 False 1239.0 -3.59442767872 True
gene 2 69 188 6.16147400162 False 1240.0 6.16147400162 True
gene 2 69 189 -6.61850746537 False 1241.0 -6.61850746537 True
gene 1 69 190 1.99858073495 False 1242.0 1.99858073495 True
gene 3 70 173 2.52953095467 False 1243.0 2.52953095467 True
gene 2 70 174 0.539075457089 False 1244.0 0.539075457089 True
gene 1 70 175 6.8313502595 False 1245.0 6.8313502595 True
gene 3 70 176 5.12931204897 False 1246.0 5.12931204897 True
gene 3 70 177 -2.93386592284 False 1247.0 -2.93386592284 True
gene 3 70 178 -8.0 False 1248.0 -8.0 True
gene 3 70 179 1.27796686726 False 1249.0 1.27796686726 True
gene 2 70 180 -2.09458514554 False 1250.0 -2.09458514554 True
gene 1 70 181 3.48124697886 False 1251.0 3.48124697886 True
gene 2 70 182 -0.441467205994 False 1252.0 -0.441467205994 True
gene 3 70 183 5.6607069994 False 1253.0 5.6607069994 True
gene 2 70 184 3.63939406591 False 1254.0 3.63939406591 True
gene 1 70 185 -2.85318568672 False 1255.0 -2.85318568672 True
gene 2 70 186 -0.107094731938 False 1256.0 -0.107094731938 True
gene 3 70 187 -1.31940826668 False 1257.0 -1.31940826668 True
gene 1 70 188 2.35146615875 False 1258.0 2.35146615875 True
gene 3 70 189 -8.0 False 1259.0 -8.0 True
gene 2 70 190 2.59288437802 False 1260.0 2.59288437802 True
gene 1 71 173 -4.24765016749 False 1261.0 -4.24765016749 True
gene 1 71 174 -5.18664280298 False 1262.0 -5.18664280298 True
gene 1 71 175 1.99173062644 False 1263.0 1.99173062644 True
gene 2 71 176 4.12743719609 False 1264.0 4.12743719609 True
gene 3 71 177 -0.747655257942 False 1265.0 -0.747655257942 True
gene 3 71 178 2.11048782369 False 1266.0 2.11048782369 True
gene 2 71 179 -1.02273851457 False 1267.0 -1.02273851457 True
gene 3 71 180 2.98068908876 False 1268.0 2.98068908876 True
gene 1 71 181 -8.0 False 1269.0 -8.0 True
gene 1 71 182 -4.46546176473 False 1270.0 -4.46546176473 True
gene 1 71 183 -2.55338484504 False 1271.0 -2.55338484504 True
gene 1 71 184 -2.38946635945 False 1272.0 -2.38946635945 True
gene 2 71 185 3.039978054 False 1273.0 3.039978054 True
gene 1 71 186 -3.65281625836 False 1274.0 -3.65281625836 True
gene 1 71 187 -6.87327738339 False 1275.0 -6.87327738339 True
gene 3 71 188 1.6310160872 False 1276.0 1.6310160872 True
gene 2 71 189 2.45232940294 False 1277.0 2.45232940294 True
gene 3 71 190 -1.78955542161 False 1278.0 -1.78955542161 True
gene 1 72 173 -2.03293793089 False 1279.0 -2.03293793089 True
gene 3 72 174 3.70801729668 False 1280.0 3.70801729668 True
gene 1 72 175 3.26745140473 False 1281.0 3.26745140473 True
gene 1 72 176 1.29340928128 False 1282.0 1.29340928128 True
gene 1 72 177 2.81738005708 False 1283.0 2.81738005708 True
gene 3 72 178 -3.41519425483 False 1284.0 -3.41519425483 True
gene 3 72 179 -5.46210666067 False 1285.0 -5.46210666067 True
gene 3 72 180 -0.106239880244 False 1286.0 -0.106239880244 True
gene 3 72 181 0.533101205467 False 1287.0 0.533101205467 True
gene 1 72 182 2.09791419142 False 1288.0 2.09791419142 True
gene 1 72 183 1.24176516546 False 1289.0 1.24176516546 True
gene 1 72 184 -8.0 False 1290.0 -8.0 True
gene 1 72 185 -1.30545380544 False 1291.0 -1.30545380544 True
gene 1 72 186 4.80753787925 False 1292.0 4.80753787925 True
gene 2 72 187 1.85689322286 False 1293.0 1.85689322286 True
gene 3 72 188 3.60733093567 False 1294.0 3.60733093567 True
gene 2 72 189 -0.778082312254 False 1295.0 -0.778082312254 True
gene 3 72 190 -4.8710272256 False 1296.0 -4.8710272256 True
gene 3 73 173 -2.72222446978 False 1297.0 -2.72222446978 True
gene 3 73 174 -0.598864890262 False 1298.0 -0.598864890262 True
gene 2 73 175 -1.68283749809 False 1299.0 -1.68283749809 True
gene 2 73 176 1.27931291531 False 1300.0 1.27931291531 True
gene 3 73 177 -1.45457733204 False 1301.0 -1.45457733204 True
gene 1 73 178 -4.15498609216 False 1302.0 -4.15498609216 True
gene 2 73 179 -3.80850102311 False 1303.0 -3.80850102311 True
gene 3 73 180 4.00140209293 False 1304.0 4.00140209293 True
gene 2 73 181 -0.103154681119 False 1305.0 -0.103154681119 True
gene 2 73 182 0.501586082564 False 1306.0 0.501586082564 True
gene 3 73 183 -3.13199449181 False 1307.0 -3.13199449181 True
gene 3 73 184 -3.51783235832 False 1308.0 -3.51783235832 True
gene 1 73 185 7.86830565787 False 1309.0 7.86830565787 True
gene 2 73 186 4.26123728611 False 1310.0 4.26123728611 True
gene 1 73 187 1.11880789001 False 1311.0 1.11880789001 True
gene 3 73 188 -3.29221188946 False 1312.0 -3.29221188946 True
gene 2 73 189 -2.0910332346 False 1313.0 -2.0910332346 True
gene 1 73 190 4.24998728484 False 1314.0 4.24998728484 True
gene 1 74 173 -1.33490486036 False 1315.0 -1.33490486036 True
gene 2 74 174 -5.51927421024 False 1316.0 -5.51927421024 True
gene 2 74 175 1.91066732175 False 1317.0 1.91066732175 True
gene 2 74 176 -3.93805638801 False 1318.0 -3.93805638801 True
gene 2 74 177 3.5863188819 False 1319.0 3.5863188819 True
gene 3 74 178 -2.23671447118 False 1320.0 -2.23671447118 True
gene 3 74 179 2.18813795921 False 1321.0 2.18813795921 True
gene 3 74 180 -1.77995348561 False 1322.0 -1.77995348561 True
gene 1 74 181 6.86734865649 False 1323.0 6.86734865649 True
gene 2 74 182 -0.887058723277 False 1324.0 -0.887058723277 True
gene 3 74 183 -3.01442479836 False 1325.0 -3.01442479836 True
gene 1 74 184 -1.31895264681 False 1326.0 -1.31895264681 True
gene 1 74 185 0.984892679489 False 1327.0 0.984892679489 True
gene 2 74 186 1.58579837463 False 1328.0 1.58579837463 True
gene 3 74 187 5.78514143354 False 1329.0 5.78514143354 True
gene 2 74 188 4.2866379551 False 1330.0 4.2866379551 True
gene 2 74 189 -7.35964405187 False 1331.0 -7.35964405187 True
gene 1 74 190 2.54592636836 False 1332.0 2.54592636836 True
gene 1 75 173 -5.02618396554 False 1333.0 -5.02618396554 True
gene 1 75 174 1.92208572618 False 1334.0 1.92208572618 True
gene 2 75 175 2.06323949202 False 1335.0 2.06323949202 True
gene 3 75 176 -1.84239327109 False 1336.0 -1.84239327109 True
gene 3 75 177 -2.78177156421 False 1337.0 -2.78177156421 True
gene 3 75 178 7.28774537017 False 1338.0 7.28774537017 True
gene 3 75 179 3.86600452861 False 1339.0 3.86600452861 True
gene 3 75 180 -1.41718814964 False 1340.0 -1.41718814964 True
gene 1 75 181 2.7261455733 False 1341.0 2.7261455733 True
gene 2 75 182 -2.24232793271 False 1342.0 -2.24232793271 True
gene 3 75 183 -1.27830628491 False 1343.0 -1.27830628491 True
gene 3 75 184 6.07803767155 False 1344.0 6.07803767155 True
gene 1 75 185 -0.996132085071 False 1345.0 -0.996132085071 True
gene 1 75 186 1.61675398117 False 1346.0 1.61675398117 True
gene 2 75 187 1.59509688211 False 1347.0 1.59509688211 True
gene 1 75 188 5.29093282603 False 1348.0 5.29093282603 True
gene 3 75 189 -1.26012924712 False 1349.0 -1.26012924712 True
gene 2 75 190 -1.91516409491 False 1350.0 -1.91516409491 True
gene 1 76 173 2.0479507751 False 1351.0 2.0479507751 True
gene 2 76 174 -4.44543664436 False 1352.0 -4.44543664436 True
gene 3 76 175 -2.2542767593 False 1353.0 -2.2542767593 True
gene 2 76 176 -6.08542404373 False 1354.0 -6.08542404373 True
gene 1 76 177 -4.42337875667 False 1355.0 -4.42337875667 True
gene 1 76 178 2.01665084178 False 1356.0 2.01665084178 True
gene 1 76 179 -6.70701927149 False 1357.0 -6.70701927149 True
gene 1 76 180 -6.00266758456 False 1358.0 -6.00266758456 True
gene 1 76 181 7.58570335942 False 1359.0 7.58570335942 True
gene 1 76 182 -0.825871965725 False 1360.0 -0.825871965725 True
gene 1 76 183 -0.26269838978 False 1361.0 -0.26269838978 True
gene 3 76 184 3.40948839759 False 1362.0 3.40948839759 True
gene 3 76 185 -7.50191546522 False 1363.0 -7.50191546522 True
gene 1 76 186 6.04597686533 False 1364.0 6.04597686533 True
gene 1 76 187 6.01716650317 False 1365.0 6.01716650317 True
gene 2 76 188 -2.57220137382 False 1366.0 -2.57220137382 True
gene 3 76 189 -8.0 False 1367.0 -8.0 True
gene 1 76 190 0.962843477487 False 1368.0 0.962843477487 True
gene 2 77 173 -1.29663765124 False 1369.0 -1.29663765124 True
gene 2 77 174 -1.50236505052 False 1370.0 -1.50236505052 True
gene 2 77 175 5.64106864792 False 1371.0 5.64106864792 True
gene 3 77 176 0.899611405736 False 1372.0 0.899611405736 True
gene 1 77 177 0.0755780892644 False 1373.0 0.0755780892644 True
gene 2 77 178 -1.46716096428 False 1374.0 -1.46716096428 True
gene 1 77 179 3.47176053638 False 1375.0 3.47176053638 True
gene 1 77 180 -0.914716073572 False 1376.0 -0.914716073572 True
gene 3 77 181 -7.89206973376 False 1377.0 -7.89206973376 True
gene 1 77 182 -1.94478769308 False 1378.0 -1.94478769308 True
gene 3 77 183 -2.68942581647 False 1379.0 -2.68942581647 True
gene 2 77 184 3.17769907734 False 1380.0 3.17769907734 True
gene 1 77 185 1.622085013 False 1381.0 1.622085013 True
gene 2 77 186 -7.92057438216 False 1382.0 -7.92057438216 True
gene 2 77 187 -8.0 False 1383.0 -8.0 True
gene 1 77 188 -6.24460529938 False 1384.0 -6.24460529938 True
gene 3 77 189 -1.36484484838 False 1385.0 -1.36484484838 True
gene 1 77 190 -5.16730426587 False 1386.0 -5.16730426587 True
gene 3 78 173 -4.53892988779 False 1387.0 -4.53892988779 True
gene 3 78 174 1.03249370813 False 1388.0 1.03249370813 True
gene 1 78 175 2.72856750395 False 1389.0 2.72856750395 True
gene 2 78 176 0.0755976883939 False 1390.0 0.0755976883939 True
gene 3 78 177 0.917289222285 False 1391.0 0.917289222285 True
gene 1 78 178 -4.599960034 False 1392.0 -4.599960034 True
gene 1 78 179 -3.24502239461 False 1393.0 -3.24502239461 True
gene 1 78 180 1.66561654001 False 1394.0 1.66561654001 True
gene 1 78 181 8.0 False 1395.0 8.0 True
gene 1 78 182 3.87684871567 False 1396.0 3.87684871567 True
gene 2 78 183 -4.59592026676 False 1397.0 -4.59592026676 True
gene 3 78 184 -2.55951595409 False 1398.0 -2.55951595409 True
gene 3 78 185 4.82958389068 False 1399.0 4.82958389068 True
gene 1 78 186 8.0 False 1400.0 8.0 True
gene 2 78 187 -2.06697216928 False 1401.0 -2.06697216928 True
gene 2 78 188 -3.87381450504 False 1402.0 -3.87381450504 True
gene 2 78 189 8.0 False 1403.0 8.0 True
gene 3 78 190 4.55504880668 False 1404.0 4.55504880668 True
gene 3 79 173 8.0 False 1405.0 8.0 True
gene 1 79 174 -1.63976665872 False 1406.0 -1.63976665872 True
gene 1 79 175 -5.88108546604 False 1407.0 -5.88108546604 True
gene 3 79 176 2.55864858272 False 1408.0 2.55864858272 True
gene 3 79 177 0.543269859975 False 1409.0 0.543269859975 True
gene 2 79 178 6.54783357002 False 1410.0 6.54783357002 True
gene 3 79 179 1.82179251693 False 1411.0 1.82179251693 True
gene 2 79 180 -1.01406264071 False 1412.0 -1.01406264071 True
gene 1 79 181 -6.6954829342 False 1413.0 -6.6954829342 True
gene 3 79 182 -4.62749028665 False 1414.0 -4.62749028665 True
gene 1 79 183 0.508930390903 False 1415.0 0.508930390903 True
gene 1 79 184 2.28045552908 False 1416.0 2.28045552908 True
gene 1 79 185 -2.67766196457 False 1417.0 -2.67766196457 True
gene 1 79 186 -5.02066889539 False 1418.0 -5.02066889539 True
gene 3 79 187 -1.63494130382 False 1419.0 -1.63494130382 True
gene 1 79 188 -1.61559784848 False 1420.0 -1.61559784848 True
gene 3 79 189 -1.46468744193 False 1421.0 -1.46468744193 True
gene 1 79 190 -5.47971213197 False 1422.0 -5.47971213197 True
gene 2 80 173 2.58312844012 False 1423.0 2.58312844012 True
gene 1 80 174 -2.27594546548 False 1424.0 -2.27594546548 True
gene 3 80 175 -5.90691764924 False 1425.0 -5.90691764924 True
gene 3 80 176 2.53948262861 False 1426.0 2.53948262861 True
gene 2 80 177 0.15959292446 False 1427.0 0.15959292446 True
gene 1 80 178 2.46134173275 False 1428.0 2.46134173275 True
gene 3 80 179 8.0 False 1429.0 8.0 True
gene 2 80 180 -5.67831559493 False 1430.0 -5.67831559493 True
gene 3 80 181 1.04474111687 False 1431.0 1.04474111687 True
gene 2 80 182 0.869767783887 False 1432.0 0.869767783887 True
gene 3 80 183 -2.08002510465 False 1433.0 -2.08002510465 True
gene 2 80 184 -1.79269801138 False 1434.0 -1.79269801138 True
gene 3 80 185 8.0 False 1435.0 8.0 True
gene 1 80 186 2.07316799647 False 1436.0 2.07316799647 True
gene 2 80 187 3.54262022151 False 1437.0 3.54262022151 True
gene 1 80 188 8.0 False 1438.0 8.0 True
gene 2 80 189 0.724791389067 False 1439.0 0.724791389067 True
gene 3 80 190 -3.79664822544 False 1440.0 -3.79664822544 True
gene 3 81 173 -8.0 False 1441.0 -8.0 True
gene 2 81 174 -5.95496518687 False 1442.0 -5.95496518687 True
gene 1 81 175 5.55798195454 False 1443.0 5.55798195454 True
gene 1 81 176 0.0705012249535 False 1444.0 0.0705012249535 True
gene 3 81 177 2.09514254201 False 1445.0 2.09514254201 True
gene 1 81 178 -6.24938535729 False 1446.0 -6.24938535729 True
gene 1 81 179 7.75252188071 False 1447.0 7.75252188071 True
gene 2 81 180 -8.0 False 1448.0 -8.0 True
gene 2 81 181 1.62017156056 False 1449.0 1.62017156056 True
gene 3 81 182 4.20352458848 False 1450.0 4.20352458848 True
gene 1 81 183 -1.69039500454 False 1451.0 -1.69039500454 True
gene 1 81 184 -0.172230476105 False 1452.0 -0.172230476105 True
gene 2 81 185 -8.0 False 1453.0 -8.0 True
gene 1 81 186 2.54463941431 False 1454.0 2.54463941431 True
gene 3 81 187 -5.68130631002 False 1455.0 -5.68130631002 True
gene 1 81 188 -4.94158246732 False 1456.0 -4.94158246732 True
gene 1 81 189 3.49805409378 False 1457.0 3.49805409378 True
gene 1 81 190 -5.83143992198 False 1458.0 -5.83143992198 True
gene 3 82 173 1.37376617961 False 1459.0 1.37376617961 True
gene 1 82 174 -3.61880115478 False 1460.0 -3.61880115478 True
gene 1 82 175 -7.34093386712 False 1461.0 -7.34093386712 True
gene 2 82 176 -8.0 False 1462.0 -8.0 True
gene 3 82 177 4.84926097646 False 1463.0 4.84926097646 True
gene 2 82 178 1.15374481288 False 1464.0 1.15374481288 True
gene 3 82 179 -2.21136711583 False 1465.0 -2.21136711583 True
gene 3 82 180 5.48824722387 False 1466.0 5.48824722387 True
gene 3 82 181 4.26439090932 False 1467.0 4.26439090932 True
gene 2 82 182 3.41374712396 False 1468.0 3.41374712396 True
gene 1 82 183 0.671044962862 False 1469.0 0.671044962862 True
gene 1 82 184 -8.0 False 1470.0 -8.0 True
gene 1 82 185 1.22819019545 False 1471.0 1.22819019545 True
gene 1 82 186 -0.272279025334 False 1472.0 -0.272279025334 True
gene 2 82 187 4.48477478239 False 1473.0 4.48477478239 True
gene 1 82 188 -5.28412174434 False 1474.0 -5.28412174434 True
gene 3 82 189 1.97006540207 False 1475.0 1.97006540207 True
gene 2 82 190 -1.05314847202 False 1476.0 -1.05314847202 True
gene 2 83 173 -2.38684372541 False 1477.0 -2.38684372541 True
gene 3 83 174 4.93543434278 False 1478.0 4.93543434278 True
gene 3 83 175 0.613715745341 False 1479.0 0.613715745341 True
gene 1 83 176 4.89254541955 False 1480.0 4.89254541955 True
gene 2 83 177 4.47109395014 False 1481.0 4.47109395014 True
gene 1 83 178 -4.11804552033 False 1482.0 -4.11804552033 True
gene 2 83 179 1.53834279277 False 1483.0 1.53834279277 True
gene 1 83 180 -2.35346514926 False 1484.0 -2.35346514926 True
gene 2 83 181 -2.51200942448 False 1485.0 -2.51200942448 True
gene 3 83 182 2.71033364904 False 1486.0 2.71033364904 True
gene 2 83 183 5.03242436561 False 1487.0 5.03242436561 True
gene 3 83 184 2.94897895094 False 1488.0 2.94897895094 True
gene 2 83 185 3.11752474918 False 1489.0 3.11752474918 True
gene 3 83 186 5.16310696188 False 1490.0 5.16310696188 True
gene 1 83 187 1.62742355433 False 1491.0 1.62742355433 True
gene 1 83 188 -0.043772645669 False 1492.0 -0.043772645669 True
gene 3 83 189 5.0022282289 False 1493.0 5.0022282289 True
gene 3 83 190 -0.523456063898 False 1494.0 -0.523456063898 True
gene 3 84 173 -3.28598107517 False 1495.0 -3.28598107517 True
gene 3 84 174 -2.7558934595 False 1496.0 -2.7558934595 True
gene 3 84 175 2.7428704488 False 1497.0 2.7428704488 True
gene 2 84 176 -7.41481578601 False 1498.0 -7.41481578601 True
gene 1 84 177 1.53743801965 False 1499.0 1.53743801965 True
gene 3 84 178 -0.397564040385 False 1500.0 -0.397564040385 True
gene 1 84 179 2.12979935868 False 1501.0 2.12979935868 True
gene 2 84 180 5.87213401999 False 1502.0 5.87213401999 True
gene 1 84 181 -3.53650704925 False 1503.0 -3.53650704925 True
gene 2 84 182 2.72740878823 False 1504.0 2.72740878823 True
gene 1 84 183 -6.19981341076 False 1505.0 -6.19981341076 True
gene 3 84 184 -1.4774919269 False 1506.0 -1.4774919269 True
gene 2 84 185 -0.936405574372 False 1507.0 -0.936405574372 True
gene 2 84 186 5.05463204901 False 1508.0 5.05463204901 True
gene 2 84 187 0.261896849266 False 1509.0 0.261896849266 True
gene 2 84 188 -0.27145015408 False 1510.0 -0.27145015408 True
gene 3 84 189 -6.10715225223 False 1511.0 -6.10715225223 True
gene 3 84 190 5.09315511877 False 1512.0 5.09315511877 True
gene 1 85 173 -5.80812630709 False 1513.0 -5.80812630709 True
gene 1 85 174 3.79031059109 False 1514.0 3.79031059109 True
gene 2 85 175 0.57450535846 False 1515.0 0.57450535846 True
gene 1 85 176 -0.645414681786 False 1516.0 -0.645414681786 True
gene 3 85 177 -5.91956185577 False 1517.0 -5.91956185577 True
gene 3 85 178 -5.36350117181 False 1518.0 -5.36350117181 True
gene 3 85 179 3.7789883563 False 1519.0 3.7789883563 True
gene 3 85 180 4.40856639905 False 1520.0 4.40856639905 True
gene 3 85 181 -2.12761244104 False 1521.0 -2.12761244104 True
gene 3 85 182 4.6319291934 False 1522.0 4.6319291934 True
gene 3 85 183 1.72847357562 False 1523.0 1.72847357562 True
gene 1 85 184 -5.49653852228 False 1524.0 -5.49653852228 True
gene 3 85 185 -0.517552649007 False 1525.0 -0.517552649007 True
gene 3 85 186 -1.79088751716 False 1526.0 -1.79088751716 True
gene 1 85 187 3.38958467322 False 1527.0 3.38958467322 True
gene 3 85 188 7.63372117471 False 1528.0 7.63372117471 True
gene 1 85 189 5.02282272153 False 1529.0 5.02282272153 True
gene 1 85 190 -4.8866709706 False 1530.0 -4.8866709706 True
gene 1 86 173 1.04543657592 False 1531.0 1.04543657592 True
gene 1 86 174 2.32843770202 False 1532.0 2.32843770202 True
gene 3 86 175 1.63823723937 False 1533.0 1.63823723937 True
gene 1 86 176 5.17133876867 False 1534.0 5.17133876867 True
gene 1 86 177 -3.67420961788 False 1535.0 -3.67420961788 True
gene 3 86 178 -2.70339685832 False 1536.0 -2.70339685832 True
gene 3 86 179 -5.9175050601 False 1537.0 -5.9175050601 True
gene 2 86 180 8.0 False 1538.0 8.0 True
gene 2 86 181 5.92428383363 False 1539.0 5.92428383363 True
gene 2 86 182 -4.05969632077 False 1540.0 -4.05969632077 True
gene 3 86 183 -3.53022607402 False 1541.0 -3.53022607402 True
gene 3 86 184 4.53200736339 False 1542.0 4.53200736339 True
gene 1 86 185 -2.51101472333 False 1543.0 -2.51101472333 True
gene 1 86 186 0.857405705051 False 1544.0 0.857405705051 True
gene 3 86 187 -3.72564012327 False 1545.0 -3.72564012327 True
gene 1 86 188 -0.315571079325 False 1546.0 -0.315571079325 True
gene 2 86 189 3.50008754777 False 1547.0 3.50008754777 True
gene 2 86 190 -8.0 False 1548.0 -8.0 True
gene 1 87 173 1.23978562137 False 1549.0 1.23978562137 True
gene 1 87 174 -2.23129622705 False 1550.0 -2.23129622705 True
gene 3 87 175 -7.88765707205 False 1551.0 -7.88765707205 True
gene 2 87 176 -6.48637405376 False 1552.0 -6.48637405376 True
gene 2 87 177 6.56290639718 False 1553.0 6.56290639718 True
gene 3 87 178 -2.73489339256 False 1554.0 -2.73489339256 True
gene 2 87 179 -4.73032245674 False 1555.0 -4.73032245674 True
gene 2 87 180 -6.62265704736 False 1556.0 -6.62265704736 True
gene 3 87 181 -7.9149240585 False 1557.0 -7.9149240585 True
gene 1 87 182 -6.83020642211 False 1558.0 -6.83020642211 True
gene 2 87 183 7.70079245108 False 1559.0 7.70079245108 True
gene 2 87 184 7.30961600016 False 1560.0 7.30961600016 True
gene 3 87 185 0.720470334292 False 1561.0 0.720470334292 True
gene 1 87 186 0.109858402074 False 1562.0 0.109858402074 True
gene 2 87 187 1.74258373337 False 1563.0 1.74258373337 True
gene 1 87 188 8.0 False 1564.0 8.0 True
gene 1 87 189 -4.55339839104 False 1565.0 -4.55339839104 True
gene 2 87 190 -3.46151435015 False 1566.0 -3.46151435015 True
gene 3 88 173 -3.6476099809 False 1567.0 -3.6476099809 True
gene 3 88 174 0.955417795069 False 1568.0 0.955417795069 True
gene 1 88 175 7.6249430485 False 1569.0 7.6249430485 True
gene 3 88 176 -2.61043892084 False 1570.0 -2.61043892084 True
gene 2 88 177 3.55648737625 False 1571.0 3.55648737625 True
gene 2 88 178 -7.7248237666 False 1572.0 -7.7248237666 True
gene 3 88 179 -5.11907444754 False 1573.0 -5.11907444754 True
gene 2 88 180 1.06952264199 False 1574.0 1.06952264199 True
gene 2 88 181 1.5052623994 False 1575.0 1.5052623994 True
gene 2 88 182 -3.12493294753 False 1576.0 -3.12493294753 True
gene 1 88 183 3.67385668587 False 1577.0 3.67385668587 True
gene 2 88 184 -2.70277056951 False 1578.0 -2.70277056951 True
gene 1 88 185 -5.52615401419 False 1579.0 -5.52615401419 True
gene 3 88 186 -5.77896049548 False 1580.0 -5.77896049548 True
gene 2 88 187 2.36870643725 False 1581.0 2.36870643725 True
gene 2 88 188 1.63287399476 False 1582.0 1.63287399476 True
gene 3 88 189 -5.97522302208 False 1583.0 -5.97522302208 True
gene 3 88 190 -7.02655753096 False 1584.0 -7.02655753096 True
gene 3 89 173 -5.01145493406 False 1585.0 -5.01145493406 True
gene 1 89 174 4.57657939882 False 1586.0 4.57657939882 True
gene 1 89 175 0.53158648484 False 1587.0 0.53158648484 True
gene 3 89 176 -8.0 False 1588.0 -8.0 True
gene 2 89 177 2.55788967287 False 1589.0 2.55788967287 True
gene 3 89 178 1.07625845319 False 1590.0 1.07625845319 True
gene 1 89 179 7.01595653008 False 1591.0 7.01595653008 True
gene 1 89 180 5.08432525198 False 1592.0 5.08432525198 True
gene 3 89 181 -0.915764179398 False 1593.0 -0.915764179398 True
gene 1 89 182 -2.43743066821 False 1594.0 -2.43743066821 True
gene 3 89 183 3.53678839044 False 1595.0 3.53678839044 True
gene 1 89 184 -3.18455379549 False 1596.0 -3.18455379549 True
gene 3 89 185 0.354526595809 False 1597.0 0.354526595809 True
gene 2 89 186 1.26648580109 False 1598.0 1.26648580109 True
gene 2 89 187 5.96545098459 False 1599.0 5.96545098459 True
gene 1 89 188 -5.0259381208 False 1600.0 -5.0259381208 True
gene 2 89 189 -7.22927773604 False 1601.0 -7.22927773604 True
gene 1 89 190 6.43871173001 False 1602.0 6.43871173001 True
gene 1 90 173 -8.0 False 1603.0 -8.0 True
gene 2 90 174 -5.23107174931 False 1604.0 -5.23107174931 True
gene 2 90 175 6.51157228202 False 1605.0 6.51157228202 True
gene 1 90 176 -1.81750091827 False 1606.0 -1.81750091827 True
gene 3 90 177 3.27914182532 False 1607.0 3.27914182532 True
gene 1 90 178 0.182342321068 False 1608.0 0.182342321068 True
gene 2 90 179 5.23412748978 False 1609.0 5.23412748978 True
gene 3 90 180 -6.43155459449 False 1610.0 -6.43155459449 True
gene 3 90 181 2.70716693305 False 1611.0 2.70716693305 True
gene 1 90 182 6.08708584512 False 1612.0 6.08708584512 True
gene 1 90 183 -1.84224728621 False 1613.0 -1.84224728621 True
gene 1 90 184 -3.63661598883 False 1614.0 -3.63661598883 True
gene 2 90 185 1.11769680992 False 1615.0 1.11769680992 True
gene 2 90 186 5.50359533536 False 1616.0 5.50359533536 True
gene 2 90 187 -6.62800098473 False 1617.0 -6.62800098473 True
gene 1 90 188 -1.90837975325 False 1618.0 -1.90837975325 True
gene 3 90 189 -3.38148790891 False 1619.0 -3.38148790891 True
gene 2 90 190 3.38156366807 False 1620.0 3.38156366807 True
gene 3 91 173 -2.81108283417 False 1621.0 -2.81108283417 True
gene 2 91 174 0.47045881621 False 1622.0 0.47045881621 True
gene 1 91 175 0.839693846944 False 1623.0 0.839693846944 True
gene 2 91 176 1.62856714122 False 1624.0 1.62856714122 True
gene 3 91 177 5.71596646035 False 1625.0 5.71596646035 True
gene 1 91 178 -5.19708684914 False 1626.0 -5.19708684914 True
gene 1 91 179 5.45435303823 False 1627.0 5.45435303823 True
gene 3 91 180 -0.179074822747 False 1628.0 -0.179074822747 True
gene 3 91 181 0.250750423616 False 1629.0 0.250750423616 True
gene 1 91 182 -0.601216835029 False 1630.0 -0.601216835029 True
gene 2 91 183 6.7062434105 False 1631.0 6.7062434105 True
gene 1 91 184 0.219064724657 False 1632.0 0.219064724657 True
gene 3 91 185 -1.39418831521 False 1633.0 -1.39418831521 True
gene 2 91 186 0.808723146184 False 1634.0 0.808723146184 True
gene 1 91 187 3.91011023276 False 1635.0 3.91011023276 True
gene 3 91 188 6.06089318989 False 1636.0 6.06089318989 True
gene 2 91 189 2.6365823876 False 1637.0 2.6365823876 True
gene 3 91 190 1.00782665077 False 1638.0 1.00782665077 True
gene 3 92 173 -0.732444424858 False 1639.0 -0.732444424858 True
