genomestart 1
trait 1 0.1 0 0 0 0 0 0 0
trait 2 0.2 0 0 0 0 0 0 0
trait 3 0.3 0 0 0 0 0 0 0
node 1 0 1 3
node 2 0 1 1
node 3 0 1 1
node 4 0 1 1
node 5 0 1 1
node 6 0 1 1
node 7 0 1 1
node 8 0 1 1
node 9 0 1 1
node 10 0 1 1
node 11 0 1 1
node 12 0 1 1
node 13 0 1 1
node 14 0 1 1
node 15 0 1 1
node 16 0 1 1
node 17 0 1 1
node 18 0 1 1
node 19 0 1 1
node 20 0 1 1
node 21 0 1 1
node 22 0 1 1
node 23 0 1 1
node 24 0 1 1
node 25 0 1 1
node 26 0 1 1
node 27 0 1 1
node 28 0 1 1
node 29 0 1 1
node 30 0 1 1
node 31 0 1 1
node 32 0 1 1
node 33 0 1 1
node 34 0 1 1
node 35 0 1 1
node 36 0 1 1
node 37 0 1 1
node 38 0 1 1
node 39 0 1 1
node 40 0 1 1
node 41 0 1 1
node 42 0 1 1
node 43 0 1 1
node 44 0 1 1
node 45 0 1 1
node 46 0 1 1
node 47 0 1 1
node 48 0 1 1
node 49 0 1 1
node 50 0 1 1
node 51 0 1 1
node 52 0 1 1
node 53 0 1 1
node 54 0 1 1
node 55 0 1 1
node 56 0 1 1
node 57 0 1 1
node 58 0 1 1
node 59 0 1 1
node 60 0 1 1
node 61 0 1 1
node 62 0 1 1
node 63 0 1 1
node 64 0 1 1
node 65 0 1 1
node 66 0 1 1
node 67 0 1 1
node 68 0 1 1
node 69 0 1 1
node 70 0 1 1
node 71 0 1 1
node 72 0 1 1
node 73 0 1 1
node 74 0 1 1
node 75 0 1 1
node 76 0 1 1
node 77 0 1 1
node 78 0 1 1
node 79 0 1 1
node 80 0 1 1
node 81 0 1 1
node 82 0 1 1
node 83 0 1 1
node 84 0 1 1
node 85 0 1 1
node 86 0 1 1
node 87 0 1 1
node 88 0 1 1
node 89 0 1 1
node 90 0 1 1
node 91 0 1 1
node 92 0 1 1
node 93 0 1 1
node 94 0 1 1
node 95 0 1 1
node 96 0 1 1
node 97 0 1 1
node 98 0 1 1
node 99 0 1 1
node 100 0 1 1
node 101 0 1 1
node 102 0 1 1
node 103 0 1 1
node 104 0 1 1
node 105 0 1 1
node 106 0 1 1
node 107 0 1 1
node 108 0 1 1
node 109 0 1 1
node 110 0 1 1
node 111 0 1 1
node 112 0 1 1
node 113 0 1 1
node 114 0 1 1
node 115 0 1 1
node 116 0 1 1
node 117 0 1 1
node 118 0 1 1
node 119 0 1 1
node 120 0 1 1
node 121 0 1 1
node 122 0 1 1
node 123 0 1 1
node 124 0 1 1
node 125 0 1 1
node 126 0 1 1
node 127 0 1 1
node 128 0 1 1
node 129 0 1 1
node 130 0 1 1
node 131 0 1 1
node 132 0 1 1
node 133 0 1 1
node 134 0 1 1
node 135 0 1 1
node 136 0 1 1
node 137 0 1 1
node 138 0 1 1
node 139 0 1 1
node 140 0 1 1
node 141 0 1 1
node 142 0 1 1
node 143 0 1 1
node 144 0 1 1
node 145 0 1 1
node 146 0 1 1
node 147 0 1 1
node 148 0 1 1
node 149 0 1 1
node 150 0 1 1
node 151 0 1 1
node 152 0 1 1
node 153 0 1 1
node 154 0 1 1
node 155 0 1 1
node 156 0 1 1
node 157 0 1 1
node 158 0 1 1
node 159 0 1 1
node 160 0 1 1
node 161 0 1 1
node 162 0 1 1
node 163 0 1 1
node 164 0 1 1
node 165 0 1 1
node 166 0 1 1
node 167 0 1 1
node 168 0 1 1
node 169 0 1 1
node 170 0 1 1
node 171 0 1 1
node 172 0 1 1
node 173 0 0 2
node 174 0 0 2
node 175 0 0 2
node 176 0 0 2
node 177 0 0 2
node 178 0 0 2
node 179 0 0 2
node 180 0 0 2
node 181 0 0 2
node 182 0 0 2
node 183 0 0 2
node 184 0 0 2
node 185 0 0 2
node 186 0 0 2
node 187 0 0 2
node 188 0 0 2
node 189 0 0 2
node 190 0 0 2
gene 1 1 173 0.0 0 1 0 1
gene 2 1 174 0.0 0 2 0 1
gene 3 1 175 0.0 0 3 0 1
gene 1 1 176 0.0 0 4 0 1
gene 2 1 177 0.0 0 5 0 1
gene 3 1 178 0.0 0 6 0 1
gene 1 1 179 0.0 0 7 0 1
gene 2 1 180 0.0 0 8 0 1
gene 3 1 181 0.0 0 9 0 1
gene 1 1 182 0.0 0 10 0 1
gene 2 1 183 0.0 0 11 0 1
gene 3 1 184 0.0 0 12 0 1
gene 1 1 185 0.0 0 13 0 1
gene 2 1 186 0.0 0 14 0 1
gene 3 1 187 0.0 0 15 0 1
gene 1 1 188 0.0 0 16 0 1
gene 2 1 189 0.0 0 17 0 1
gene 3 1 190 0.0 0 18 0 1
gene 1 163 173 0.0 0 19 0 1
gene 2 163 174 0.0 0 20 0 1
gene 3 163 175 0.0 0 21 0 1
gene 1 163 176 0.0 0 22 0 1
gene 2 163 177 0.0 0 23 0 1
gene 3 163 178 0.0 0 24 0 1
gene 1 163 179 0.0 0 25 0 1
gene 2 163 180 0.0 0 26 0 1
gene 3 163 181 0.0 0 27 0 1
gene 1 163 182 0.0 0 28 0 1
gene 2 163 183 0.0 0 29 0 1
gene 3 163 184 0.0 0 30 0 1
gene 1 163 185 0.0 0 31 0 1
gene 2 163 186 0.0 0 32 0 1
gene 3 163 187 0.0 0 33 0 1
gene 1 163 188 0.0 0 34 0 1
gene 2 163 189 0.0 0 35 0 1
gene 3 163 190 0.0 0 36 0 1
gene 1 164 173 0.0 0 37 0 1
gene 2 164 174 0.0 0 38 0 1
gene 3 164 175 0.0 0 39 0 1
gene 1 164 176 0.0 0 40 0 1
gene 2 164 177 0.0 0 41 0 1
gene 3 164 178 0.0 0 42 0 1
gene 1 164 179 0.0 0 43 0 1
gene 2 164 180 0.0 0 44 0 1
gene 3 164 181 0.0 0 45 0 1
gene 1 164 182 0.0 0 46 0 1
gene 2 164 183 0.0 0 47 0 1
gene 3 164 184 0.0 0 48 0 1
gene 1 164 185 0.0 0 49 0 1
gene 2 164 186 0.0 0 50 0 1
gene 3 164 187 0.0 0 51 0 1
gene 1 164 188 0.0 0 52 0 1
gene 2 164 189 0.0 0 53 0 1
gene 3 164 190 0.0 0 54 0 1
gene 1 165 173 0.0 0 55 0 1
gene 2 165 174 0.0 0 56 0 1
gene 3 165 175 0.0 0 57 0 1
gene 1 165 176 0.0 0 58 0 1
gene 2 165 177 0.0 0 59 0 1
gene 3 165 178 0.0 0 60 0 1
gene 1 165 179 0.0 0 61 0 1
gene 2 165 180 0.0 0 62 0 1
gene 3 165 181 0.0 0 63 0 1
gene 1 165 182 0.0 0 64 0 1
gene 2 165 183 0.0 0 65 0 1
gene 3 165 184 0.0 0 66 0 1
gene 1 165 185 0.0 0 67 0 1
gene 2 165 186 0.0 0 68 0 1
gene 3 165 187 0.0 0 69 0 1
gene 1 165 188 0.0 0 70 0 1
gene 2 165 189 0.0 0 71 0 1
gene 3 165 190 0.0 0 72 0 1
gene 1 166 173 0.0 0 73 0 1
gene 2 166 174 0.0 0 74 0 1
gene 3 166 175 0.0 0 75 0 1
gene 1 166 176 0.0 0 76 0 1
gene 2 166 177 0.0 0 77 0 1
gene 3 166 178 0.0 0 78 0 1
gene 1 166 179 0.0 0 79 0 1
gene 2 166 180 0.0 0 80 0 1
gene 3 166 181 0.0 0 81 0 1
gene 1 166 182 0.0 0 82 0 1
gene 2 166 183 0.0 0 83 0 1
gene 3 166 184 0.0 0 84 0 1
gene 1 166 185 0.0 0 85 0 1
gene 2 166 186 0.0 0 86 0 1
gene 3 166 187 0.0 0 87 0 1
gene 1 166 188 0.0 0 88 0 1
gene 2 166 189 0.0 0 89 0 1
gene 3 166 190 0.0 0 90 0 1
gene 1 167 173 0.0 0 91 0 1
gene 2 167 174 0.0 0 92 0 1
gene 3 167 175 0.0 0 93 0 1
gene 1 167 176 0.0 0 94 0 1
gene 2 167 177 0.0 0 95 0 1
gene 3 167 178 0.0 0 96 0 1
gene 1 167 179 0.0 0 97 0 1
gene 2 167 180 0.0 0 98 0 1
gene 3 167 181 0.0 0 99 0 1
gene 1 167 182 0.0 0 100 0 1
gene 2 167 183 0.0 0 101 0 1
gene 3 167 184 0.0 0 102 0 1
gene 1 167 185 0.0 0 103 0 1
gene 2 167 186 0.0 0 104 0 1
gene 3 167 187 0.0 0 105 0 1
gene 1 167 188 0.0 0 106 0 1
gene 2 167 189 0.0 0 107 0 1
gene 3 167 190 0.0 0 108 0 1
gene 1 168 173 0.0 0 109 0 1
gene 2 168 174 0.0 0 110 0 1
gene 3 168 175 0.0 0 111 0 1
gene 1 168 176 0.0 0 112 0 1
gene 2 168 177 0.0 0 113 0 1
gene 3 168 178 0.0 0 114 0 1
gene 1 168 179 0.0 0 115 0 1
gene 2 168 180 0.0 0 116 0 1
gene 3 168 181 0.0 0 117 0 1
gene 1 168 182 0.0 0 118 0 1
gene 2 168 183 0.0 0 119 0 1
gene 3 168 184 0.0 0 120 0 1
gene 1 168 185 0.0 0 121 0 1
gene 2 168 186 0.0 0 122 0 1
gene 3 168 187 0.0 0 123 0 1
gene 1 168 188 0.0 0 124 0 1
gene 2 168 189 0.0 0 125 0 1
gene 3 168 190 0.0 0 126 0 1
gene 1 169 173 0.0 0 127 0 1
gene 2 169 174 0.0 0 128 0 1
gene 3 169 175 0.0 0 129 0 1
gene 1 169 176 0.0 0 130 0 1
gene 2 169 177 0.0 0 131 0 1
gene 3 169 178 0.0 0 132 0 1
gene 1 169 179 0.0 0 133 0 1
gene 2 169 180 0.0 0 134 0 1
gene 3 169 181 0.0 0 135 0 1
gene 1 169 182 0.0 0 136 0 1
gene 2 169 183 0.0 0 137 0 1
gene 3 169 184 0.0 0 138 0 1
gene 1 169 185 0.0 0 139 0 1
gene 2 169 186 0.0 0 140 0 1
gene 3 169 187 0.0 0 141 0 1
gene 1 169 188 0.0 0 142 0 1
gene 2 169 189 0.0 0 143 0 1
gene 3 169 190 0.0 0 144 0 1
gene 1 170 173 0.0 0 145 0 1
gene 2 170 174 0.0 0 146 0 1
gene 3 170 175 0.0 0 147 0 1
gene 1 170 176 0.0 0 148 0 1
gene 2 170 177 0.0 0 149 0 1
gene 3 170 178 0.0 0 150 0 1
gene 1 170 179 0.0 0 151 0 1
gene 2 170 180 0.0 0 152 0 1
gene 3 170 181 0.0 0 153 0 1
gene 1 170 182 0.0 0 154 0 1
gene 2 170 183 0.0 0 155 0 1
gene 3 170 184 0.0 0 156 0 1
gene 1 170 185 0.0 0 157 0 1
gene 2 170 186 0.0 0 158 0 1
gene 3 170 187 0.0 0 159 0 1
gene 1 170 188 0.0 0 160 0 1
gene 2 170 189 0.0 0 161 0 1
gene 3 170 190 0.0 0 162 0 1
gene 1 171 173 0.0 0 163 0 1
gene 2 171 174 0.0 0 164 0 1
gene 3 171 175 0.0 0 165 0 1
gene 1 171 176 0.0 0 166 0 1
gene 2 171 177 0.0 0 167 0 1
gene 3 171 178 0.0 0 168 0 1
gene 1 171 179 0.0 0 169 0 1
gene 2 171 180 0.0 0 170 0 1
gene 3 171 181 0.0 0 171 0 1
gene 1 171 182 0.0 0 172 0 1
gene 2 171 183 0.0 0 173 0 1
gene 3 171 184 0.0 0 174 0 1
gene 1 171 185 0.0 0 175 0 1
gene 2 171 186 0.0 0 176 0 1
gene 3 171 187 0.0 0 177 0 1
gene 1 171 188 0.0 0 178 0 1
gene 2 171 189 0.0 0 179 0 1
gene 3 171 190 0.0 0 180 0 1
gene 1 172 173 0.0 0 181 0 1
gene 2 172 174 0.0 0 182 0 1
gene 3 172 175 0.0 0 183 0 1
gene 1 172 176 0.0 0 184 0 1
gene 2 172 177 0.0 0 185 0 1
gene 3 172 178 0.0 0 186 0 1
gene 1 172 179 0.0 0 187 0 1
gene 2 172 180 0.0 0 188 0 1
gene 3 172 181 0.0 0 189 0 1
gene 1 172 182 0.0 0 190 0 1
gene 2 172 183 0.0 0 191 0 1
gene 3 172 184 0.0 0 192 0 1
gene 1 172 185 0.0 0 193 0 1
gene 2 172 186 0.0 0 194 0 1
gene 3 172 187 0.0 0 195 0 1
gene 1 172 188 0.0 0 196 0 1
gene 2 172 189 0.0 0 197 0 1
gene 3 172 190 0.0 0 198 0 1
genomeend 1
